{"model_str": "tree\nversion=v4\nnum_class=1\nnum_tree_per_iteration=1\nlabel_index=0\nmax_feature_idx=34\nobjective=binary sigmoid:1\nfeature_names=open high low close volume trade_value price_change_1h volume_change_1h trade_value_change_1h price_change_3h volume_change_3h trade_value_change_3h price_change_6h volume_change_6h trade_value_change_6h price_change_12h volume_change_12h trade_value_change_12h price_change_24h volume_change_24h trade_value_change_24h rsi_12 sma_12 ema_12 rsi_24 sma_24 ema_24 rsi_48 sma_48 ema_48 macd bollinger_hband hour dayofweek is_weekend\nfeature_infos=[53231000:157151000] [53258000:157198000] [53125000:156742000] [53232000:157175000] [0.00023622000000000001:1605.17640626] [19979.4876:186922792508.97699] [-0.11172764036490168:0.086642846152531039] [-0.99965557221444978:71753.02040470748] [-0.99965557221444978:71909.966417652264] [-0.12681047765793529:0.15185283218634194] [-0.99979707988662136:16875.846668360002] [-0.99979712306213431:16917.350382086872] [-0.14470705424250652:0.13441856361390503] [-0.99997327653438817:15261.311743290153] [-0.99997325123406577:15289.100771529296] [-0.14524886877828058:0.11886037645530245] [-0.99985975383241266:25860.687748708831] [-0.99985900032266861:25897.685433948769] [-0.14558393390224045:0.16146109052408675] [-0.99998527402389581:24732.9680895928] [-0.99998520035814475:25183.190814084297] [3.2541506062519119:96.415464967115355] [53440083.333333336:156304666.66666666] [53468132.428088725:156332156.45598963] [5.2214170271571447:91.203403424438036] [53581291.666666664:155918291.66666666] [53554311.763972677:155994379.44589123] [8.7980946649659728:81.818699459401373] [53609187.5:155593916.66666666] [53675117.564782754:155666418.02559716] [-3093094.9761691242:1668345.1090890765] [53817380.711081713:157292838.81798086] [0:23] [0:6] [0:1]\ntree_sizes=3538 3564 3557 3523 3563 3554 3533 3536 3501 3542 3528 3500 3486 3517 3534 3501 3517 3520 3530 3565 3496 3480 3554 3506 3488 3552 3466 3483 3536 3470 3541 3478 3538 3503 3522 3510 3512 3494 3518 3416 3497 3454 3459 3518 3422 3475 3485 3524 3482 3492 3430 3468 3523 3453 3408 3481 3433 3457 3453 3461 3531 3417 3449 3506 3457 3430 3478 3496 3458 3476 3468 3424 3470 3481 3465 3426 3452 3491 3469 3454 3493 3428 3511 3532 3447 3470 3431 3509 3517 3477 3403 3479 3482 3489 3465 3439 3454 3455 3442 3499\n\nTree=0\nnum_leaves=31\nnum_cat=0\nsplit_feature=6 15 9 18 5 9 4 6 9 18 16 6 12 6 17 4 24 25 13 27 33 15 13 21 10 15 18 29 19 18\nsplit_gain=159.835 58.3783 42.7519 21.6843 19.6233 21.4971 17.1235 19.6702 19.4365 22.8057 17.8802 17.0937 17.2342 15.9363 15.02 14.9284 13.9667 13.7256 13.5127 13.3665 13.2133 12.3067 11.6322 12.6091 20.3045 11.3518 13.8293 11.2838 13.017 11.2602\nthreshold=-0.00096829920037500006 -0.0020990296851899344 -0.0022896588478751308 -0.0030638596381326595 3421485362.4142957 0.0032329422339899554 2.1682980000000005 -1.0000000180025095e-35 -0.0011041744441406818 0.0050491912595200814 -0.74097023931027473 -0.00045018003371694032 -0.00072034926648778519 0.0060200983917191317 7.9971395257119537 4.213192825000001 44.926852415312645 153731020.83333337 -0.13889768572670888 52.190802671946649 1.0000000180025095e-35 0.003399867722113759 1.4688751032692351 60.822524375902994 0.18084636335187679 0.005239664051915117 0.015708321875000601 59536606.558058865 0.47101088103694405 0.02093846190200677\ndecision_type=2 2 2 2 2 2 2 2 2 2 2 2 2 2 2 2 2 2 2 2 2 2 2 2 2 2 2 2 2 2\nleft_child=2 16 27 17 5 6 11 8 9 -8 -10 -5 -13 21 -9 -4 20 -3 -15 -14 -2 29 23 -17 -25 -7 -27 28 -1 -6\nright_child=1 3 15 4 13 25 7 14 10 -11 -12 12 19 18 -16 22 -18 -19 -20 -21 -22 -23 -24 24 -26 26 -28 -29 -30 -31\nleaf_value=-0.020066958488082348 -0.032498360916765882 -0.027983090251429112 -0.015428605425461794 -0.025617860297058044 -0.010177511229174964 -0.037265275414224711 -0.025799290316385306 -0.031470146838944044 -0.053357492453533509 -0.04735952028547806 -0.036681253342628811 -0.028529314897546454 -0.039328795344956854 0.012027270407054081 -0.062488460765581053 -0.027105785008665222 -0.030143754166193231 -0.10373992594055234 -0.063958107559283967 -0.05027674016345237 -0.022732436425848598 -0.028174926679517528 -0.018800944281458121 -0.052688655529014604 -0.021073975946266234 -0.053263077730024422 -0.023856805848930476 -0.016919025816374271 0.013013373719827939 -0.06762056068009914\nleaf_weight=51.98811674118042 417.15464827418327 1825.0828290581703 315.92778635025024 225.44846779108047 164.46240776777267 462.39430755376816 761.07603594660759 7179.6089105308056 168.4614936709404 146.21657833456993 3505.6986798644066 258.4409264922142 919.28987199068069 6.7484574615955344 39.241030424833298 1948.0547205805779 1847.3277443945408 5.998628854751586 43.989944934844971 400.15853318572044 2040.7835249602795 638.85397303104401 372.91476047039032 126.22114881873131 84.980575442314148 295.43247109651566 46.239430755376816 1698.611737370491 69.484117567539215 8.9979432821273786\nleaf_count=208 1669 7302 1264 902 658 1850 3045 28725 674 585 14026 1034 3678 27 157 7794 7391 24 176 1601 8165 2556 1492 505 340 1182 185 6796 278 36\ninternal_value=-0.0302348 -0.0320628 -0.0218518 -0.0333729 -0.0339894 -0.0344281 -0.0339585 -0.033265 -0.0358275 -0.0292739 -0.0374459 -0.0384963 -0.0403364 -0.0266661 -0.0316388 -0.0256769 -0.0268588 -0.0282313 -0.0538517 -0.0426491 -0.0243899 -0.0249681 -0.0269555 -0.0283639 -0.039968 -0.0423722 -0.0492834 -0.0158662 -0.00114446 -0.0131573\ninternal_weight=26075.3 21407.1 4668.18 17101.8 15270.8 14407.7 13603.6 11800.3 4581.45 907.293 3674.16 1803.34 1577.89 863.053 7218.85 2848.1 4305.27 1831.08 50.7384 1319.45 2457.94 812.314 2532.17 2159.26 211.202 804.066 341.672 1820.08 121.472 173.46\ninternal_count=104325 85648 18677 68423 61097 57644 54427 47212 18330 3630 14700 7215 6313 3453 28882 11395 17225 7326 203 5279 9834 3250 10131 8639 845 3217 1367 7282 486 694\nis_linear=0\nshrinkage=1\n\n\nTree=1\nnum_leaves=31\nnum_cat=0\nsplit_feature=6 15 9 18 5 9 6 32 9 17 24 5 6 21 4 31 17 24 31 18 15 13 6 1 33 24 20 15 28 32\nsplit_gain=144.241 52.6886 38.5717 19.572 17.7112 19.4094 15.7121 19.4405 22.9088 19.7019 18.4196 17.7731 14.3894 14.3564 14.3043 13.6461 13.4598 12.6034 12.3101 12.5276 12.285 12.202 12.0914 13.8891 11.9231 11.3077 13.8485 11.2347 11.0577 11.0343\nthreshold=-0.00096829920037500006 -0.0020990296851899344 -0.0022896588478751308 -0.0030638596381326595 3421485362.4142957 0.0032329422339899554 -1.0715414994699744e-05 4.5000000000000009 -0.0011041744441406818 -0.69082566394082656 57.280120182795052 221344856.71215004 0.0060200983917191317 50.773947850190119 1.1802423000000002 154564793.47310922 7.9971395257119537 44.926852415312645 86592089.102330819 0.002656091271452055 0.0041257516903906452 -0.13889768572670888 0.00049431197953686567 97997500.000000015 1.0000000180025095e-35 61.535461595863701 2.618227750934818 0.0041257516903906452 96462500.000000015 1.0000000180025095e-35\ndecision_type=2 2 2 2 2 2 2 2 2 2 2 2 2 2 2 2 2 2 2 2 2 2 2 2 2 2 2 2 2 2\nleft_child=2 17 -1 15 5 6 7 -5 10 18 -9 13 27 -8 -4 -3 -13 24 19 -10 22 -14 23 28 -2 -11 -27 -6 -15 -16\nright_child=1 3 14 4 12 -7 11 8 9 25 -12 16 21 20 29 -17 -18 -19 -20 -21 -22 -23 -24 -25 -26 26 -28 -29 -30 -31\nleaf_value=0.013647878585103194 -0.0021505081760228957 0.0021398412480364321 0.044960136218522434 0.00091293709207033416 0.014851551987190764 -0.011533404174705771 -9.3455462124953327e-05 0.0033787417759429043 -0.017842706372996328 -0.0069088189144345964 -0.020739395086703017 -0.0010127506839130377 0.040140837581482472 -0.0068779213579437297 0.017253448045163725 -0.076842204639169021 -0.030672749961501385 8.6443606367739628e-05 -0.029696573488058514 0.018699895720159121 0.018388893685840957 -0.032063225035619022 -0.020442257606062154 -0.039168292008868642 0.0071264721483442059 -0.027012683163415176 0.0071741458712887007 0.0014924200544920987 0.045004711092778447 0.0032832325071163828\nleaf_weight=1820.3702006340027 417.13985060155392 1825.6413307785988 21.498721063137054 930.93516907095909 213.47752732038498 803.87342275679111 428.36191581189632 702.85844887793064 101.70411446690559 3131.6925894916058 89.213330179452896 6939.0218869149685 6.7497557848691931 478.30058778822422 149.22115617990494 5.4852288365364066 38.462441354990005 1847.3302774876356 172.41253869235516 30.483323961496353 33.486615583300591 43.955032825469971 303.37791059911251 33.233449712395668 2040.9863454848528 141.20172983407974 37.48731529712677 598.88114410638809 10.495132505893705 2677.5235348343849\nleaf_count=7282 1669 7304 86 3725 854 3217 1714 2812 407 12531 357 27763 27 1914 597 22 154 7391 690 122 134 176 1214 133 8165 565 150 2396 42 10712\ninternal_value=-2.62102e-08 -0.00173673 0.00796303 -0.00298142 -0.00356718 -0.00398398 -0.00353783 -0.00565229 -0.00703911 -0.00872654 0.000662246 -0.00217216 0.00339008 -0.00757042 0.00432972 0.00190325 -0.00117625 0.00320701 -0.0208953 -0.00941573 -0.0112995 -0.0224515 -0.0125039 -0.00789052 0.00555218 -0.00760686 -0.0198406 0.00500303 -0.00576393 0.00402071\ninternal_weight=26074.9 21406.2 4668.61 17100.8 15269.7 14406.6 13602.7 5337.99 4407.05 3614.98 792.072 8264.74 863.063 1287.26 2848.24 1831.13 6977.48 4305.46 304.6 132.187 858.894 50.7048 825.407 522.029 2458.13 3310.38 178.689 812.359 488.796 2826.74\ninternal_count=104325 85648 18677 68423 61097 57644 54427 21359 17634 14465 3169 33068 3453 5151 11395 7326 27917 17225 1219 529 3437 203 3303 2089 9834 13246 715 3250 1956 11309\nis_linear=0\nshrinkage=0.05\n\n\nTree=2\nnum_leaves=31\nnum_cat=0\nsplit_feature=6 12 9 18 5 9 6 32 9 27 4 12 16 6 14 6 16 5 4 17 33 10 2 7 27 25 14 21 11 32\nsplit_gain=130.174 46.8072 34.8078 29.007 13.4797 14.9087 14.4822 22.3563 21.7933 24.3356 18.1122 18.2731 15.745 14.5785 14.4663 14.298 13.7804 14.1167 13.1473 12.7619 11.6839 11.5498 11.4464 11.4123 11.3844 11.2928 11.1782 15.0154 18.0404 12.5381\nthreshold=-0.00096829920037500006 -0.0025562229536165155 -0.0022896588478751308 -0.0031998827566834804 3421485362.4142957 0.0032329422339899554 -1.0000000180025095e-35 4.5000000000000009 -0.0011041744441406818 52.459966058474343 2.6942278500000003 -0.00069741796847938564 -0.74097023931027473 0.00072923228923516003 -0.16411088509352714 0.0060200983917191317 7.9836888405453204 1026056795.8137902 4.213192825000001 -0.61527567875087019 1.0000000180025095e-35 5.1532151082212332 148061500.00000003 -0.39867119937147555 50.45976878421704 59162562.500000007 1.340021050666919 60.822524375902994 0.15659209735882776 1.0000000180025095e-35\ndecision_type=2 2 2 2 2 2 2 2 2 2 2 2 2 2 2 2 2 2 2 2 2 2 2 2 2 2 2 2 2 2\nleft_child=2 23 -1 21 5 6 7 -5 9 -9 11 -8 -10 -12 -7 -6 17 -15 -4 -19 25 -3 -14 -2 -22 -13 27 29 -29 -20\nright_child=1 3 18 4 15 14 10 8 12 -11 13 20 22 16 -16 -17 -18 19 26 -21 24 -23 -24 -25 -26 -27 -28 28 -30 -31\nleaf_value=0.012964654306967034 -0.00064289475090601681 0.0024103144637180442 0.01372965578508438 0.001594168997421856 0.0044182199057616499 0.00013909675394751345 0.0058644032492448823 0.0058933996593502668 -0.020911489803932617 -0.012473205382183401 0.00096671260889714906 -0.063329881190617041 -0.007600179731448763 -0.0060527648425718747 -0.0141714057654415 -0.023155481356274075 -0.041339656036630958 -0.017091042883180339 0.019300418627082511 0.0023814976070155188 -0.0012272491399889238 -0.042718717912310758 0.022438767960659398 0.0074946394874905262 -0.01199228722027823 -0.017415924265756652 0.010504660399748147 -0.023953835886296668 0.006183957447387243 0.001839696925958108\nleaf_weight=1820.4825578629971 590.89780683815479 2867.77470728755 315.98489865660667 1020.4329707175493 813.88094812631607 249.09354840219021 228.68779975175858 624.15312947332859 226.75578626990318 253.64671248197556 4263.8710684925318 14.492492377758024 3727.9718565195799 1814.0265545994043 606.79864196479321 49.895845487713814 23.9490125477314 90.976813852787018 108.99735575914383 1119.9618281573057 427.80851306021214 14.247968614101408 31.985129579901695 1590.7089358568192 576.61147704720497 176.38715614378452 406.97188499569893 119.42962321639061 84.992343723773956 1811.9929159283638\nleaf_count=7282 2364 11473 1264 4083 3256 997 915 2497 908 1015 17060 58 14919 7258 2429 200 96 364 436 4481 1712 57 128 6364 2308 706 1628 478 340 7249\ninternal_value=-5.23042e-08 -0.00165002 0.00756447 -0.00243769 -0.00325335 -0.0035926 -0.00321715 -0.00513446 -0.00654593 0.000586234 -0.00192568 -0.00708472 -0.0081163 -0.000921083 -0.0100066 0.00282543 -0.00356114 -0.00326205 0.00411304 0.000918542 -0.00956218 0.00218721 -0.00734464 0.00529055 -0.00740718 -0.0209019 0.00291311 0.00145948 -0.0114235 0.00283042\ninternal_weight=26073.9 21405 4668.85 19223.4 16341.4 15477.6 14621.7 5884.95 4864.51 877.8 8736.77 1423.99 3986.71 7312.79 855.892 863.777 3048.91 3024.97 2848.37 1210.94 1195.3 2882.02 3759.96 2181.61 1004.42 190.88 2532.38 2125.41 204.422 1920.99\ninternal_count=104325 85648 18677 76920 65390 61934 58508 23550 19467 3512 34958 5699 15955 29259 3426 3456 12199 12103 11395 4845 4784 11530 15047 8728 4020 764 10131 8503 818 7685\nis_linear=0\nshrinkage=0.05\n\n\nTree=3\nnum_leaves=31\nnum_cat=0\nsplit_feature=6 15 9 6 21 4 32 9 27 24 17 9 6 5 13 4 2 7 21 1 17 0 13 1 10 4 6 32 7 7\nsplit_gain=117.485 44.1871 31.4161 14.9331 16.8759 19.0119 15.9127 16.9411 22.9305 15.4312 14.4793 13.7823 13.5441 13.6282 12.7881 12.5964 12.5663 12.1 11.6848 11.6547 11.6018 15.5448 12.8502 12.1151 11.0167 12.2074 15.5669 14.2321 12.7107 10.8752\nthreshold=-0.00096829920037500006 -0.0020990296851899344 -0.0022896588478751308 -1.0715414994699744e-05 45.405740753958248 2.6942278500000003 4.5000000000000009 -0.0011041744441406818 52.459966058474343 42.992370914940288 0.12642456787387937 0.0032329422339899554 -0.00036795882573442679 1084150998.3402252 4.2852206782761213 1.1802423000000002 100500500.00000001 0.8355780078612437 58.777974456300065 59149500.000000007 -0.69082566394082656 83988500.000000015 -0.46686651333267848 147663500.00000003 -0.30948490532379425 10.558672550000002 -0.0023558950041479561 2.5000000000000004 0.029777028481652427 -0.62395646105382752\ndecision_type=2 2 2 2 2 2 2 2 2 2 2 2 2 2 2 2 2 2 2 2 2 2 2 2 2 2 2 2 2 2\nleft_child=2 18 24 6 10 -6 -3 8 9 -8 -5 17 -10 -14 19 -4 -13 -7 -2 -12 21 22 -9 -22 25 -1 -27 -28 -29 -24\nright_child=1 3 15 4 5 11 7 20 12 -11 14 16 13 -15 -16 -17 -18 -19 -20 -21 23 -23 29 -25 -26 26 27 28 -30 -31\nleaf_value=0.01710233637793528 0.0031340655226116294 0.00072742113228135374 0.042042987688958644 0.0088712821730906038 -0.0078713200203093595 -0.0014329119424199303 -0.011543896313907922 -0.01639764477187499 -0.0031510450139895668 0.0085136665664417282 -0.0324628593704748 -0.0086971164435021911 -0.039610298925792584 -0.0038431803234688167 -0.047560749761188306 0.0036174844201572343 0.0032146882887594368 0.0040628403670313123 -0.035914931387325461 0.0011584149419436962 -0.0067316497769019396 -0.022162312141838319 0.084642413061955732 0.018618847235052995 0.01400730081651237 0.012002935771052974 0.028317677731480168 -0.010896817627935623 -0.050557889311958204 0.010300176908995699\nleaf_weight=103.74728384613991 4286.3742547780275 1122.67635153234 21.489944070577621 667.60406652092934 1296.4612495452166 6040.835226431489 115.48577590286732 55.694181233644485 178.39422664046288 565.18896627426147 27.993036910891533 1019.164775326848 66.963115498423576 44.219110503792763 15.743447750806807 2826.8619974851608 282.85496215522289 1200.6064021587372 19.243638008832932 325.4236625880003 3707.18390019238 265.32628946006298 5.4950484931468955 47.736373916268349 1531.1920438706875 81.746998816728592 14.749577313661574 57.997642427682877 30.998721748590469 46.954161554574966\nleaf_count=415 17148 4492 86 2671 5190 24170 462 223 714 2261 112 4080 268 177 63 11309 1132 4804 77 1302 14838 1063 22 191 6125 327 59 232 124 188\ninternal_value=-7.52707e-08 -0.00156765 0.00718634 -0.00270769 -0.00159014 -0.00222944 -0.00466149 -0.00584808 9.70628e-05 0.00511063 0.00447737 -0.00137329 -0.0116878 -0.0253851 -0.00346876 0.00390739 -0.00610936 -0.000521735 0.00295954 -0.00150462 -0.0072453 -0.0156499 0.00032824 -0.00640937 0.0123168 0.00336737 -0.00431468 -0.0171722 -0.0247113 0.0180889\ninternal_weight=26072.4 21403.6 4668.78 17098 10876.7 9839.92 6221.32 5098.64 970.251 680.675 1036.76 8543.46 289.576 111.182 369.16 2848.35 1302.02 7241.44 4305.62 353.417 4128.39 373.47 108.143 3754.92 1820.43 289.24 185.493 103.746 88.9964 52.4492\ninternal_count=104325 85648 18677 68423 43524 39376 24899 20407 3882 2723 4148 34186 1159 445 1477 11395 5212 28974 17225 1414 16525 1496 433 15029 7282 1157 742 415 356 210\nis_linear=0\nshrinkage=0.05\n\n\nTree=4\nnum_leaves=31\nnum_cat=0\nsplit_feature=6 12 9 18 5 14 5 6 18 24 24 14 6 15 2 5 21 6 27 10 12 15 6 26 26 18 6 31 30 21\nsplit_gain=106.036 40.0245 28.487 24.6655 13.7421 12.9314 12.2182 13.8962 13.5524 19.6333 15.2753 13.6888 12.9522 17.7556 15.9569 12.7713 14.0144 12.7412 12.1944 12.1468 16.1443 12.1012 12.0179 11.6666 11.948 11.1879 11.0829 12.9729 10.64 15.4458\nthreshold=-0.00096829920037500006 -0.0025562229536165155 -0.003149598343572035 -0.0031998827566834804 356962136.79933012 1.6624821390542484 3421485362.4142957 0.0020058798070728971 0.015708321875000601 58.766618160234508 57.922978098682044 2.6830993678150326 -1.0000000180025095e-35 -0.0068753128569911106 63588500.000000007 221344856.71215004 48.098670187211447 0.0060200983917191317 50.412310200253479 0.040973528302516223 -0.0029785715585705082 0.0041257516903906452 0.00051990429072112942 75115062.834367216 76489711.940747246 0.0046585504547032039 -3.5885596799789525e-05 85040086.634338573 20835.425098367039 57.934801274642687\ndecision_type=2 2 2 2 2 2 2 2 2 2 2 2 2 2 2 2 2 2 2 2 2 2 2 2 2 2 2 2 2 2\nleft_child=2 -2 23 26 -4 -6 7 12 9 10 11 -9 14 -14 18 16 -15 -8 -5 20 -7 22 -18 -1 -25 28 27 -3 29 -17\nright_child=1 3 4 6 5 19 17 8 -10 -11 -12 -13 13 15 -16 25 21 -19 -20 -21 -22 -23 -24 24 -26 -27 -28 -29 -30 -31\nleaf_value=0.026208256179227549 0.0049283773203967068 0.0056018437194227614 0.01392779588356817 0.0096838581599750194 0.0021495212898069954 -0.0019037282465929437 0.0043199908334089123 -0.0064005624972323294 0.014504584231601017 -0.023714753866950725 0.026605633632747351 -0.045778006074916278 0.045639225131552975 0.0033627736151047916 -0.0056666806996443332 -0.00036959812689759189 -0.0061405162793931132 -0.021726060621022655 -0.0037741348524708701 0.0074820307069900132 0.045427124989401907 0.020172458650015688 -0.017704068165298043 -0.037073804295024014 0.012102051477634624 -0.0047458075908973878 0.0043587333694426085 -0.0061944147579431341 0.0026112120580713029 -0.0097940021241497022\nleaf_weight=154.95304614305496 2181.7394698262215 356.44532726705074 347.69952386617661 314.81134401261806 2669.8754992038012 27.498555853962898 813.88555008172989 442.48957596719265 53.468091979622841 228.52265799045563 33.471326634287834 23.229074373841286 19.746256783604622 290.64188718795776 5292.604335680604 2954.1284861564636 663.32242538034916 49.827915817499161 361.72920647263527 349.73291559517384 52.249045833945274 34.234800189733505 339.79103808104992 12.498251140117643 1054.0997913330793 1579.0213716924191 1852.2444871217012 673.38174831867218 2333.6964012533426 509.77550578117371\nleaf_count=620 8728 1426 1391 1260 10681 110 3256 1771 214 915 134 93 79 1163 21186 11820 2656 200 1448 1399 209 137 1361 50 4217 6319 7410 2694 9338 2040\ninternal_value=-9.05738e-08 -0.0014894 0.0068273 -0.00221788 0.00450226 0.00344486 -0.00297017 -0.0032932 -0.00979141 -0.0115765 -0.00601983 -0.00836463 -0.00294772 -0.00171981 -0.00474241 -0.00182724 -0.00634106 0.00281739 0.00248821 0.0114973 0.0291065 -0.00905986 -0.0100575 0.0133883 0.0115258 -0.00101463 0.00204679 -0.00211148 1.58573e-06 -0.00175657\ninternal_weight=26070.8 21402.2 4668.61 19220.5 3447.06 3099.36 16338.4 15474.7 781.181 727.713 499.19 465.719 14693.5 8724.36 5969.14 8704.61 1327.99 863.713 676.541 429.481 79.7476 1037.35 1003.11 1221.55 1066.6 7376.62 2882.07 1029.83 5797.6 3463.9\ninternal_count=104325 85648 18677 76920 13790 12399 65390 61934 3127 2913 1998 1864 58807 34913 23894 34834 5317 3456 2708 1718 319 4154 4017 4887 4267 29517 11530 4120 23198 13860\nis_linear=0\nshrinkage=0.05\n\n\nTree=5\nnum_leaves=31\nnum_cat=0\nsplit_feature=6 15 9 18 5 9 31 31 15 4 4 6 12 6 29 9 18 16 27 15 27 17 24 21 18 10 27 4 18 15\nsplit_gain=95.7054 37.0282 26.3908 13.8627 13.2623 14.3947 12.6751 12.4208 12.1385 11.1055 11.0267 15.0491 13.1257 12.1259 14.1918 12.7287 19.1504 11.6047 11.4657 11.4609 11.1486 11.0612 10.5051 10.4482 9.94899 13.9654 11.246 13.0828 10.4089 9.94785\nthreshold=-0.00096829920037500006 -0.0020990296851899344 -0.0022896588478751308 -0.0030638596381326595 3421485362.4142957 0.0032329422339899554 55466296.064023137 154564793.47310922 0.003399867722113759 1.1802423000000002 2.1682980000000005 -0.00045018003371694032 -0.00072034926648778519 -3.5885596799789525e-05 56625279.521607704 -0.0011041744441406818 0.0050491912595200814 -0.74097023931027473 44.844621302678867 0.0041257516903906452 52.190802671946649 7.9971395257119537 42.311177230397924 58.777974456300065 -0.0044260656072913065 2.8409703407084392 59.782590928541374 43.065650280000007 -0.012007230791780675 0.005239664051915117\ndecision_type=2 2 2 2 2 2 2 2 2 2 2 2 2 2 2 2 2 2 2 2 2 2 2 2 2 2 2 2 2 2\nleft_child=2 23 -1 7 5 6 -5 -3 -6 -4 11 -8 22 14 -12 16 18 -17 -16 20 -14 -15 -13 -2 25 28 -26 -28 -11 -7\nright_child=1 3 9 4 8 29 10 -9 -10 24 13 12 19 21 15 17 -18 -19 -20 -21 -22 -23 -24 -25 26 -27 27 -29 -30 -31\nleaf_value=0.011189605741357814 0.0028940250240476798 0.0018771384002883682 0.039325164577234124 0.013979828869587497 0.01479577942251566 -0.0050356593701795637 0.0053843227789982795 -0.073662406722800833 7.0029339082752711e-05 0.01144544055004359 -0.063440034362996015 -0.043817307545630284 -0.0081030295654089431 -0.0011604450888751511 -0.019200083130305426 -0.019383399545101876 -0.016130045397969809 -0.0052674497370769936 0.0058501044772518327 0.02089894865685013 -0.018248477027571576 -0.027823945878446193 0.0041059436278407776 -0.034050310984330659 0.0058584920368326202 -0.046994862877845864 -0.017757736595518051 0.010982186461736026 -0.0044097349381638151 -0.016294198107129804\nleaf_weight=1819.9008940160275 4286.5046342909336 1825.7053893953562 21.447158634662628 109.94034902751446 175.72897073626518 461.90777558088303 224.87828980386257 5.45806761085987 687.19980199635029 131.24194799363613 10.242120042443274 11.993644446134565 897.67236144840717 7449.2235250174999 48.991640165448189 152.59028896689415 138.58590668439865 3177.2909265160561 675.57084773480892 28.489771485328674 387.74076661467552 39.100264489650726 245.62647299468517 19.223361074924469 2016.5463120937347 16.999468177556992 110.45220944285393 61.727489531040192 489.96940179169178 341.08378399908543\nleaf_count=7282 17148 7304 86 440 703 1850 900 22 2750 525 41 48 3595 29808 196 612 555 12721 2703 114 1554 157 983 77 8067 68 442 247 1960 1367\ninternal_value=-1.01762e-07 -0.00141505 0.00648641 -0.00245883 -0.00295199 -0.00331277 -0.00292863 0.00165198 0.00306882 0.00348143 -0.00306645 -0.0067136 -0.00844476 -0.00250607 -0.00465532 -0.00451173 0.000899173 -0.00591431 0.00415632 -0.0104682 -0.0111634 -0.00129967 0.00187485 0.00272908 0.0032095 -0.00228357 0.00481122 -0.0074543 -0.00106005 -0.00981791\ninternal_weight=26069 21400.7 4668.28 17095 15263.9 14400.9 13597.9 1831.16 862.929 2848.38 13488 1796.4 1571.52 11691.6 4203.27 4193.03 863.148 3329.88 724.562 1313.9 1285.41 7488.32 257.62 4305.73 2826.94 638.211 2188.73 172.18 621.211 802.992\ninternal_count=104325 85648 18677 68423 61097 57644 54427 7326 3453 11395 53987 7194 6294 46793 16828 16787 3454 13333 2899 5263 5149 29965 1031 17225 11309 2553 8756 689 2485 3217\nis_linear=0\nshrinkage=0.05\n\n\nTree=6\nnum_leaves=31\nnum_cat=0\nsplit_feature=6 12 9 18 32 15 26 26 10 18 14 18 6 20 9 27 26 13 21 30 8 5 6 18 24 15 14 5 6 18\nsplit_gain=86.3838 34.2291 23.8302 20.1209 14.7375 14.7293 10.5489 10.7844 10.3449 10.1499 15.914 13.3939 11.9386 10.6489 10.4028 11.0858 10.3613 10.1848 10.1589 10.0739 10.0666 10.0215 12.2068 12.4728 17.321 14.9371 12.3146 13.1741 11.4065 11.1031\nthreshold=-0.00096829920037500006 -0.0025562229536165155 -0.003149598343572035 -0.0031998827566834804 6.5000000000000009 0.0026023886067501061 75115062.834367216 76489711.940747246 5.1532151082212332 -0.0026758164836454541 1.1101119297841713 0.0089553194721302427 -0.0034517024857797503 -0.48603696361130649 -0.0019585727506575275 46.271547937535907 82544344.721181914 -0.19625624718043524 60.655861358694828 -65239.191605649881 -0.39874626916733641 3421485362.4142957 0.0020058798070728971 0.015708321875000601 58.766618160234508 0.0033318749956258169 -0.16411088509352714 1638443339.6332052 0.0060200983917191317 0.0046585504547032039\ndecision_type=2 2 2 2 2 2 2 2 2 2 2 2 2 2 2 2 2 2 2 2 2 2 2 2 2 2 2 2 2 2\nleft_child=2 20 6 8 5 19 -1 -8 -3 -6 11 18 -13 -12 15 -15 -14 -18 -11 -4 -2 22 29 24 25 26 -24 -28 -23 -5\nright_child=1 3 4 21 9 -7 7 -9 -10 10 13 12 16 14 -16 -17 17 -19 -20 -21 -22 28 23 -25 -26 -27 27 -29 -30 -31\nleaf_value=0.024361664478756935 -0.00098858948827299647 0.0020444804884904959 0.004305747647577878 -0.0020524834969166553 -0.0026185237372513912 -0.0019674491590158565 -0.035775579763943063 0.010941979470698329 -0.040686393178790282 0.0048594397133911909 -0.037215556935648764 0.031332111328240903 0.0063911276757497712 -0.0056265402240687898 0.011755472871018755 0.047808037402446858 -0.043006710247025598 -0.0097259621241320218 -0.015499625142952448 0.015767069239550159 0.0066579320820052872 0.0039647004601791134 0.001092001013636135 0.014224288624951335 -0.022205808152784383 0.0067975434937653234 -0.027179514048163406 -0.00036164786247658038 -0.020693924715641052 -0.0057430775453147943\nleaf_weight=154.80964468419552 589.93313191831112 2867.8993334025145 289.44558320939541 12245.787467420101 837.87093885242939 246.67301595211029 12.499615237116812 1053.6848888099194 14.234245568513868 1014.4033419936895 9.4990526437759382 13.746747612953184 32.736447781324387 12.495835348963736 221.47306264936924 43.483671233057976 45.973095551133156 45.980230689048767 65.212234079837799 567.83514778316021 1591.8622087091208 813.89310117065907 121.42555126547813 53.471833229064941 228.24419136345387 163.79956595599651 147.37280973792076 66.439818769693375 49.765791714191437 2444.7929576635361\nleaf_count=620 2360 11473 1158 49019 3352 987 50 4217 57 4058 38 55 131 50 886 174 184 184 261 2272 6368 3256 486 214 915 656 590 266 200 9788\ninternal_value=-1.19717e-07 -0.00134444 0.00616273 -0.00201825 0.00403643 0.00879934 0.0121652 0.0103943 0.00183344 0.00179217 0.00424771 0.00175218 -0.0128898 0.0148407 0.016623 0.0358803 -0.0177651 -0.026365 0.00362969 0.0118974 0.0045904 -0.00269784 -0.00299045 -0.00908259 -0.0107962 -0.00557777 -0.0116244 -0.0188462 0.00254382 -0.00266667\ninternal_weight=26066.7 21398.9 4667.82 19217.1 3446.83 1103.95 1220.99 1066.18 2882.13 2342.87 1505 1218.05 138.437 286.952 277.453 55.9795 124.69 91.9533 1079.62 857.281 2181.8 16335 15471.3 780.754 727.282 499.038 335.238 213.813 863.659 14690.6\ninternal_count=104325 85648 18677 76920 13790 4417 4887 4267 11530 9373 6021 4873 554 1148 1110 224 499 368 4319 3430 8728 65390 61934 3127 2913 1998 1342 856 3456 58807\nis_linear=0\nshrinkage=0.05\n\n\nTree=7\nnum_leaves=31\nnum_cat=0\nsplit_feature=6 15 9 6 32 9 27 27 21 4 19 6 32 9 7 13 17 31 13 1 5 4 16 10 4 6 32 7 24 33\nsplit_gain=77.9736 31.2439 21.9199 11.8586 14.3935 13.5502 20.1032 13.9687 13.3362 14.5431 13.8627 12.1428 13.2229 11.2253 11.3706 10.5936 10.117 13.545 12.3631 10.814 9.93693 9.81296 9.80484 9.76594 11.1455 13.8187 12.7605 11.4399 9.76371 11.0082\nthreshold=-0.00096829920037500006 -0.0020990296851899344 -0.0022896588478751308 -1.0715414994699744e-05 4.5000000000000009 -0.0011041744441406818 52.459966058474343 41.406876916504217 45.405740753958248 2.6942278500000003 0.16839169285670766 -0.00036795882573442679 8.5000000000000018 0.0032329422339899554 0.8355780078612437 -0.8907913363868345 -0.69082566394082656 84091003.917430401 -0.46686651333267848 147663500.00000003 731510485.49599516 1.1802423000000002 5.2368382234658766 -0.30948490532379425 10.558672550000002 -0.0023558950041479561 2.5000000000000004 0.029777028481652427 44.926852415312645 1.5000000000000002\ndecision_type=2 2 2 2 2 2 2 2 2 2 2 2 2 2 2 2 2 2 2 2 2 2 2 2 2 2 2 2 2 2\nleft_child=2 28 23 4 -3 6 7 -6 10 -10 -5 -8 -13 14 15 -11 17 18 -7 -18 -15 -4 -12 24 -1 -26 -27 -28 29 -2\nright_child=1 3 21 8 5 16 11 -9 9 13 22 12 -14 20 -16 -17 19 -19 -20 -21 -22 -23 -24 -25 25 26 27 -29 -30 -31\nleaf_value=0.014844293801952076 -0.00019210774921351573 0.0011477970920866988 0.036865426875111948 0.0087067511877682614 -0.031044537488189968 -0.01561139484823779 -0.0027461903416603505 0.0063310804523798031 -0.0067456298089422235 0.054613122585874176 -0.00192529857318094 -0.057376016854529782 -0.014939980839986705 -0.01833859090178613 0.0041527347696477708 -0.0012537260226761267 -0.0058812011873884268 -0.020259688504614404 0.018388284487021841 0.018069693906642991 -0.0038676707476268143 0.0028619180162831694 -0.052106036654636104 0.011735821267077916 0.009754679225208833 0.025361567920543351 -0.011770213281310782 -0.04939979648153299 -0.00021733189523480764 0.0069326036304114746\nleaf_weight=103.66635875403881 807.17770667374134 1122.4193153679371 21.377884954214096 639.88458302617073 25.991222679615021 55.382544726133347 178.32640331983566 654.65823589265347 1295.3314203470945 8.4973971694707853 386.9081167280674 23.206335812807083 87.843030899763107 132.03102469444275 1200.453644067049 6031.5356284230947 3705.1934041082859 265.8244463801384 51.694135621190071 47.735813453793526 1168.9274194538593 2826.755618005991 9.985569089651106 1529.9069460481405 81.680789977312088 14.731414839625357 57.981481552124023 30.994824469089508 1847.3576082587242 1651.1991101056337\nleaf_count=415 3229 4492 86 2560 104 222 714 2619 5190 34 1548 93 352 529 4804 24136 14838 1067 207 191 4683 11309 40 6125 327 59 232 124 7391 6605\ninternal_value=-1.20858e-07 -0.00127732 0.00585555 -0.00223628 -0.00397786 -0.00510684 0.000210541 0.00490386 -0.00124032 -0.0018088 0.00415334 -0.0108288 -0.023808 -0.00106012 -0.000291784 -0.00117513 -0.00635702 -0.0142117 0.000802861 -0.00557656 -0.00533629 0.00311715 -0.00318781 0.0101433 0.0017147 -0.00562716 -0.017742 -0.0248784 0.00252931 0.00459329\ninternal_weight=26064.7 21397.6 4667.1 17091.8 6218.27 5095.86 970.025 680.649 10873.6 9836.78 1036.78 289.376 111.049 8541.45 7240.49 6040.03 4125.83 372.901 107.077 3752.93 1300.96 2848.13 396.894 1818.96 289.055 185.389 103.708 88.9763 4305.73 2458.38\ninternal_count=104325 85648 18677 68423 24899 20407 3882 2723 43524 39376 4148 1159 445 34186 28974 24170 16525 1496 429 15029 5212 11395 1588 7282 1157 742 415 356 17225 9834\nis_linear=0\nshrinkage=0.05\n\n\nTree=8\nnum_leaves=31\nnum_cat=0\nsplit_feature=6 12 18 9 7 32 26 27 30 30 32 21 9 18 7 24 10 9 5 30 32 19 23 4 10 4 11 22 21 21\nsplit_gain=71.1276 35.0624 17.3856 14.6388 12.5741 12.4986 11.5138 11.3107 10.1897 10.5595 9.9666 12.0697 9.74386 14.7533 13.8418 11.6364 12.7793 11.5501 10.5253 9.54418 10.6845 17.3896 10.8568 10.694 10.1023 9.40305 10.124 12.0584 10.5162 12.7245\nthreshold=-0.0013510826880491764 -0.0025562229536165155 -0.0031998827566834804 -0.003149598343572035 -0.39867119937147555 1.0000000180025095e-35 75115062.834367216 45.155810961045589 -138049.34638738629 -92551.512438602731 18.500000000000004 41.977969843694467 -0.00017633725918286822 -0.010457710256247974 -0.83453243009557065 44.518873930895147 0.16420360862679731 -0.00041784961161506201 175067641.56950003 294566.72679913795 6.5000000000000009 0.47101088103694405 83663344.963149711 7.5056348400000008 -0.42461680005905134 8.1997695100000012 0.048120511727716149 125342833.33333336 37.523669073032053 61.361805688047653\ndecision_type=2 2 2 2 2 2 2 2 2 2 2 2 2 2 2 2 2 2 2 2 2 2 2 2 2 2 2 2 2 2\nleft_child=3 4 12 6 -2 -4 10 -5 -6 -10 -1 -12 13 17 -14 -15 -17 -3 -18 20 22 -22 24 -24 -9 -23 27 28 -27 -30\nright_child=1 2 5 7 8 -7 -8 19 9 -11 11 -13 14 15 -16 16 18 -19 -20 -21 21 25 23 -25 -26 26 -28 -29 29 -31\nleaf_value=0.033783943177703855 -0.0015442516089131534 0.01910688886035904 0.0047326711008668408 -0.0019458788378611176 0.00060813529392427412 -0.0025443151974769065 0.009862546402539361 -0.021823015436852736 0.018854963732048976 0.0069126636961504969 -0.016334771228419129 0.047721769488934751 -0.078903878170246133 0.00062924962828228158 0.0044425377257299569 -0.0032442616559339612 0.050704180644614884 -0.036219733101294414 -0.022991275084352097 -0.0061528073617504384 -0.00093196837693380191 -0.0086155304886598501 0.029232565052506466 0.010960100986562631 0.0095354367647004397 -0.02609455219575478 0.00964824782512721 -0.012019743579522993 0.046829591777994957 -0.0031890090789012783\nleaf_weight=97.971329942345619 637.13480307161808 118.48275534808636 611.80877539515495 498.86817297339439 523.67092137038708 16602.922583803535 925.66129504144192 31.980015605688095 219.46035872399807 1182.2481654584408 24.681391268968582 10.474607497453688 4.9955525249242774 781.37052574753761 1766.7624642252922 296.92468340694904 4.9995510578155509 10.249183386564253 156.71601291000843 132.65846341848373 557.37742218375206 46.237469866871834 145.9180273860693 177.44744417071342 130.44153052568436 6.7481509894132605 249.16473200917244 16.49432161450386 76.971500366926193 15.231025055050848\nleaf_count=393 2549 474 2449 1996 2095 66474 3707 128 878 4730 99 42 20 3126 7068 1188 20 41 627 531 2230 185 584 710 522 27 997 66 308 61\ninternal_value=-1.2967e-07 -0.000967656 -0.00166156 0.00705178 0.00454435 -0.00228569 0.0118399 0.00462095 0.00655916 0.00878243 0.0255887 0.00275065 0.00175963 -0.00140904 0.00420754 -0.00308161 -0.00940368 0.014702 -0.0207129 0.00668564 0.00785697 0.004821 0.013908 0.0192055 0.00336111 0.0126258 0.0153195 0.0275597 0.0341572 0.038567\ninternal_weight=26062.1 22917.7 20355.2 3144.33 2562.51 17214.7 1058.79 2085.54 1925.38 1401.71 133.127 35.156 3140.5 1368.74 1771.76 1240.01 458.64 128.732 161.716 1586.67 1454.01 968.225 485.787 323.365 162.422 410.847 364.61 115.445 98.9507 92.2025\ninternal_count=104325 91739 81487 12586 10252 68923 4241 8345 7703 5608 534 141 12564 5476 7088 4961 1835 515 647 6349 5818 3874 1944 1294 650 1644 1459 462 396 369\nis_linear=0\nshrinkage=0.05\n\n\nTree=9\nnum_leaves=31\nnum_cat=0\nsplit_feature=9 27 15 6 6 6 20 15 11 10 27 24 24 15 18 21 2 14 19 12 5 33 18 9 21 6 6 6 5 4\nsplit_gain=64.5045 19.9461 19.1807 23.7978 15.9428 12.7935 12.1492 13.2653 12.3177 11.7582 10.5476 17.3126 15.5865 13.9525 13.4136 12.0828 12.0748 10.007 11.5857 9.93926 9.89429 21.8217 15.5866 14.958 13.3453 11.8653 12.7091 13.6056 14.606 11.6543\nthreshold=-0.0017886484393078159 55.602038834824803 -0.0018420761782037551 -0.001486062830957646 0.00038702869891271702 -0.0025707743576599547 0.15710053604006671 -0.001156982709317633 0.831066002502865 1.0422926140298645 43.495618290172438 40.680331315402967 41.536054373086195 -0.0018799551074242247 -0.0064673559683411366 27.222994253945348 151227000.00000003 0.6623198884342969 0.52038837120482173 -0.0021073319873856629 1381915485.1504605 3.5000000000000004 0.0040548175669028472 0.0024784877268578813 60.655861358694828 0.0012617514241700658 -1.0000000180025095e-35 -0.00048654629977973313 315383810.10348004 19.296455685000002\ndecision_type=2 2 2 2 2 2 2 2 2 2 2 2 2 2 2 2 2 2 2 2 2 2 2 2 2 2 2 2 2 2\nleft_child=1 4 -2 6 10 -3 7 19 -9 -10 11 -1 14 -14 15 -12 -15 -16 -19 -4 25 22 23 24 -22 26 27 28 -5 -30\nright_child=2 5 3 20 -6 -7 -8 8 9 -11 12 -13 13 16 17 -17 -18 18 -20 -21 21 -23 -24 -25 -26 -27 -28 -29 29 -31\nleaf_value=0.0061305714671940903 0.0018121272867854057 0.015385620179118684 0.090386030226060871 0.0056859300124677296 -0.0012750990678282621 -0.0088171824270578854 0.012960347601590948 -0.0071286596919014917 0.069415016926410875 0.0071769151604112007 0.031901990661053009 -0.014837034541361212 0.0036403794167047653 0.01271049831877241 0.043628488963906517 0.00097676869150202582 -0.043250934442020612 -0.0045336607564528042 0.028520424747279685 0.017655921479317386 0.0082404654320454018 -0.0054412200848449757 -0.00078436726055389715 -0.0014599841105311531 0.025905005156777607 -0.0075170040600712282 -0.00085678152081630093 -0.006204114088255012 -0.0031123301281186116 -0.045684906721653026\nleaf_weight=860.81152185797691 4516.2311652749777 65.132704004645348 5.7461573779583004 580.3945769816637 526.64576424658298 337.65835866332054 393.10018876194954 264.41908565163612 9.9978545457124692 31.493079736828804 42.195040240883827 111.16013595461845 911.49296636879444 1000.9406603574753 67.208737090229988 125.61251014471054 9.7329636365175229 35.475997537374496 104.89424335956573 25.739674672484398 598.68223185837269 1176.3499130010605 1290.8389604985714 328.17088717222214 130.16844122111797 1241.9724125117064 6351.7611238509417 3255.9225141704082 1644.0074948221445 16.234292894601822\nleaf_count=3447 18069 261 23 2324 2107 1352 1573 1058 40 126 169 445 3649 4007 269 503 39 142 420 103 2396 4710 5169 1314 521 4973 25426 13043 6582 65\ninternal_value=-1.10557e-07 0.00567589 -0.00109032 -0.00184605 0.00679841 -0.00490351 0.00698651 2.63808e-05 -0.00315429 0.0221741 0.00809887 0.0037326 0.00994601 0.00812608 0.019265 0.00875288 0.0121716 0.027763 0.0201666 0.0309292 -0.00223439 0.000117201 0.00290214 0.00740412 0.0113952 -0.0028675 -0.00238012 -0.00414048 -0.00114176 -0.00352862\ninternal_weight=26060.2 4198.96 21861.2 17345 3796.17 402.791 730.496 337.396 305.91 41.4909 3269.52 971.972 2297.55 1922.17 375.387 167.808 1010.67 207.579 140.37 31.4858 16614.5 3524.21 2347.86 1057.02 728.851 13090.3 11848.3 5496.56 2240.64 1660.24\ninternal_count=104325 16810 87515 69446 15197 1613 2923 1350 1224 166 13090 3892 9198 7695 1503 672 4046 831 562 126 66523 14110 9400 4231 2917 52413 47440 22014 8971 6647\nis_linear=0\nshrinkage=0.05\n\n\nTree=10\nnum_leaves=31\nnum_cat=0\nsplit_feature=6 15 11 14 21 30 32 15 32 8 32 21 15 6 32 21 4 19 6 7 25 8 1 27 2 7 28 24 6 24\nsplit_gain=58.965 23.9925 15.5241 13.0098 20.6867 12.834 10.6676 13.5737 11.6244 10.5546 10.7055 10.2579 10.1588 10.1322 12.6105 11.4484 13.0994 12.5976 10.1638 13.2452 13.124 10.971 10.142 9.92579 9.9084 9.84446 9.51791 9.40205 9.35222 9.22064\nthreshold=-0.00096829920037500006 -0.0020990296851899344 0.44793883745965152 1.7711892638945743 60.998583251697703 -88070.208936363444 4.5000000000000009 0.0025523267282764332 12.500000000000002 -0.01110837788694957 2.5000000000000004 23.71440129716866 0.0027722475183213917 -1.0715414994699744e-05 4.5000000000000009 45.405740753958248 2.6942278500000003 0.16839169285670766 0.0007606702999245486 0.8355780078612437 101425062.50000001 -0.12155541934140073 148358500.00000003 43.632513851213879 85410500.000000015 -0.16608705485342426 94553697.916666687 44.727609214442971 -0.00088512939089496745 43.116295204245738\ndecision_type=2 2 2 2 2 2 2 2 2 2 2 2 2 2 2 2 2 2 2 2 2 2 2 2 2 2 2 2 2 2\nleft_child=2 24 3 4 5 -1 7 -7 -8 12 26 23 -9 14 -3 17 27 -15 19 -18 -20 22 -22 -4 -2 -6 -11 -17 -26 -16\nright_child=1 13 11 -5 25 6 8 9 -10 10 -12 -13 -14 15 29 16 18 -19 20 -21 21 -23 -24 -25 28 -27 -28 -29 -30 -31\nleaf_value=-0.0029154080432035835 0.005261967145300128 0.0012362468813308777 0.017464135771689388 0.01586100978935558 -0.004464005184268597 0.016454139041236587 -0.0019989733919303677 -0.07317292553738107 0.0071393587005209556 0.059775605249720268 -0.019346639241179981 0.0076359714871876462 -0.0094144618397400612 0.0083070951500583117 -0.012046674329432837 0.037369713361003414 -0.00021095908097578647 -0.003032070660612556 -0.0039009057384476937 0.0080129630442718515 -0.0018933911088868439 0.0074639630592694128 -0.035413092126992597 0.063728487294446301 -0.016062890034625129 -0.027777189175085867 -0.0086934478737974302 -0.0066601221318554798 0.00086847827112734692 -0.0040093507087630388\nleaf_weight=647.37251137197018 1654.0060628205538 1122.3307368606329 131.74042135477066 179.51018407940865 109.62018556892872 357.53182110190392 623.80551673471928 6.9952615797519675 787.07816635072231 15.734939828515055 12.739454448223112 1636.9441635012627 58.446285650134087 639.90905778110027 386.11320342123508 12.240341886878012 3730.1587355732918 396.84723870456219 3465.5860754549503 563.56830951571465 235.36678789556026 520.69501052796841 24.959419831633568 12.712136209011076 84.23466494679451 77.152973204851151 7.4925659447908393 1282.5514795482159 2567.3650317788124 4707.4029785990715\nleaf_count=2591 6617 4492 528 719 439 1432 2497 28 3150 63 51 6555 234 2560 1546 49 14928 1588 13877 2255 942 2084 100 51 337 309 30 5141 10271 18861\ninternal_value=-1.03679e-07 -0.00111075 0.00509337 0.00282625 0.0019609 0.00315218 0.0052529 0.0118746 0.00309895 -0.00427124 0.0174873 0.00876308 -0.0162298 -0.00195126 -0.00356147 -0.00103065 -0.00155744 0.00396671 -0.00084693 0.000868463 -0.00258136 0.00327381 -0.00510718 0.0215355 0.002225 -0.0140943 0.0376893 -0.00624389 0.000330611 -0.00461862\ninternal_weight=26058.2 21393.3 4664.88 2883.48 2703.97 2517.2 1869.82 458.94 1410.88 101.409 35.967 1781.4 65.4415 17087.7 6215.85 10871.9 9835.13 1036.76 8540.33 4293.73 4246.61 781.021 260.326 144.453 4305.61 186.773 23.2275 1294.79 2651.6 5093.52\ninternal_count=104325 85648 18677 11543 10824 10076 7485 1838 5647 406 144 7134 262 68423 24899 43524 39376 4148 34186 17183 17003 3126 1042 579 17225 748 93 5190 10608 20407\nis_linear=0\nshrinkage=0.05\n\n\nTree=11\nnum_leaves=31\nnum_cat=0\nsplit_feature=9 8 15 6 18 7 30 10 27 19 15 13 13 11 30 30 19 19 9 5 5 15 32 11 9 31 2 5 9 7\nsplit_gain=55.3098 22.7402 15.9115 24.2731 15.8906 10.839 10.1329 11.1574 12.3024 10.2148 9.89978 21.5015 12.5232 9.86393 9.8219 15.4516 11.425 11.3481 11.1552 9.07008 8.98965 13.0758 11.1961 12.5816 11.0609 10.7191 11.0393 10.4614 9.66342 9.60619\nthreshold=-0.0022896588478751308 -0.36644111371826366 -0.0021438815233708604 -0.001605547583931277 0.0059732498148323829 -0.34730635920989211 142108.32416786256 -0.376940173646027 54.956859458215938 0.9940614781346111 -0.00095706288047792121 0.71704963027906943 0.29662046028696015 0.31099429412449059 -36723.741741485886 -23420.733676146712 5.7054055636705963 12.044269399841601 -0.010060050990302936 114224528.46630003 3421485362.4142957 0.0041257516903906452 17.500000000000004 1.5050911059541017 0.0032329422339899554 55466296.064023137 56464500.000000007 3762252366.7896609 0.00097665432979632282 -0.022025979222182909\ndecision_type=2 2 2 2 2 2 2 2 2 2 2 2 2 2 2 2 2 2 2 2 2 2 2 2 2 2 2 2 2 2\nleft_child=1 19 -2 10 14 -6 -7 8 -8 -10 11 13 -12 -4 18 -16 -17 -18 -3 -1 24 -22 23 -23 25 -5 28 29 -27 -24\nright_child=2 4 3 20 5 6 7 -9 9 -11 12 -13 -14 -15 15 16 17 -19 -20 -21 21 22 27 -25 -26 26 -28 -29 -30 -31\nleaf_value=0.054839313341664746 0.0018514841075319211 0.02689246556745279 0.048740507439178127 0.012325984027827377 0.060507658407575216 -0.028215683983141605 0.013150974135826027 0.0075979622913794898 -0.055863028753973934 -0.010727642552754504 -0.0013115176705877491 -0.014201605596587183 0.012952083223460331 0.0098999629998289384 0.032101363487274957 0.010254516227084334 0.056841600015818596 -0.020033364653233895 0.0058075315147316543 -0.0034878174727529521 0.012171924991346152 -0.0015875001781491356 -0.0097924018775745851 0.016679305421248566 -0.0072777580612225405 -0.047858273086465064 -0.0018536965867509991 -0.013399895879917424 0.0046495821405505263 0.05593124759679953\nleaf_weight=6.7461196333169928 4426.763536542654 66.091015666723251 50.209965065121651 133.18279948830605 6.4938880652189246 39.441609770059586 24.215740442276001 141.75943748652935 21.966818496584892 29.195948675274849 343.06870326399803 29.734851479530334 279.05940471589565 24.236787721514702 100.6010594367981 815.26184803247452 24.187608093023304 5.9893152415752402 1233.3677034378052 555.29830250144005 270.64727814495564 326.09151762723923 11.245494127273561 132.59526215493679 978.02281565964222 24.21191294491291 15726.076994419098 205.34943072497845 13.732083946466444 10.995936527848242\nleaf_count=27 17710 265 201 533 26 158 97 568 88 117 1373 119 1117 97 403 3266 97 24 4941 2223 1083 1305 45 531 3922 97 62971 822 55 44\ninternal_value=-9.65566e-08 0.00630265 -0.000842087 -0.00148459 0.00833935 -0.00328705 -0.00490166 -0.000666826 -0.0162099 -0.0301066 0.0074753 0.0217401 0.00508651 0.0360956 0.00970145 0.013577 0.0113728 0.041584 0.00687992 -0.00278773 -0.00184953 0.00286486 -0.000805561 0.00369299 -0.00211686 -0.00179935 -0.00191869 -0.00987195 -0.0288555 0.0227007\ninternal_weight=26055.8 3070.62 22985.2 18558.5 2508.57 263.073 256.58 217.138 75.3785 51.1628 726.31 104.182 622.128 74.4468 2245.5 946.04 845.439 30.1769 1299.46 562.044 17832.2 956.925 686.278 458.687 16875.2 15897.2 15764 227.591 37.944 22.2414\ninternal_count=104325 12300 92025 74315 10050 1054 1028 870 302 205 2907 417 2490 298 8996 3790 3387 121 5206 2250 71408 3830 2747 1836 67578 63656 63123 911 152 89\nis_linear=0\nshrinkage=0.05\n\n\nTree=12\nnum_leaves=31\nnum_cat=0\nsplit_feature=9 8 15 6 18 7 27 12 7 27 24 17 21 7 9 13 30 10 27 19 18 12 24 13 13 22 10 6 30 21\nsplit_gain=49.9309 20.5324 14.3608 21.9102 14.3472 9.7965 9.49608 11.2765 12.8338 9.24013 13.2168 10.5962 10.5392 9.8624 9.768 9.29938 9.14147 10.0737 11.1106 9.24275 8.97551 12.4184 10.441 9.2012 8.95405 9.85631 8.46326 8.2768 12.9326 12.0558\nthreshold=-0.0022896588478751308 -0.36644111371826366 -0.0021438815233708604 -0.001605547583931277 0.0059732498148323829 -0.34730635920989211 59.782590928541374 0.0053105244004378891 -0.096456667732718479 43.632513851213879 40.680331315402967 -0.48609601100536687 28.006941063569631 -0.10665102412769494 -0.010060050990302936 0.2144014589318555 142108.32416786256 -0.376940173646027 54.956859458215938 0.9940614781346111 -0.0058369664575482197 -0.0026649159500981008 41.536054373086195 3.1298818396185468 1.4688751032692351 139770666.66666669 6.0710300154688825 -0.0014142607338661903 154053.10706330839 49.692335229360268\ndecision_type=2 2 2 2 2 2 2 2 2 2 2 2 2 2 2 2 2 2 2 2 2 2 2 2 2 2 2 2 2 2\nleft_child=1 -1 24 6 9 -6 -4 -8 -9 10 14 13 -11 -12 15 -3 -7 18 -18 -20 21 -14 23 -22 -2 26 -26 -24 -29 -30\nright_child=2 4 3 -5 5 16 7 8 -10 12 11 -13 20 -15 -16 -17 17 -19 19 -21 22 -23 27 -25 25 -27 -28 28 29 -31\nleaf_value=-0.0026483012625685533 0.00095320198491423425 -0.033327166342012153 0.0092282691620968575 -0.0017571759155053737 0.057574464630400127 -0.026797968452565813 -0.021685462391893975 0.039541676827261674 -0.026629582151690132 0.030594668920742946 -0.027947630234541429 -0.02202769686875641 -0.0040860741829197352 0.043359912390258389 0.005573365954370451 0.035594786941721517 0.012494425274968352 0.007219448251834246 -0.053143423771287293 -0.01019200769941386 0.037818106369658565 0.018435450795657879 0.016192850841981063 0.00049367300923774027 0.010843149476430751 -0.023236511807829738 -0.025875676631252148 0.0091568046083015091 -0.06533659740243522 -0.0029573589230808607\nleaf_weight=562.04923877120018 3923.1443480849266 5.4793115109205237 638.02346609532833 17830.968176975846 6.4837057143449774 39.451482698321342 56.436676621437073 20.230514824390415 11.488792181015013 69.477695375680923 7.4946205317974117 71.675224110484123 200.38744822144508 13.736390471458433 649.79072500765324 45.829082831740379 24.21384385228157 141.73294135928154 21.937051370739937 29.19385252892971 69.306056633591652 88.126232340931892 457.44685767591 21.676229402422905 463.39150036871433 23.99669998884201 16.242856130003929 507.09147338569164 10.991558939218519 26.228512123227119\nleaf_count=2250 15695 22 2554 71408 26 158 226 81 46 279 30 287 803 55 2604 184 97 568 88 117 278 353 1835 87 1854 96 65 2030 44 105\ninternal_value=-8.21238e-08 0.00598923 -0.000800032 -0.00141046 0.00792511 -0.00312344 0.00710293 -0.00827906 0.0155743 0.00921966 0.00488347 -0.0128375 0.0115929 0.0181881 0.00723177 0.0282345 -0.00465757 -0.000633793 -0.0154067 -0.0286198 0.0106371 0.0027931 0.0127082 0.0289257 0.00175891 0.00803511 0.00959966 0.0112352 0.00706878 -0.0213787\ninternal_weight=26053.7 3069.8 22983.9 18557.1 2507.75 263.013 726.179 88.156 31.7193 2244.74 794.005 92.9062 1450.73 21.231 701.099 51.3084 256.529 217.078 75.3447 51.1309 1381.25 288.514 1092.74 90.9823 4426.78 503.631 479.634 1001.76 544.312 37.2201\ninternal_count=104325 12300 92025 74315 10050 1054 2907 353 127 8996 3182 372 5814 85 2810 206 1028 870 302 205 5535 1156 4379 365 17710 2015 1919 4014 2179 149\nis_linear=0\nshrinkage=0.05\n\n\nTree=13\nnum_leaves=31\nnum_cat=0\nsplit_feature=9 27 18 6 6 14 6 7 33 5 9 5 27 24 13 6 15 5 18 9 7 9 8 5 29 5 27 24 24 15\nsplit_gain=45.262 15.7546 15.0332 16.8945 12.8477 11.2383 11.1708 11.0439 10.701 12.4012 11.9696 10.4586 10.3406 10.2649 9.69622 9.62713 9.30755 10.1339 10.7415 12.7626 12.1423 9.82148 9.7134 10.817 9.285 11.0363 9.26478 14.2608 12.8095 12.3636\nthreshold=-0.0017886484393078159 55.602038834824803 -0.0030638596381326595 -0.001486062830957646 0.00038702869891271702 -0.15813585867300076 -0.0025707743576599547 0.79659251469033088 2.5000000000000004 157881090.65666005 -0.0008352723888970236 1184512476.9631903 59.782590928541374 55.124049847381031 2.0263440927427414 -3.5885596799789525e-05 -0.0029359176842693731 3421485362.4142957 0.0027109786522385719 0.0025896135622055509 1.5614817421419334 -0.0004356974378474931 -0.22909214627536725 5206001366.0193453 85534324.768591538 1594302413.544595 43.495618290172438 40.680331315402967 41.360197719951962 -0.0018799551074242247\ndecision_type=2 2 2 2 2 2 2 2 2 2 2 2 2 2 2 2 2 2 2 2 2 2 2 2 2 2 2 2 2 2\nleft_child=1 4 8 5 26 7 -3 12 9 -2 14 13 -4 -12 -10 -11 -5 -18 19 -19 22 -20 -21 -24 -16 -26 27 -1 -28 -30\nright_child=2 6 3 16 -6 -7 -8 -9 10 15 11 -13 -14 -15 24 -17 17 18 21 20 -22 -23 23 -25 25 -27 28 -29 29 -31\nleaf_value=0.0050075965084045672 0.024594904017967018 0.014323065280304609 -0.0018957086841056713 0.0029466989676278925 -0.0014928703179786179 0.0099766968203813602 -0.0083066022120212371 0.037619083889824594 -0.0045838070218679272 -0.0053051595373264154 0.0092187686967923552 0.0013138178910025078 -0.034947340911503054 0.067945789875992521 -0.0062595687041174693 0.0018779662114705806 -0.0024422352676178472 0.031352276275681421 -0.023389448563605735 0.053300782573622973 0.058855182339467606 0.0022436309026907255 -0.036712715651236856 0.018227101026108881 0.073689235943573669 0.011048043726911191 0.01743217569100414 -0.014023435021116677 0.0029079333165797504 0.010890969134922731\nleaf_weight=860.0346562564373 46.727994471788406 65.046353295445442 208.57714319229126 950.55299042165279 526.5906045883894 513.31517426669598 337.43192662298679 15.736589714884756 463.39876821637154 876.49595645070076 970.0129715949297 607.13691705465317 26.693269193172455 7.4983241260051718 21.740158721804619 997.08570984005928 15262.3020106107 67.717591673135757 39.479983270168304 5.2452389150857917 7.2450467944145194 698.99443067610264 27.734528735280037 13.234554871916769 11.994083747267725 16.994003430008888 351.95506052672863 111.16049709916115 931.25770702958107 1012.1460666805506\nleaf_count=3447 187 261 835 3803 2107 2055 1352 63 1854 3507 3881 2429 107 30 87 3989 61131 271 158 21 29 2798 111 53 48 68 1412 445 3731 4055\ninternal_value=-5.68765e-08 0.00475665 -0.000913189 -0.00153566 0.00575469 0.00573701 -0.00464932 -0.00293324 0.00184934 -0.000847877 0.00431721 0.00646798 -0.00564567 0.00966925 -0.00231194 -0.00148243 -0.00186125 -0.00214473 0.00313729 0.0169348 -0.00132808 0.000873247 -0.010763 -0.0189651 0.0184414 0.0369664 0.00692304 0.00282935 0.00865513 0.00706559\ninternal_weight=26051.5 4195.62 21855.9 17836.8 3793.14 764.322 402.478 251.007 4019.08 1920.31 2098.78 1584.65 235.27 977.511 514.127 1873.58 17072.5 16122 859.651 121.177 53.4594 738.474 46.2143 40.9691 50.7282 28.9881 3266.55 971.195 2295.36 1943.4\ninternal_count=104325 16810 87515 71435 15197 3060 1613 1005 16080 7683 8397 6340 942 3911 2057 7496 68375 64572 3441 485 214 2956 185 164 203 116 13090 3892 9198 7786\nis_linear=0\nshrinkage=0.05\n\n\nTree=14\nnum_leaves=31\nnum_cat=0\nsplit_feature=6 24 4 24 6 11 14 21 30 6 4 18 30 16 4 32 15 32 15 3 6 27 32 6 5 15 21 31 16 16\nsplit_gain=41.2235 18.2166 11.932 12.3769 12.4674 11.892 10.821 17.3196 11.2907 10.6426 11.0574 12.665 14.8144 10.615 10.3811 9.64027 12.0994 10.624 9.6297 9.53661 9.44307 12.8384 12.9029 11.0354 11.9328 10.5896 12.0307 13.1902 10.5526 11.3736\nthreshold=-0.00096829920037500006 46.313230471327032 2.2349708550000003 53.630887050289573 -0.0006582861963498331 0.44793883745965152 1.7711892638945743 60.998583251697703 -88070.208936363444 0.0030344086739674263 37.432380145000003 0.0046585504547032039 -11837.331070475278 -0.26822324076337556 1.6471151900000003 4.5000000000000009 0.0025523267282764332 12.500000000000002 -0.0048521334767525617 93817500.000000015 -1.0715414994699744e-05 45.058837638031925 6.5000000000000009 0.00029907496155212604 3323616001.2222705 -0.0043777101118446229 40.210642487161188 85739058.376402363 2.8495008150065932 -0.75553574237649179\ndecision_type=2 2 2 2 2 2 2 2 2 2 2 2 2 2 2 2 2 2 2 2 2 2 2 2 2 2 2 2 2 2\nleft_child=5 14 3 4 13 6 7 8 -1 10 11 -4 -13 -3 -2 16 -10 -17 19 -14 21 25 -23 24 -22 26 27 -16 29 -25\nright_child=1 2 9 -5 -6 -7 -8 -9 15 -11 -12 12 18 -15 20 17 -18 -19 -20 -21 23 22 -24 28 -26 -27 -28 -29 -30 -31\nleaf_value=-0.0031140030755088342 0.013101169186919878 0.0032333341356561144 -0.00050722461520686074 -0.012017994277110727 -0.0041982915662300271 0.0074749464490125456 0.0141734562399254 -0.013209094292248414 0.015174065312572156 -0.0082385276560893849 0.0056142271952580123 0.027934824174594083 0.039207647460231025 0.041909930775304222 0.019066242351606335 -0.0023735723799521787 -0.0044012361663472097 0.0063646883011878666 -0.0050725538609983495 -0.0089272010429210721 0.0066711494483147164 0.011921891773524653 -0.00028719360205318783 -0.014592746159015284 0.033894450602978465 -0.0082591797706644734 -0.030812968658556841 -0.0025215566101583139 -0.0093821494614018258 0.003445632442130018\nleaf_weight=647.23372811079025 189.58122655749321 52.719354912638664 10329.400153338909 529.45139615237713 1208.2312702536583 1779.2347921133041 179.23948921263218 186.63034698367119 357.12545676529408 529.19784565269947 601.89894452691078 35.204429656267166 24.49332395195961 26.737975463271141 109.21312916278839 623.53995752334595 101.33744361996651 786.69657604396343 2727.2526997178793 17.744828373193741 768.05054758489132 273.86505447328091 1031.3446120917797 92.478960633277893 42.479749336838722 773.58923736214638 25.24650864303112 200.95139355957508 212.1635794043541 1586.9164447039366\nleaf_count=2591 759 211 41361 2125 4843 7134 719 748 1432 2121 2409 141 98 107 437 2497 406 3150 10927 71 3073 1096 4129 370 170 3097 101 804 849 6349\ninternal_value=-4.53727e-08 -0.000928582 -0.00176673 -0.00558262 -0.00293663 0.00426075 0.00227629 0.00148725 0.00257742 -0.00128065 -0.00101259 -0.00131628 -0.00429594 0.0162483 0.00161188 0.00454867 0.0108472 0.00250104 -0.00470564 0.0189855 0.00118615 -0.00108639 0.00227457 0.00321657 0.00809792 -0.00504198 0.00237814 0.0050798 0.00112492 0.00245232\ninternal_weight=26049.3 21388.2 16082.3 1817.14 1287.69 4661.04 2881.8 2702.56 2515.93 14265.2 13736 13134.1 2804.7 79.4573 5305.88 1868.7 458.463 1410.24 2769.49 42.2382 5116.3 2414.21 1305.21 2702.09 810.53 1109 335.411 310.165 1891.56 1679.4\ninternal_count=104325 85648 64414 7286 5161 18677 11543 10824 10076 57128 55007 52598 11237 318 21234 7485 1838 5647 11096 169 20475 9664 5225 10811 3243 4439 1342 1241 7568 6719\nis_linear=0\nshrinkage=0.05\n\n\nTree=15\nnum_leaves=31\nnum_cat=0\nsplit_feature=9 8 4 24 32 30 14 12 31 25 10 24 16 15 12 20 4 20 9 4 21 25 26 30 12 9 4 10 17 4\nsplit_gain=38.9449 17.774 11.1503 14.0188 12.9603 17.0504 10.8375 10.4162 11.6942 10.3671 10.1853 9.43981 9.0833 8.92912 8.905 10.1785 9.46773 8.83719 10.0836 8.69774 8.59999 9.54162 8.31234 8.5655 11.5751 9.80846 8.22664 8.17468 8.14985 9.62058\nthreshold=-0.0022896588478751308 -0.36644111371826366 25.423798125000001 60.239533036239841 7.5000000000000009 77917.783870451167 0.23391693063659139 -0.0025562229536165155 55209676.232507728 58281312.500000007 -0.72730737737748741 57.781057385985761 -0.13268069056775508 0.0095701214455032897 -0.0045917762202421488 0.53614106515134996 14.926855850000001 0.3545553570598326 0.00030880419000567377 15.665219330000001 62.317927289141259 72143895.833333358 73962507.114694431 43968.070581458516 -0.0069239421416360516 -0.0025785867756124565 6.7455216750000009 -0.376940173646027 1.9793985180637734 4.4282735000000004\ndecision_type=2 2 2 2 2 2 2 2 2 2 2 2 2 2 2 2 2 2 2 2 2 2 2 2 2 2 2 2 2 2\nleft_child=1 -1 3 7 28 17 10 14 -9 -8 12 22 -7 -10 15 -2 -16 18 26 -18 21 -12 23 24 -3 -26 -6 -13 29 -5\nright_child=2 11 -4 4 5 6 9 8 13 -11 20 27 -14 -15 16 -17 19 -19 -20 -21 -22 -23 -24 -25 25 -27 -28 -29 -30 -31\nleaf_value=-0.0027446127809129654 0.0019723596982321252 0.034951081518533017 0.002435435256305549 -0.013953741010909482 -0.039108424164593938 0.062395744674775523 0.037722599414293512 0.019708518514672833 -0.0010625786955828708 -0.021880308047939324 0.016081402361402618 -0.020057301779206591 -0.015320543727573591 -0.01596903515635743 0.0075233474790654883 -0.017916112841204347 -0.024506952316382974 -0.0047153484835959335 0.024574709012297483 0.00065555647430032195 -0.0058365137961889496 -0.031501965230260019 0.0066698049071720576 0.032997422153209728 0.00088877113735810146 0.026603526491713478 0.027190659575481432 0.0049192885248386152 -0.011410575121040009 0.0061974201710256862\nleaf_weight=561.94106850028038 190.18250168859959 43.713739663362503 2514.9374049454927 69.583758071064949 13.21931040287018 9.4766187071800214 7.4826049804687491 67.459805890917778 17173.978481292725 291.91720493137836 12.471469312906263 57.536589875817299 6.23240141570568 101.05271974205971 946.61810353398323 97.214496716856956 38.985161393880844 168.4824378490448 65.415002331137657 288.41748115420341 323.35834184288979 67.866051778197289 2059.0333068817854 56.731965065002441 164.2316510528326 47.898443967103958 7.2423537373542777 76.076015368103981 119.94204697012901 398.05832095444202\nleaf_count=2250 761 176 10070 279 53 38 30 270 68777 1170 50 231 25 405 3788 389 156 675 262 1154 1296 272 8258 228 660 192 29 305 481 1595\ninternal_value=-4.47199e-08 0.00529197 -0.000706388 -0.00109249 -0.0056469 -0.00918731 -0.0131243 -0.00071647 -0.00106864 -0.0203907 -0.00793702 0.00709464 0.0315626 -0.00114978 0.00319505 -0.00475509 0.00498846 0.00193836 0.0149923 -0.00234065 -0.00947406 -0.0241152 0.00782314 0.0154205 0.0115229 0.0066951 -0.015642 -0.00583619 0.000216774 0.00319899\ninternal_weight=26046.8 3067.16 22979.6 20464.7 1560.75 973.164 718.805 18903.9 17342.5 299.4 419.405 2505.22 15.709 17275 1561.42 287.397 1274.02 254.359 85.8767 327.403 403.696 80.3375 2371.61 312.576 255.844 212.13 20.4617 133.613 587.584 467.642\ninternal_count=104325 12300 92025 81955 6255 3900 2881 75700 69452 1200 1681 10050 63 69182 6248 1150 5098 1019 344 1310 1618 322 9514 1256 1028 852 82 536 2355 1874\nis_linear=0\nshrinkage=0.05\n\n\nTree=16\nnum_leaves=31\nnum_cat=0\nsplit_feature=6 12 18 32 7 9 26 30 15 7 9 18 7 9 24 10 5 32 21 27 33 25 9 19 10 27 26 9 20 31\nsplit_gain=35.4385 20.6796 10.7534 10.6583 9.76856 9.49569 9.9882 9.40716 9.61357 11.5507 9.39771 12.9284 12.654 10.3702 10.3205 11.6398 9.35763 9.35043 11.2109 9.2206 9.04839 8.9418 9.7912 8.86161 14.1894 10.1897 8.68873 8.5013 11.34 13.6858\nthreshold=-0.0013510826880491764 -0.0025562229536165155 -0.0031998827566834804 1.0000000180025095e-35 -0.39867119937147555 -0.003149598343572035 75115062.834367216 -138049.34638738629 -0.0048521334767525617 0.31758032374287809 -0.00017633725918286822 -0.010457710256247974 -0.83453243009557065 -0.00041784961161506201 44.518873930895147 0.16420360862679731 175067641.56950003 18.500000000000004 41.977969843694467 45.155810961045589 1.5000000000000002 95054166.666666687 0.0028777438495580791 0.56973024535378192 0.14028031894711049 42.21645906859721 76489711.940747246 -0.0032591325618012697 1.7044985700046624 58532739.96010977\ndecision_type=2 2 2 2 2 2 2 2 2 2 2 2 2 2 2 2 2 2 2 2 2 2 2 2 2 2 2 2 2 2\nleft_child=5 4 10 -4 27 6 17 20 9 23 11 13 -12 -3 -13 -16 -17 -1 -19 -7 -6 -14 -23 25 -25 -9 -8 -2 29 -29\nright_child=1 2 3 -5 7 19 26 8 -10 -11 12 14 21 -15 15 16 -18 18 -20 -21 -22 22 -24 24 -26 -27 -28 28 -30 -31\nleaf_value=0.029668568973577138 -0.013143332929553731 0.017621843228003319 0.0047751704744779921 -0.0019457436244371047 -0.0093794474220094855 -0.0029049597131354647 -0.036193203894135072 0.08727058513311467 0.0052712246522505935 0.029490157186845306 -0.075685837734050077 0.00029193831477522216 0.0065771872755414715 -0.034813070040152348 -0.0032793453441066819 0.047410487155184866 -0.022102132146914089 -0.018873429279795014 0.043075662282403018 0.0048913950403655163 0.0044169686883249433 0.0027001235657758832 -0.012463312126699003 -0.030029271901887464 0.011870661182867224 0.014353008499481904 0.0075506262916294675 0.042480487790422156 0.01812050359836892 -0.0039802413948423982\nleaf_weight=97.290406122803688 131.44560745358467 118.43834316730499 611.63437800109386 16593.720893144608 182.41400663554668 498.55889432132244 11.494937151670454 4.9949089586734763 1093.9138323813677 97.599913835525513 4.9831299781799308 781.17682506144047 1190.7750424742699 10.245079830288885 296.86827383935452 4.9958854317665091 156.65413661301136 24.589228734374046 10.388692095875738 1584.633134201169 341.02634258568287 434.89099612832069 140.96616014838219 31.97593130171299 54.893613919615746 117.42273087799549 911.29804801940918 16.492823958396912 82.232433274388313 406.87326982617378\nleaf_count=393 526 474 2449 66474 730 1996 46 20 4379 391 20 3126 4764 41 1188 20 627 99 42 6349 1365 1740 564 128 220 470 3661 66 329 1628\ninternal_value=-4.68169e-08 -0.000682715 -0.00121575 -0.00170682 0.00355141 0.00498286 0.00884756 0.0053281 0.00746515 0.0152855 0.00147503 -0.00163739 0.00387903 0.0134473 -0.00320322 -0.0091579 -0.0199538 0.0216974 -0.000474107 0.00302554 -0.000390952 0.00410346 -0.00101179 0.00866125 -0.00355234 0.0173282 0.00700572 -0.00181521 0.00112987 -0.0021703\ninternal_weight=26044.9 22906.6 20345.3 17205.4 2561.29 3138.25 1055.06 1924.24 1400.8 306.887 3139.99 1368.38 1771.62 128.683 1239.7 458.518 161.65 132.268 34.9779 2083.19 523.44 1766.63 575.857 209.287 86.8695 122.418 922.793 637.044 505.599 423.366\ninternal_count=104325 91739 81487 68923 10252 12586 4241 7703 5608 1229 12564 5476 7088 515 4961 1835 647 534 141 8345 2095 7068 2304 838 348 490 3707 2549 2023 1694\nis_linear=0\nshrinkage=0.05\n\n\nTree=17\nnum_leaves=31\nnum_cat=0\nsplit_feature=9 8 18 4 24 32 18 6 6 33 15 5 24 16 24 16 15 30 30 15 6 14 13 7 30 31 4 30 30 19\nsplit_gain=32.3665 15.0361 11.7106 9.80671 12.4445 11.5887 18.828 11.5862 11.5385 9.99459 11.1651 10.4798 10.1514 10.7361 9.91782 10.9433 10.4976 9.98424 11.8572 9.72637 14.8665 12.1843 9.38048 8.95963 8.77951 8.78455 8.65469 8.5327 13.973 10.1724\nthreshold=-0.0022896588478751308 -0.36644111371826366 0.0059732498148323829 25.423798125000001 60.239533036239841 7.5000000000000009 0.003528747148018541 0.0060200983917191317 6.2988159225896303e-05 1.0000000180025095e-35 0.0085951571945396283 1026056795.8137902 38.682032707206538 1.6960493703227144 60.859702147976982 -0.094883215563701759 0.0010747784781408589 97397.705276913955 42937.80613851548 -0.0028716499217850129 -0.001486062830957646 3.1251874086206959 -0.3893577259033425 -0.34730635920989211 145949.99983031306 148885380.71190277 17.972537770000002 -36723.741741485886 -23420.733676146712 5.7054055636705963\ndecision_type=2 2 2 2 2 2 2 2 2 2 2 2 2 2 2 2 2 2 2 2 2 2 2 2 2 2 2 2 2 2\nleft_child=1 -1 27 4 9 -6 8 -5 -7 11 19 12 -2 -14 16 22 -10 18 -17 21 -21 -11 -16 -4 -25 -26 -19 -3 -29 -30\nright_child=3 2 23 7 5 6 -8 -9 14 10 -12 -13 13 -15 15 17 -18 26 -20 20 -22 -23 -24 24 25 -27 -28 28 29 -31\nleaf_value=-0.0025657210786059724 -0.021798842821675959 0.0050237265969647008 0.054666858839131027 0.0029329611523196261 0.00024664812900261705 -0.011976109420560934 -0.012569139917523082 -0.015969749273705602 0.044296456274829726 0.0024494525047793303 -0.014007390171617579 0.0018579026859167878 -0.0035642893365587999 -0.019166597771942823 0.00043706067180803766 -0.0092881112386006982 -0.025104627540500996 -0.060730486447075085 0.030415123645159622 0.0074996781338636581 -0.00087556761086455583 0.026142227702907153 0.07095604384613749 -0.02531936444289988 0.0008582848589844032 -0.064713305488957956 0.022683755243917345 0.028919146363046912 0.0081208571197750792 0.037765640341103246\nleaf_weight=561.87335695326328 88.702371329069138 1296.9033014923334 6.4566476494073859 2431.021542519331 587.53377781808376 78.294225975871086 738.04650408029556 83.861311867833138 6.7386434972286215 2115.6306628137827 144.66568298637867 693.93078264594078 1831.6683034747839 117.32030396163464 6.7339671105146435 27.956043496727943 28.466042056679726 8.2404982894659025 57.446962133049965 551.82955773174763 13302.817572757602 55.692177876830101 15.734773471951483 43.917986035346985 207.00762644410133 5.236949384212493 4.9943084567785254 100.262854129076 813.56183676421642 30.005097895860672\nleaf_count=2250 355 5206 26 9733 2355 314 2960 337 27 8465 580 2778 7337 470 27 112 114 33 230 2210 53282 223 63 176 831 21 20 403 3266 121\ninternal_value=-2.81402e-08 0.00482605 0.00648512 -0.000643838 -0.00100597 -0.00529785 -0.00864702 0.00230263 0.00369159 -0.000651715 -0.000179171 -0.00344908 -0.00525636 -0.00450348 0.0115393 0.0183298 -0.0118203 0.0111563 0.0174186 -5.43441e-05 -0.000541982 0.00305715 0.0498212 -0.00350408 -0.0049703 -0.000759637 -0.0292532 0.00765588 0.0112727 0.0091753\ninternal_weight=26042.6 3065.23 2503.35 22977.3 20462.4 1560.19 972.652 2514.88 234.605 18902.3 16170.6 2731.62 2037.69 1948.99 156.311 121.107 35.2047 98.6378 85.403 16026 13854.6 2171.32 22.4687 262.619 256.163 212.245 13.2348 2240.73 943.83 843.567\ninternal_count=104325 12300 10050 92025 81955 6255 3900 10070 940 75700 64760 10940 8162 7807 626 485 141 395 342 64180 55492 8688 90 1054 1028 852 53 8996 3790 3387\nis_linear=0\nshrinkage=0.05\n\n\nTree=18\nnum_leaves=31\nnum_cat=0\nsplit_feature=9 24 18 5 15 6 6 18 24 15 4 0 10 9 7 34 22 4 6 7 22 24 17 7 9 0 22 27 30 15\nsplit_gain=29.5936 15.2896 12.0233 13.6846 12.0047 11.8233 11.2124 13.1245 12.3418 14.9542 12.1862 11.3299 11.2007 10.496 14.3403 12.6776 11.9608 11.4291 10.3801 10.4921 10.479 10.3756 10.2142 10.2094 9.99907 9.93061 9.92043 9.63447 11.4044 10.9538\nthreshold=-0.0013088645756377801 57.922978098682044 -0.0030638596381326595 3421485362.4142957 0.0055433875691794929 0.00038702869891271702 0.0020058798070728971 0.015708321875000601 58.766618160234508 0.0033318749956258169 11.773215335000002 60410500.000000007 -0.060748690558032163 -0.0007950163558099187 -0.58188038925416541 1.0000000180025095e-35 84840791.666666672 59.581675115000003 -3.5885596799789525e-05 -0.48960853861525999 147472666.66666672 53.07201814009224 -0.77211581524748263 1.6227255194227543 0.0014022459798886946 90107500.000000015 55046833.333333336 53.866093150455292 -157810.24754533169 -0.0037282427548180892\ndecision_type=2 2 2 2 2 2 2 2 2 2 2 2 2 2 2 2 2 2 2 2 2 2 2 2 2 2 2 2 2 2\nleft_child=1 5 13 6 12 -1 26 8 9 10 -8 21 -5 14 -2 16 27 -16 19 -18 22 -12 -21 -20 -17 -10 -4 28 -15 -30\nright_child=2 -3 3 4 -6 -7 7 -9 25 -11 11 -13 -14 15 17 24 18 -19 23 20 -22 -23 -24 -25 -26 -27 -28 -29 29 -31\nleaf_value=0.0047890995699900185 0.024098302003506801 -0.0069587580312861236 0.022069096259786619 -0.0036478902652805826 -1.2893793101174497e-05 -0.0019158267991009463 -0.021077634940191155 0.016078278843557 -0.01038450834560703 0.0076099700314056634 -0.072333140194846185 0.001522218996409491 0.016273162394284411 -0.0026232227264588489 -0.0077306936424651335 0.013299229766252713 -0.024502815223803567 0.045598231873100747 0.0027611802868858035 0.020857439270236394 0.037093575245606546 0.01564864341538617 -0.0072318782910679117 -0.033152853683997438 -0.0006094882315674662 -0.031765763342572938 -0.0015819567641583581 -0.01977220638954591 0.023601782778777516 0.0071078188839108231\nleaf_weight=4610.8657007217407 40.73374742269516 349.54423363506794 44.469400331377983 94.187918201088905 631.80989626049995 766.84156282246113 159.13673354685307 54.199344545602798 132.01081688702106 158.89200595021248 10.232817769050596 169.23449109494686 281.27378745377064 224.19897200167179 516.73845353722572 444.33717213571072 71.705242797732353 10.246017739176748 874.77767306566238 34.723242148756981 14.987737134099005 4.9826320111751548 476.31842687726021 20.246436178684235 182.20657546818256 92.259707152843475 14927.708631381392 34.988834619522095 127.45096498727798 478.86005708575249\nleaf_count=18489 163 1402 178 377 2530 3069 638 217 531 637 41 678 1126 897 2068 1778 287 41 3500 139 60 20 1906 81 729 371 59806 140 510 1916\ninternal_value=-2.54182e-08 0.00317436 -0.000895048 -0.00145509 0.00419498 0.003833 -0.00181636 -0.00765708 -0.00942721 -0.00507415 -0.0109399 -0.00219349 0.0112758 0.00174717 -0.0044845 0.00293246 0.00125284 -0.00669383 -0.00145856 -0.00656055 -0.00411477 -0.0435216 -0.00532332 0.00194877 0.0092544 -0.0191803 -0.00151171 0.00592929 0.00701207 0.010575\ninternal_weight=26040.2 5727.25 20312.9 16760.4 1007.27 5377.71 15753.1 780.949 726.749 502.479 343.587 184.45 375.462 3552.52 567.718 2984.8 2358.26 526.984 1492.76 597.735 526.029 15.2154 511.042 895.024 626.544 224.271 14972.2 865.499 830.51 606.311\ninternal_count=104325 22960 81365 67150 4033 21558 63117 3133 2916 2014 1377 739 1503 14215 2272 11943 9436 2109 5973 2392 2105 61 2045 3581 2507 902 59984 3463 3323 2426\nis_linear=0\nshrinkage=0.05\n\n\nTree=19\nnum_leaves=31\nnum_cat=0\nsplit_feature=6 12 6 32 9 21 16 4 32 19 30 17 17 15 30 4 9 31 18 17 1 11 32 18 10 27 28 6 4 4\nsplit_gain=27.6927 14.3988 12.421 16.062 14.4904 12.2431 12.2224 11.9347 11.3266 11.6025 11.2191 13.0677 13.6157 11.3558 11.8976 11.2756 14.2591 11.8063 11.0071 10.6399 12.1213 10.2867 10.2592 10.0796 10.0793 9.94298 9.88823 9.32911 15.4018 11.7029\nthreshold=-0.00096829920037500006 -0.0025562229536165155 -1.0715414994699744e-05 6.5000000000000009 -0.0040565682877209954 45.640098608588694 2.8495008150065932 2.6942278500000003 6.5000000000000009 1.1626672998634255 84344.879426233485 -0.48051616039877648 -0.46836734611281938 -0.00025664671988295801 -182074.00750015673 19.296455685000002 -0.0010583973210269158 59493284.012055144 -0.0017887043193975936 1.1508892250123435 59080500.000000007 -0.3876712543422397 10.500000000000002 0.0089553194721302427 0.077714914010623928 54.130661576959305 66816604.166666672 0.0012617514241700658 11.535006615000002 13.198703340000002\ndecision_type=2 2 2 2 2 2 2 2 2 2 2 2 2 2 2 2 2 2 2 2 2 2 2 2 2 2 2 2 2 2\nleft_child=8 -2 3 26 -5 6 -4 -7 -1 23 11 22 -13 14 24 16 -16 -18 -12 25 -21 -19 -6 -10 -14 -15 -3 -9 -29 -30\nright_child=1 2 5 4 10 7 -8 27 9 -11 18 12 13 19 15 -17 17 21 -20 20 -22 -23 -24 -25 -26 -27 -28 28 29 -31\nleaf_value=0.0070734176568262351 0.0030892321197393199 0.010873788436833688 0.0043302654965854948 0.038238642265340905 -0.019150727123950169 -0.0053668329022127127 -0.012627827322319901 0.00081888776856649378 0.00046277145545158471 0.0059514832655601264 -0.064306727354032506 0.027740545353366515 0.031624306208653002 -0.0026364752718748448 0.0029743377290479371 -0.021166740298990641 0.0067528033536408544 -0.0004080897151070094 -0.0093766878608540008 -0.031077893234398021 0.014965078437215959 -0.011993243415323072 -0.0060839113626648469 -0.014341248292778358 -0.02608290151040342 0.0091117603436410548 -0.00022707041345542344 -0.0078399732130809679 0.012968428460433924 -0.0012260942265977038\nleaf_weight=1498.8131096512079 2180.6036795973778 229.0054807215929 1870.699282348156 19.968588933348656 180.31701046228409 1317.7502546012402 112.65150719881058 6102.3054793328047 1939.2530015408993 1096.1851496100426 9.2317940443754178 38.183350056409836 37.238408267498016 1132.050685107708 448.28154177963734 109.91676193475723 129.56651000678539 251.38134442269802 752.84753058850765 15.465107336640356 188.80223731696606 805.82589009404182 899.81844663619995 122.22707557678223 9.4964380264282209 214.17177745699883 1617.6717795431614 949.27124384045601 159.70940858125687 1599.2768238782883\nleaf_count=6014 8728 917 7485 80 723 5288 451 24431 7771 4402 37 153 149 4538 1794 440 519 1007 3021 62 757 3229 3609 490 38 859 6479 3804 640 6410\ninternal_value=-3.52852e-08 -0.00076099 -0.00119825 -0.00286048 -0.00427299 -0.000225312 0.00336707 -0.000928781 0.0034941 0.00179515 -0.00443554 -0.00347765 -0.00194786 -0.00228704 -0.00499826 -0.00566505 -0.00462295 -0.00749268 -0.0100421 0.000845975 0.0114792 -0.00923854 -0.00826528 -0.000414973 0.0198983 -0.000767438 0.00114954 -0.000265005 -0.00270726 6.27156e-05\ninternal_weight=26038 21381.5 19200.9 7089.24 5242.56 12111.7 1983.35 10128.3 4656.48 3157.67 5222.59 4460.52 3380.38 3342.2 1791.71 1744.97 1635.06 1186.77 762.079 1550.49 204.267 1057.21 1080.14 2061.48 46.7348 1346.22 1846.68 8810.56 2708.26 1758.99\ninternal_count=104325 85648 76920 28411 21015 48509 7936 40573 18677 12663 20935 17877 13545 13392 7176 6989 6549 4755 3058 6216 819 4236 4332 8261 187 5397 7396 35285 10854 7050\nis_linear=0\nshrinkage=0.05\n\n\nTree=20\nnum_leaves=31\nnum_cat=0\nsplit_feature=6 15 12 4 6 4 8 10 27 7 19 32 28 20 6 16 19 18 17 17 5 0 14 15 10 10 22 3 5 27\nsplit_gain=25.3219 15.0503 8.69962 9.70253 16.0519 10.8006 10.4352 9.24023 10.4524 8.28157 8.27614 7.93541 12.4885 13.6602 11.4121 10.4108 10.5464 10.4254 11.042 9.46288 9.4048 11.7949 8.72211 9.18544 11.1292 8.66207 8.14013 7.76506 11.8485 8.57365\nthreshold=-0.0013510826880491764 -0.0028716499217850129 -0.0025009496162658458 8.5107714350000023 -0.0011992476943258332 10.253262490000003 -0.52602553840682698 -0.64982262355856746 43.632513851213879 -0.38509564743683955 -0.85388585068693434 6.5000000000000009 73961645.833333358 0.47109797357806354 -0.001486062830957646 0.360557868837933 -0.68298320369992294 0.0076764196605654264 0.33590164930029814 -0.37973704288271776 913459016.12264001 57608500.000000007 -0.72537750933924938 0.0046307385315009783 -0.44516456760051148 -0.46686965887756504 96937916.666666672 90101500.000000015 450174311.00058007 54.72071905372924\ndecision_type=2 2 2 2 2 2 2 2 2 2 2 2 2 2 2 2 2 2 2 2 2 2 2 2 2 2 2 2 2 2\nleft_child=11 -2 3 7 5 -5 -6 9 -9 -3 -10 -1 13 14 20 17 -17 18 22 -16 21 -13 -14 27 -25 -19 -27 29 -29 -24\nright_child=1 2 -4 4 6 -7 -8 8 10 -11 -12 12 15 -15 19 16 -18 25 -20 -21 -22 -23 23 24 -26 26 -28 28 -30 -31\nleaf_value=0.0077933919003134421 0.0024358545987700278 -0.027668691092323429 -0.0013783168442763481 0.03243411315038363 -0.02369691147105376 -0.043581659107040052 0.0030930856113950108 -0.018433859022106185 0.049746604042703459 0.014178186605898825 0.012856905842808379 -0.016973315891984694 -0.026112236884113224 0.021869270990880926 0.02448524499362548 -0.05262263023908912 0.0050907702276361171 -0.048437583786889053 -0.047655829316494418 -0.047460622772119876 -0.0047179127607899288 0.046056821303108446 -0.0099409618705746973 0.067334304096183309 0.0098283989586577247 -0.022336454391084594 0.010317110560311661 -0.063481579816848183 0.00458248642666446 0.025614120117312511\nleaf_weight=1036.5766449570656 3509.6936317980289 29.478054881095886 18320.425838753581 5.4815532565116873 38.723060563206673 31.67230698466301 592.98381271958351 25.734409958124161 15.987428054213522 19.74040125310421 310.26167386770248 10.477463036775587 31.217293009161949 159.59667859971523 5.9969613999128368 7.9837056249380103 929.58620999753475 18.955324485898018 12.472092583775519 19.212550595402718 59.509087517857552 25.453873515129089 244.71749223768711 10.228613138198851 47.412645518779755 55.125151798129082 29.193283170461655 6.4960311055183402 406.89375850558281 18.217362463474274\nleaf_count=4163 14049 118 73406 22 155 127 2374 103 64 79 1242 42 125 643 24 32 3733 76 50 77 239 102 981 41 190 221 117 26 1631 73\ninternal_value=-5.31205e-08 -0.000577028 -0.00112236 0.0032598 -0.000427607 -0.0323666 0.00145088 0.00940724 0.0122447 -0.0108849 0.0146646 0.00421413 0.00244633 0.0122713 -0.000424982 0.000932216 0.00459932 -0.00297067 -0.000988475 -0.0303458 0.00747826 0.0276774 -0.000227821 0.000873104 0.020033 -0.0178967 -0.0110309 -0.00075984 0.00351292 -0.00747754\ninternal_weight=26035.5 22900.2 19390.5 1070.06 668.861 37.1539 631.707 401.202 351.984 49.2185 326.249 3135.32 2098.75 280.247 120.65 1818.5 937.57 880.929 777.655 25.2095 95.4404 35.9313 765.183 733.966 57.6413 103.274 84.3184 676.325 413.39 262.935\ninternal_count=104325 91739 77690 4284 2678 149 2529 1606 1409 197 1306 12586 8423 1127 484 7296 3765 3531 3117 101 383 144 3067 2942 231 414 338 2711 1657 1054\nis_linear=0\nshrinkage=0.05\n\n\nTree=21\nnum_leaves=31\nnum_cat=0\nsplit_feature=9 8 18 0 30 10 30 24 9 30 27 15 21 18 21 12 19 32 0 6 27 16 12 27 33 6 9 19 30 21\nsplit_gain=23.6456 12.9249 9.50267 8.18911 8.18556 8.86547 7.93232 12.9613 9.0102 8.58572 11.205 11.7967 11.205 16.9083 15.7683 10.6679 10.0628 10.0127 13.4549 11.5521 9.74927 10.7216 9.55367 9.04224 11.7351 9.09492 7.6372 7.62022 7.34052 8.30279\nthreshold=-0.0022896588478751308 -0.36644111371826366 0.0059732498148323829 148191500.00000003 145949.99983031306 -0.64982262355856746 -36723.741741485886 41.022625406040561 -0.010060050990302936 -23420.733676146712 47.306651011686704 -0.0018799551074242247 45.029053421589843 -0.0024928359091213044 48.207924126691388 -0.0055856523072848044 -0.48596657718442615 4.5000000000000009 81406500.000000015 -0.0016495699454976418 51.280778298117731 0.3859635170306564 -0.0041770278307772237 49.32752605822018 1.5000000000000002 -0.001745495620164683 -0.0034791628582130358 -0.15884258624378186 -147309.44246401635 33.29283622117822\ndecision_type=2 2 2 2 2 2 2 2 2 2 2 2 2 2 2 2 2 2 2 2 2 2 2 2 2 2 2 2 2 2\nleft_child=1 28 6 4 27 -6 8 -8 -3 -9 11 15 13 20 17 -11 -17 -14 23 22 21 -12 -20 -19 -25 -26 -21 -4 -1 -30\nright_child=-2 2 3 -5 5 -7 7 9 -10 10 12 -13 14 -15 -16 16 -18 18 19 26 -22 -23 -24 24 25 -27 -28 -29 29 -31\nleaf_value=-0.012423127913174901 -0.00055020959678982 0.022237217447562359 -0.0071522391790894996 -0.063762711249417986 -0.031890471428741247 0.0050906658893588638 0.039833054830168975 0.024513044429937264 0.0032204714191151756 0.0093779807044709756 0.034764931159731151 0.010409415051110734 0.013556816100968342 0.02380518951479561 0.012553518705270321 0.015939219042437159 -0.040887115254038292 -0.048548501257286936 -0.060519026472709216 -0.072681798760704894 -0.021612191207285233 -0.0070485178367945935 0.015919785927255257 -0.020650238686228464 -0.00075714592868229489 0.079975192060795466 -0.029665458335758722 -0.051434592298236596 0.018434209677471818 -0.0021557702905759049\nleaf_weight=144.84348420798779 22971.338372126222 65.610453739762306 29.69431871175766 5.4891153126955023 17.673541560769081 195.19884288311005 35.539445281028748 81.701188996434212 1229.912720054388 23.84548719227314 27.102919027209282 65.427813425660133 35.524559557437897 239.90983341634274 206.95178046822548 9.4649076461791974 44.033290863037109 5.2234841585159328 5.217665150761607 14.974383056163786 35.825423866510391 35.296926587820053 18.875839248299599 9.1829255968332308 5.4439254105091122 9.7123517543077416 33.184356540441513 14.439105361700056 56.662492617964745 360.23479579389095\nleaf_count=580 92025 265 119 22 71 784 144 329 4941 96 109 263 143 965 831 38 177 21 21 60 144 142 76 37 22 39 133 58 227 1443\ninternal_value=-3.32714e-08 0.00412716 0.00566682 -0.00333331 -0.00204266 0.00202034 0.00672247 0.0102126 0.00418356 0.00905182 0.00752104 -0.00521703 0.010186 0.016651 0.00383662 -0.018436 -0.0308334 -0.00929856 -0.0172731 -0.0288996 -0.000822862 0.0111128 -0.000633727 0.0111425 0.023953 0.0509773 -0.0430409 -0.0216401 -0.00272628 0.000642712\ninternal_weight=26033.5 3062.2 2500.46 262.495 257.006 212.872 2237.96 942.439 1295.52 906.899 825.198 142.771 682.426 338.135 344.291 77.3437 53.4982 137.339 101.815 72.2522 98.2253 62.3998 24.0935 29.5627 24.3392 15.1563 48.1587 44.1334 561.741 416.897\ninternal_count=104325 12300 10050 1054 1032 855 8996 3790 5206 3646 3317 574 2743 1360 1383 311 215 552 409 290 395 251 97 119 98 61 193 177 2250 1670\nis_linear=0\nshrinkage=0.05\n\n\nTree=22\nnum_leaves=31\nnum_cat=0\nsplit_feature=6 12 6 32 9 24 17 10 30 4 6 4 4 7 30 17 17 15 30 17 9 31 10 19 11 14 0 17 0 24\nsplit_gain=21.7822 11.4345 11.2898 14.4886 13.0265 11.6153 14.2769 12.8294 11.9503 10.1641 10.2091 12.6877 12.7961 11.684 10.0683 11.7484 12.2947 10.4403 10.6402 10.6896 11.2931 10.9689 12.0765 10.1154 12.1885 9.97532 9.84768 9.61055 11.9711 10.4228\nthreshold=-0.00096829920037500006 -0.0025562229536165155 -1.0715414994699744e-05 6.5000000000000009 -0.0040565682877209954 44.625110443693835 -0.74082919065892572 3.7168431076269282 -24335.024206452068 2.6942278500000003 0.0012617514241700658 11.535006615000002 12.786156720000003 0.8355780078612437 84344.879426233485 -0.48051616039877648 -0.46836734611281938 -0.00025664671988295801 -182074.00750015673 -0.42167198826531582 -0.0010583973210269158 59493284.012055144 -0.48276912153773566 2.6184876692716235 -0.26687650068201746 -0.59250438661970406 75323500.000000015 1.1508892250123435 59034500.000000007 46.642770848936742\ndecision_type=2 2 2 2 2 2 2 2 2 2 2 2 2 2 2 2 2 2 2 2 2 2 2 2 2 2 2 2 2 2\nleft_child=-1 -2 3 -3 -5 6 -4 8 -8 -7 13 -12 -13 -11 15 -6 -17 18 -18 -20 -21 -22 -23 24 26 -26 -16 -19 -29 -30\nright_child=1 2 5 4 14 9 7 -9 -10 10 11 12 -14 -15 23 16 17 27 19 20 21 22 -24 -25 25 -27 -28 28 29 -31\nleaf_value=0.0030999804273953609 0.0027565797183001293 0.0011590694572383021 -0.013528113331437629 0.036324580965275938 -0.0077788005840448982 -0.0045712269787492547 0.0071346094991200735 -0.034516836541470745 -0.026210221333753999 0.00013739021011195695 -0.0072452012837574773 0.01518161143885776 -0.0013079507972487742 0.0062021410523355721 0.025228416091086364 0.026413328169763262 0.018837021659970199 -0.00063986255553536754 0.013174001092519467 0.00026330333945445635 0.0049023221525986002 0.0018392147961580599 -0.012807096060934543 0.0064618520000630621 0.010375649137675306 -0.019844346590327071 -0.0067856815520715239 -0.031709676370072951 0.074339056854648852 0.012127582809813688\nleaf_weight=4653.6326188445091 2180.2485637664795 1846.5985096991062 104.21413174271584 19.95988804101944 1079.6371953785419 1454.4158610701561 1192.5852665752172 19.479336455464363 27.489044174551964 5665.0850053578615 968.64906395971775 126.81640040874481 1628.0640346258879 923.63745780289173 26.382328823208809 38.211328357458115 46.722956538200378 1346.0628533810377 74.622758060693741 484.49022720754147 130.08155712485313 167.2503644824028 888.02278347313404 88.216289609670639 29.625357538461685 348.98612812161446 268.38175915181637 15.188971638679503 6.9909682273864737 182.16280792653561\nleaf_count=18677 8728 7396 417 80 4332 5837 4772 78 110 22681 3883 508 6526 3697 106 153 187 5397 299 1939 521 670 3560 354 119 1401 1078 61 28 730\ninternal_value=8.22406e-09 -0.000674795 -0.00106448 -0.00264943 -0.00399131 -0.000136896 0.00424623 0.00574059 0.00638333 -0.000683946 -7.68182e-05 -0.00265178 -0.000116333 0.000987575 -0.00414544 -0.00323806 -0.00178758 -0.00211005 -0.00471023 -0.0053409 -0.00616831 -0.0087971 -0.0104858 -0.00945854 -0.0115442 -0.0174797 -0.00392032 0.000893936 0.0109975 0.0144269\ninternal_weight=26031.9 21378.3 19198 7087.6 5241 12110.4 1343.77 1239.55 1220.07 10766.7 9312.25 2723.53 1754.88 6588.72 5221.04 4459.44 3379.81 3341.6 1791.19 1744.47 1669.84 1185.35 1055.27 761.592 673.376 378.611 294.764 1550.41 204.343 189.154\ninternal_count=104325 85648 76920 28411 21015 48509 5377 4960 4882 43132 37295 10917 7034 26378 20935 17877 13545 13392 7176 6989 6690 4751 4230 3058 2704 1520 1184 6216 819 758\nis_linear=0\nshrinkage=0.05\n\n\nTree=23\nnum_leaves=31\nnum_cat=0\nsplit_feature=9 7 18 5 27 24 16 21 7 28 5 2 11 9 18 20 30 7 5 12 19 7 7 4 9 6 13 27 4 6\nsplit_gain=19.9246 11.2695 8.68405 8.04836 7.58985 10.601 9.67962 8.87105 8.86198 8.04654 8.90859 8.41419 13.3707 9.87311 15.6935 9.42528 8.32952 8.02123 8.14357 7.63767 7.95843 7.53694 8.09959 7.53411 10.4463 10.291 9.99147 8.83804 11.7041 14.1831\nthreshold=-0.0022896588478751308 -0.3664025355809794 0.0059732498148323829 114224528.46630003 43.632513851213879 40.680331315402967 -0.48619207670466702 23.71440129716866 -0.10665102412769494 75170500.000000015 995367690.44882512 95701500.000000015 -0.30955132502259086 -0.0037513203074008845 -0.0058369664575482197 4.4655276417154566 51801.040387615569 0.38463797412728612 7709101311.0672998 -0.0027835645113967185 -0.24635082159118279 -0.32838477959878021 0.58569587004058299 25.423798125000001 0.0032329422339899554 0.0060200983917191317 -0.015112421995534807 51.234162254188313 2.2349708550000003 -0.00049847209983472352\ndecision_type=2 2 2 2 2 2 2 2 2 2 2 2 2 2 2 2 2 2 2 2 2 2 2 2 2 2 2 2 2 2\nleft_child=1 3 4 -1 5 -3 8 -6 -7 16 -11 13 -13 -12 -15 21 -9 -17 -19 20 -16 -14 -23 24 27 -25 -26 -2 29 -29\nright_child=23 2 -4 -5 7 6 -8 9 -10 10 11 12 15 14 19 17 -18 18 -20 -21 -22 22 -24 25 26 -27 -28 28 -30 -31\nleaf_value=0.051721426475998492 0.00036061855700644774 0.0044101520271199821 -0.0033738960067800916 -0.0032768795813449729 0.047319508808423255 -0.027600775125365375 -0.02235640612378418 0.012075002687638191 0.040031738630467502 0.013178625091395722 0.0063783160811029058 -0.014391654457615153 0.058342944872652604 -0.033498360348761538 -0.026684366476255481 -0.067067779223179844 0.037407286576330294 -0.026892509022660795 0.05194601352738152 -0.012401848154681516 0.015544571382460598 0.0069168984649808311 0.022451204297465551 0.0026717983265101696 -0.00071115359151943539 -0.015153015921574173 -0.011208366780451701 0.010770774433881825 -0.0011775739456416547 -0.0097800128521757599\nleaf_weight=6.7327944785356513 10974.692474380136 698.91765674948692 262.65148124098778 553.97800323367119 14.488788247108458 7.4937373250722912 71.630112186074257 151.62919193506241 13.695387169718741 357.15306417644024 216.75168140232563 55.342830508947372 9.2208583950996381 49.332744032144547 13.192097827792166 6.4596920162439373 41.285048857331276 9.6610281020402891 4.9556932002305976 80.893378093838692 72.322768211364746 230.69504730403423 131.87997941672802 2430.4737812280655 444.22937200963497 83.765221834182739 462.89158633351326 94.800096988677979 7744.1938256323338 733.97193287312984\nleaf_count=27 43956 2811 1055 2219 59 30 287 612 55 1436 873 222 37 198 53 26 167 39 20 325 291 927 531 9733 1781 337 1860 380 31028 2950\ninternal_value=-1.765e-08 0.00378979 0.00522682 -0.00261648 0.00623665 0.00230172 -0.0135745 0.00839226 0.0161129 0.00799806 0.00651781 0.00381666 0.00861737 -0.00115858 -0.00873079 0.0118586 0.0174963 -0.0206685 -0.000162881 -0.00138829 0.00903005 0.0137025 0.0125672 -0.000504967 -0.00082245 0.00207794 -0.00606774 -0.00057904 -0.00178194 -0.00742929\ninternal_weight=26029.4 3060.36 2499.65 560.711 2237 791.737 92.8192 1445.26 21.1891 1430.78 1237.86 880.708 448.215 432.493 215.741 392.872 192.914 21.0764 14.6167 166.408 85.5149 371.796 362.575 22969 20454.8 2514.24 907.121 19547.7 8572.97 828.772\ninternal_count=104325 12300 10054 2246 8999 3183 372 5816 85 5757 4978 3542 1802 1740 867 1580 779 85 59 669 344 1495 1458 92025 81955 10070 3641 78314 34358 3330\nis_linear=0\nshrinkage=0.05\n\n\nTree=24\nnum_leaves=31\nnum_cat=0\nsplit_feature=6 15 33 21 32 15 7 2 20 19 3 22 16 11 18 15 32 11 18 27 18 19 13 27 12 12 8 0 13 33\nsplit_gain=18.5344 11.7738 7.42197 10.3952 12.9255 10.7736 9.28945 7.42929 19.339 8.56345 8.22639 8.27645 9.38811 8.5175 8.47062 11.9225 10.9808 10.1069 9.51146 8.5116 8.28792 13.2268 9.63421 8.18042 8.18249 10.8061 9.30141 8.93397 8.88263 8.67392\nthreshold=-0.0013510826880491764 -0.0028716499217850129 4.5000000000000009 61.361805688047653 3.5000000000000004 0.0053797093876688526 0.42720692972513746 77938500.000000015 0.45496029811137445 -0.79011341315930572 153766000.00000003 88805875.000000015 -0.84384189276383792 0.44793883745965152 -0.0024309030066156918 0.00061189535788963589 19.500000000000004 -0.060661217787121351 -0.0025528724641927232 33.886155036985031 0.0076764196605654264 -0.22262496856589623 -0.3067050638037328 48.862524343973767 2.3250862610013637e-05 -0.0041770278307772237 1.280007010825108 86785500.000000015 1.7149036066689101 1.5000000000000002\ndecision_type=2 2 2 2 2 2 2 2 2 2 2 2 2 2 2 2 2 2 2 2 2 2 2 2 2 2 2 2 2 2\nleft_child=2 -2 7 5 -5 -4 -6 8 -1 -9 11 13 -13 -11 15 18 -17 -18 19 -14 -16 -22 -23 24 25 26 -15 -27 -28 -30\nright_child=1 -3 3 4 6 -7 -8 9 -10 10 -12 12 14 23 20 16 17 -19 -20 -21 21 22 -24 -25 -26 27 28 -29 29 -31\nleaf_value=-0.0027296783908050846 0.0021716106280983342 -0.00097589436695166842 0.0087079327345605268 0.031707261625838735 -0.05796995246355733 0.042331977716459954 0.014488340012885823 -0.01465585144240596 0.018623929432892962 -0.0073332754966059181 -0.044092206005991424 0.050449835020669534 0.039699999270901544 0.018679258036545996 0.010967885840795577 -0.032245922521109673 -0.020490483115863298 0.075910261936950996 -0.062068402685680479 0.001714228440455522 -0.030279681165818056 -0.018584143605861074 0.014412327475263102 0.014568488483217047 0.039049337777015886 -0.011800179654322247 0.026281327817123397 -0.060228063296602657 -0.062919718035384681 -0.0059172307332050157\nleaf_weight=202.40151782333851 3508.9292805045843 19385.990242660046 540.17960496246815 8.9806520193815249 16.945044860243801 24.922295928001404 5.9859647303819647 81.738819748163223 222.6900345236063 383.77281574904919 9.6968132555484754 10.966763541102408 15.134183540940283 59.776646867394447 515.45205344259739 46.874595209956169 5.9809717833995819 4.9851301759481412 5.7257960289716712 576.71907117962837 33.171106070280075 30.154546335339546 83.044710397720337 112.54610446095467 11.230429977178572 72.893797799944878 10.655019715428351 10.954640105366705 10.657850965857508 17.852701619267464\nleaf_count=813 14049 77690 2171 36 68 100 24 328 899 1540 39 44 61 241 2070 188 24 20 23 2318 133 121 333 452 45 293 43 44 43 72\ninternal_value=8.54576e-09 -0.0004935 0.00360746 0.00862297 -0.0191411 0.0101908 -0.0390553 0.00242629 0.0084567 0.00121137 0.00185082 0.00207152 0.00437971 -0.00236941 0.00399615 -3.29266e-05 -0.0217087 0.0233328 0.00206511 0.00268556 0.00798625 -0.00251376 0.00562257 0.00384456 -0.00237609 -0.00492122 0.00627016 -0.0181272 -0.0126693 -0.027226\ninternal_weight=26027 22894.9 3132.09 597.014 31.9117 565.102 22.931 2535.08 425.092 2109.98 2028.25 2018.55 1328.21 690.34 1317.24 655.42 57.8407 10.9661 597.579 591.853 661.822 146.37 113.199 306.567 194.021 182.791 98.9422 83.8484 39.1656 28.5106\ninternal_count=104325 91739 12586 2399 128 2271 92 10187 1712 8475 8147 8108 5335 2773 5291 2634 232 44 2402 2379 2657 587 454 1233 781 736 399 337 158 115\nis_linear=0\nshrinkage=0.05\n\n\nTree=25\nnum_leaves=31\nnum_cat=0\nsplit_feature=9 24 6 18 4 6 9 7 33 22 4 7 9 30 27 6 7 22 7 17 17 24 9 15 14 30 16 32 18 24\nsplit_gain=17.2636 12.0928 9.36705 8.55658 10.0543 10.5014 9.68808 12.9766 11.377 10.6699 10.1538 9.47833 10.0162 9.21327 9.63773 8.97939 9.46238 9.38994 9.15692 9.14634 8.94853 11.6994 9.68236 12.3508 10.9821 10.953 10.9443 10.5235 10.2961 9.42208\nthreshold=-0.0013088645756377801 57.922978098682044 0.00038702869891271702 -0.0030638596381326595 37.432380145000003 0.0060200983917191317 -0.0007950163558099187 -0.58188038925416541 4.5000000000000009 84840791.666666672 59.581675115000003 -0.74233798039745358 0.0014022459798886946 -319230.09229243541 53.866093150455292 -3.5885596799789525e-05 -0.48960853861525999 147472666.66666672 1.6227255194227543 -0.77211581524748263 -0.6517023710981239 46.8988029681367 0.0032329422339899554 0.005239664051915117 -0.50513604425527892 32053.155835002664 3.2494806591157785 1.0000000180025095e-35 0.0030020187265604741 42.311177230397924\ndecision_type=2 2 2 2 2 2 2 2 2 2 2 2 2 2 2 2 2 2 2 2 2 2 2 2 2 2 2 2 2 2\nleft_child=1 2 -1 6 20 -6 7 -2 9 13 -9 -10 -13 -8 -15 16 -11 19 -17 -18 21 -5 27 24 -24 26 -26 -22 -27 -29\nright_child=3 -3 -4 4 5 -7 8 10 11 15 -12 12 -14 14 -16 18 17 -19 -20 -21 22 -23 23 -25 25 28 -28 29 -30 -31\nleaf_value=0.0038643399823649798 0.022751416276103692 -0.0065891236752824494 -0.002104862456841348 0.0057338536452155829 0.0053463630087890656 -0.017973255008199348 -0.01314557643110195 -0.0075208184704283537 -0.043027714666001873 -0.023258617620258194 0.042777750504093631 0.013516216020486714 -0.00045759398225923012 0.0081052217569232594 -0.018730817807605462 0.0024705535399992648 0.019742445216407247 0.035125033970149065 -0.03154851771359949 -0.006841887060626356 0.0074395930144992121 -0.0061321764508032199 0.019604369640473442 -0.013550205157929479 -0.012720009168734683 0.03030297600718871 0.030984716453941741 -0.0085836596417454333 -7.2346924885038132e-05 -0.00067696904969371022\nleaf_weight=4604.7091728448868 40.722757786512375 349.25984363257885 766.63966178894043 237.20540514588356 841.14564014971256 51.217286303639412 61.475187048316002 516.62641350924969 8.7408818602561933 71.662250116467476 10.232351168990133 435.96893276274204 181.67673750221729 768.85376340150833 34.978361666202545 874.67904402315617 34.713224187493324 14.981479257345198 20.238525524735451 476.17618095874786 388.08159853518009 1671.5410309284925 56.128419488668442 340.49121089279652 255.07365623116493 34.139986470341682 15.176551237702368 388.67373168468475 152.57785774767399 12321.465357348323\nleaf_count=18489 163 1402 3069 951 3368 207 246 2068 35 287 41 1745 727 3077 140 3500 139 60 81 1906 1554 6707 225 1370 1024 137 61 1557 613 49376\ninternal_value=3.97429e-08 0.00242617 0.00301237 -0.000683496 -0.0011561 0.00400793 0.0015457 -0.00444207 0.00268457 0.00109329 -0.00654395 0.00867422 0.0094059 0.00551068 0.00693746 -0.00146786 -0.00621415 -0.00389144 0.00170121 -0.00503557 -0.00144664 -0.00465755 -0.00100736 -0.0061671 -0.00126766 -0.00383133 -0.0102657 -0.000671108 0.00548156 -0.000918754\ninternal_weight=26025.3 5720.61 5371.35 20304.6 16752.9 892.363 3551.73 567.582 2984.14 2357.76 526.859 626.387 617.646 865.307 803.832 1492.45 597.533 525.871 894.918 510.889 15860.6 1908.75 13951.8 853.588 513.096 456.968 270.25 13098.2 186.718 12710.1\ninternal_count=104325 22960 21558 81365 67150 3575 14215 2272 11943 9436 2109 2507 2472 3463 3217 5973 2392 2105 3581 2045 63575 7658 55917 3430 2060 1835 1085 52487 750 50933\nis_linear=0\nshrinkage=0.05\n\n\nTree=26\nnum_leaves=31\nnum_cat=0\nsplit_feature=6 12 30 13 13 15 32 9 7 21 21 24 6 0 13 19 4 24 19 12 4 27 6 13 19 10 21 7 7 17\nsplit_gain=15.8447 12.6298 9.32702 9.21308 12.4419 10.0087 13.4284 10.9904 9.93245 9.05519 10.7887 9.45409 11.4221 12.225 8.48532 8.59472 10.4757 9.34771 10.9191 9.0901 8.52971 8.47334 7.94525 10.3962 9.68518 9.4218 9.13177 9.49724 8.40917 8.0401\nthreshold=-0.0016960071333645408 -0.0025562229536165155 -138049.34638738629 -0.51090813736640628 -0.58682280231605022 -0.0033999172739760937 2.5000000000000004 -0.0038968550863717195 -0.40862401701203449 57.381458030946156 45.640098608588694 48.680224194142717 -0.002453724764575504 90748500.000000015 -0.48279823032203378 8.8222075369023454 41.416485985000008 60.441297964507335 -0.18302272412884632 -0.0010149002152762263 23.713786955000003 56.350804907873858 -0.0023558950041479561 0.12183967514259809 1.1951168337332878 2.4419727751393752 21.864845529311541 -0.26254866874764615 0.55702053877162849 0.1989433762863452\ndecision_type=2 2 2 2 2 2 2 2 2 2 2 2 2 2 2 2 2 2 2 2 2 2 2 2 2 2 2 2 2 2\nleft_child=3 2 -2 4 -1 6 -5 21 -9 10 -6 -12 -13 -14 -7 17 -17 -16 -19 -20 -21 22 26 -24 25 -25 27 -8 -29 -28\nright_child=1 -3 -4 5 9 14 7 8 -10 -11 11 12 13 -15 15 16 -18 18 19 20 -22 -23 23 24 -26 -27 29 28 -30 -31\nleaf_value=0.0024719909594083599 -0.0018676538344930542 -0.00080141958871536806 0.0045206848763100216 0.016638822443648865 -0.033928952807312847 0.042825726064186664 -0.040791354824554912 0.023622161833638876 -0.0094989870627330553 -0.069765401810679931 0.050225930100446493 -0.075850178507047908 -0.03426881913283978 0.050088783300358181 0.008696317619870329 0.069613036737850964 0.012792959505384739 -0.04988150861487825 -0.046858506630739587 -0.024498089558475811 0.01279603184011196 0.057468953353081567 -0.048408095924111438 0.037267770757018356 -0.014845566587904663 -0.039350055924909214 0.020305123318722845 0.053145830372496317 0.014781719979501116 -0.001711529668277088\nleaf_weight=170.10755176842213 790.98081560432911 20954.213692188263 2057.7481510341167 123.59877441823483 36.880238905549049 17.670540139079094 5.2205935269594184 24.21529084444046 346.90332706272602 8.7154547423124296 8.7170797884464282 5.2286318838596371 8.4614394307136553 8.721638619899748 902.3124203234911 12.16249895095825 24.356622606515884 12.963418543338774 9.7090844511985761 19.943652242422104 66.301523253321648 7.4194943010807028 14.413993731141089 21.063640102744106 50.753470659255981 4.9567191153764716 52.579070076346397 23.175827264785767 37.228584408760071 196.20171982049942\nleaf_count=683 3168 83977 8248 498 148 71 21 97 1394 35 35 21 34 35 3628 49 98 52 39 80 266 30 58 85 205 20 212 94 151 793\ninternal_value=2.56298e-08 -0.000376759 0.00274689 0.00403996 -0.00506708 0.0051792 0.00132122 -0.00109322 -0.00733785 -0.0217821 -0.015633 0.00604339 -0.0111415 0.00854869 0.00846618 0.0078867 0.0317166 0.00702612 -0.0068104 -0.000991495 0.004172 0.00451798 0.00354935 -0.00944501 -0.00212984 0.0226725 0.00731814 0.0239093 0.0295012 0.00294162\ninternal_weight=26022.9 23802.9 2848.73 2219.98 246.832 1973.15 907.731 784.132 371.119 76.7245 68.009 31.1288 22.4117 17.1831 1065.42 1047.75 36.5191 1011.23 108.918 95.9543 86.2452 413.013 405.594 91.1878 76.7738 26.0204 314.406 65.625 60.4044 248.781\ninternal_count=104325 95393 11416 8932 991 7941 3658 3160 1491 308 273 125 90 69 4283 4212 147 4065 437 385 346 1669 1639 368 310 105 1271 266 245 1005\nis_linear=0\nshrinkage=0.05\n\n\nTree=27\nnum_leaves=31\nnum_cat=0\nsplit_feature=9 8 9 5 27 27 10 16 18 7 16 16 18 6 17 26 6 15 6 7 5 32 12 10 18 6 10 7 15 9\nsplit_gain=14.6756 10.0204 7.39309 8.886 9.27309 10.3497 8.93696 9.90431 8.92886 9.03714 8.79935 10.3535 8.56218 8.2759 11.8932 8.06184 7.63564 9.25443 7.55211 11.0746 7.32436 7.25023 6.78119 6.80313 8.55776 6.64336 6.56943 6.56818 8.36631 6.44634\nthreshold=-0.0022896588478751308 -0.36644111371826366 -0.010060050990302936 6168632247.9402809 55.602038834824803 51.929897438715699 -0.18976467449921783 -0.69740214588504834 -0.0022574790430332499 -0.091256795699051138 -0.65175000728049903 -0.76369296181417168 0.004752666084276048 0.001179259896185725 2.352526852200107 94774781.919277832 -0.0028406047541927877 -0.019617980480166327 -0.001287251105770548 -0.091256795699051138 114224528.46630003 16.500000000000004 -0.011289648198512523 0.44796782816840858 -0.012646365594989327 0.00079383593361992421 0.98921902261711492 0.87793079332589397 -0.0048521334767525617 -0.0038968550863717195\ndecision_type=2 2 2 2 2 2 2 2 2 2 2 2 2 2 2 2 2 2 2 2 2 2 2 2 2 2 2 2 2 2\nleft_child=1 20 -3 4 5 12 7 -6 9 -7 11 -10 13 22 15 -15 17 -5 19 -8 -1 -11 23 -4 -25 -24 -14 29 -29 -19\nright_child=-2 2 3 16 6 8 18 -9 10 21 -12 -13 26 14 -16 -17 -18 27 -20 -21 -22 -23 25 24 -26 -27 -28 28 -30 -31\nleaf_value=0.049131951053371654 -0.00043316792329720392 0.018934442270528467 -0.041613246448527118 -0.038086446157680726 0.045017145974681372 -0.046306668002135898 0.067132032234920383 -0.02174803721944733 0.033263892265184544 0.020034149568293188 0.022609716796664146 -0.048415530685452658 -0.0075602826038724327 0.053463465757793455 -0.020195420762512049 0.0094864782096690664 -0.010873502819302239 0.030451839704116052 -0.0096802751877035197 0.0070812164764059871 -0.0034078609681536479 -0.036713434678877825 0.0058206069870582414 -0.038498113977886626 0.05042168990607148 -0.018055173625726964 -0.065624113387000943 0.0065730897927779074 -0.043671592259727582 