{"model_str": "tree\nversion=v4\nnum_class=1\nnum_tree_per_iteration=1\nlabel_index=0\nmax_feature_idx=49\nobjective=regression_l1\nfeature_names=trade_value_z_score price_pct_change_1h trade_value_pct_change_1h price_pct_change_2h trade_value_pct_change_2h price_pct_change_3h trade_value_pct_change_3h price_pct_change_6h trade_value_pct_change_6h price_pct_change_12h trade_value_pct_change_12h price_pct_change_24h trade_value_pct_change_24h price_pct_change_48h trade_value_pct_change_48h price_std_4 price_std_12 price_std_24 rel_dist_to_bb_upper rel_dist_to_bb_lower rsi rsi_pct_change_2 rsi_pct_change_6 rsi_pct_change_24 adx macd_pct_change_2 macd_pct_change_6 macd_pct_change_24 rel_dist_to_signal body_frac_0 upper_wick_frac_0 lower_wick_frac_0 cur_pct_change_0 body_frac_1 upper_wick_frac_1 lower_wick_frac_1 cur_pct_change_1 body_frac_2 upper_wick_frac_2 lower_wick_frac_2 cur_pct_change_2 body_frac_3 upper_wick_frac_3 lower_wick_frac_3 cur_pct_change_3 body_frac_4 upper_wick_frac_4 lower_wick_frac_4 cur_pct_change_4 hour\nfeature_infos=[-0.55606401862787658:15.24616615192917] [-0.15833863781031188:0.11930421629797694] [-0.9364450741717032:17.738081688843849] [-0.15753424657534243:0.16921913405180566] [-0.95899127210840063:32.088728848145898] [-0.15740003186235463:0.17564757042919266] [-0.97894623995342223:56.836088756697144] [-0.16734886649874059:0.2068443940253355] [-0.97843268519152837:16713.741434032316] [-0.15713147410358563:0.26753639629419546] [-0.9723374442325039:17034.086218965229] [-0.20455101541472964:0.2327472111930422] [-0.96149401624322028:2524.4726632329034] [-0.24324953445065178:0.34081820978160571] [-0.98419550341641071:9827.3945027172649] [28.867513466478606:24767.148941019961] [186.42367837105186:19257.860949048365] [308.68321339394936:16243.225455196507] [-0.036547968150140317:0.28095357037616769] [-0.097011647172522947:0.20447950264643386] [11.940973830094322:86.697405446685437] [-0.70825395401061353:2.8803594765652027] [-0.7499986405209389:3.3192698888880425] [-0.79050465232778322:3.9174470995102819] [5.6734901508099886:73.767379797371433] [-292.20090083369428:122.9047238437755] [-243.73222985446171:653.48392238141309] [-1577.9058748223222:2310.4100229229293] [-1861.413954010417:163.69905451233967] [0:1] [0:0.95833333333333337] [0:1] [-0.15833863781031191:0.11930421629797694] [0:1] [0:0.95833333333333337] [0:1] [-0.15833863781031191:0.11930421629797694] [0:1] [0:0.95833333333333337] [0:1] [-0.15833863781031191:0.11930421629797694] [0:1] [0:0.95833333333333337] [0:1] [-0.15833863781031191:0.11930421629797694] [0:1] [0:0.95833333333333337] [0:1] [-0.15833863781031191:0.11930421629797694] [0:23]\ntree_sizes=794 791 793 797 797 803 798 803 795 802 798 796 801 800 797 801 800 798 794 799 797 789 798 797 794 801 787 798 797 797 797 793 801 791 801 806 804 793 801 805 798 802 794 785 804 798 785 800 790\n\nTree=0\nnum_leaves=7\nnum_cat=0\nsplit_feature=21 5 32 31 40 49\nsplit_gain=50.348 21.2268 17.9098 10.986 12.6242 12.3\nthreshold=-0.043600565838202536 -0.014503772443333172 0.0066660339827442341 0.30611836843508405 -0.0061362677313597557 6.5000000000000009\ndecision_type=2 2 2 2 2 2\nleft_child=1 -1 3 4 -2 -6\nright_child=2 -3 -4 -5 5 -7\nleaf_value=0.00019656897275126538 0.00016073238439275885 9.6909663261612872e-05 6.8880057369824418e-06 4.5397121721180159e-05 0.00012128778253099881 5.8420391724212095e-05\nleaf_weight=815 385 2211 1365 2024 487 1289\nleaf_count=815 385 2211 1365 2024 487 1289\ninternal_value=7.5171e-05 0.00526354 -0.00275366 -0.00113152 0.00134773 -0.000431586\ninternal_weight=8576 3026 5550 4185 2161 1776\ninternal_count=8576 3026 5550 4185 2161 1776\nis_linear=0\nshrinkage=1\n\n\nTree=1\nnum_leaves=7\nnum_cat=0\nsplit_feature=3 3 1 22 22 6\nsplit_gain=45.6384 20.0986 16.5006 12.7169 13.1021 11.1327\nthreshold=-0.00076807505745379856 -0.015689894473238982 -0.00083498701024797828 -0.12702884218948798 0.1486443699847482 0.92676359234279693\ndecision_type=2 2 2 2 2 2\nleft_child=1 -1 -2 -3 5 -5\nright_child=2 3 -4 4 -6 -7\nleaf_value=0.00014841342566796812 1.8890681203629356e-05 4.6991817034722773e-05 -3.7064110911160243e-05 4.5200666863820515e-06 7.7066596786607989e-05 -5.7939509897551037e-05\nleaf_weight=612 1126 1158 3470 1574 332 304\nleaf_count=612 1126 1158 3470 1574 332 304\ninternal_value=0 0.0039196 -0.00339426 0.00240499 0.000180995 -0.0014377\ninternal_weight=8576 3980 4596 3368 2210 1878\ninternal_count=8576 3980 4596 3368 2210 1878\nis_linear=0\nshrinkage=0.05\n\n\nTree=2\nnum_leaves=7\nnum_cat=0\nsplit_feature=5 32 30 24 18 4\nsplit_gain=44.8679 21.7016 12.6044 12.196 13.7319 11.0246\nthreshold=-0.0042701597673697736 0.0075631100956984826 0.065318976026005698 27.13720977075371 0.017451780678529528 -0.32720043588631015\ndecision_type=2 2 2 2 2 2\nleft_child=3 -2 -3 4 -1 -5\nright_child=1 2 -4 5 -6 -7\nleaf_value=-2.898349045972282e-05 -4.2111835809919287e-06 -6.4955131838360105e-06 -0.0001031302802166465 0.000119893350327402 3.8080633041317928e-05 6.7753800572972972e-05\nleaf_weight=393 4567 322 756 329 1402 807\nleaf_count=393 4567 322 756 329 1402 807\ninternal_value=8.16231e-05 -0.00252436 -0.00890538 0.00510065 0.00253482 0.00915493\ninternal_weight=8576 5645 1078 2931 1795 1136\ninternal_count=8576 5645 1078 2931 1795 1136\nis_linear=0\nshrinkage=0.05\n\n\nTree=3\nnum_leaves=7\nnum_cat=0\nsplit_feature=21 5 5 45 12 24\nsplit_gain=44.6703 18.2331 14.3785 14.0901 11.8834 11.6463\nthreshold=-0.043600565838202536 -0.014503772443333172 0.0030288608064088511 0.52189897698209731 -0.24627601326096096 27.13720977075371\ndecision_type=2 2 2 2 2 2\nleft_child=1 3 5 -1 -4 -2\nright_child=2 -3 4 -5 -6 -7\nleaf_value=6.5923151309925742e-05 -1.4015134955388933e-05 1.855174771089878e-05 -3.0038309671908794e-06 0.00016583688619621173 -5.3213037496152539e-05 3.7976422892552367e-05\nleaf_weight=467 1520 2211 1060 348 2037 933\nleaf_count=467 1520 2211 1060 348 2037 933\ninternal_value=6.99627e-05 0.00495704 -0.00259459 0.0113497 -0.00485954 0.000264982\ninternal_weight=8576 3026 5550 815 3097 2453\ninternal_count=8576 3026 5550 815 3097 2453\nis_linear=0\nshrinkage=0.05\n\n\nTree=4\nnum_leaves=7\nnum_cat=0\nsplit_feature=21 1 24 7 1 8\nsplit_gain=38.7344 13.7632 12.8368 14.2537 11.3871 9.99599\nthreshold=-0.043600565838202536 0.0076532838638557763 21.262230829852907 -0.011114018621600439 0.01212741874365897 1.0164815483892873\ndecision_type=2 2 2 2 2 2\nleft_child=2 5 3 -1 -3 -2\nright_child=1 4 -4 -5 -6 -7\nleaf_value=5.6676771176794316e-05 -5.5899813091855351e-08 -9.5386106737792038e-05 6.1821415085446459e-05 -1.9996466681991479e-05 -2.7549552657078494e-05 -4.8978869805691832e-05\nleaf_weight=434 3732 555 1851 741 570 693\nleaf_count=434 3732 555 1851 741 570 693\ninternal_value=0.000174907 -0.00230631 0.00472571 0.000638298 -0.00724444 -0.00105085\ninternal_weight=8576 5550 3026 1175 1125 4425\ninternal_count=8576 5550 3026 1175 1125 4425\nis_linear=0\nshrinkage=0.05\n\n\nTree=5\nnum_leaves=7\nnum_cat=0\nsplit_feature=21 32 3 43 31 24\nsplit_gain=33.5587 13.1855 13.1569 11.6598 10.4746 12.2397\nthreshold=-0.043600565838202536 0.0066660339827442341 -0.015689894473238982 0.10035971223021585 0.30611836843508405 27.280693850022349\ndecision_type=2 2 2 2 2 2\nleft_child=2 4 -1 -3 5 -2\nright_child=1 3 -4 -5 -6 -7\nleaf_value=0.00012884837256558126 -6.4710903515886007e-06 9.2635381295979206e-06 2.0128936770847079e-05 -7.7267897292095542e-05 -2.6307353256157281e-05 4.7125066669868153e-05\nleaf_weight=611 1323 333 2415 1032 2024 838\nleaf_count=611 1323 333 2415 1032 2024 838\ninternal_value=9.32836e-05 -0.00221622 0.00432915 -0.00648352 -0.000824373 0.00159648\ninternal_weight=8576 5550 3026 1365 4185 2161\ninternal_count=8576 5550 3026 1365 4185 2161\nis_linear=0\nshrinkage=0.05\n\n\nTree=6\nnum_leaves=7\nnum_cat=0\nsplit_feature=21 8 40 7 24 1\nsplit_gain=30.0812 12.0738 12.134 11.9928 12.8712 10.8573\nthreshold=-0.043600565838202536 1.106703770976843 -0.0072016095150521349 -0.0088257095924173506 21.095310119651483 0.0077950836689180134\ndecision_type=2 2 2 2 2 2\nleft_child=3 2 -2 -1 -5 -4\nright_child=1 -3 5 4 -6 -7\nleaf_value=6.1032757466252218e-05 3.6172901097586114e-05 -5.5900652561006584e-05 -5.3168242952439982e-06 -2.3249342739324186e-05 4.0930219317668657e-05 -7.1208330752190447e-05\nleaf_weight=1372 752 1045 3201 646 1008 552\nleaf_count=1372 752 1045 3201 646 1008 552\ninternal_value=0.000186567 -0.002 -0.000876804 0.00419696 0.00133011 -0.00203837\ninternal_weight=8576 5550 4505 3026 1654 3753\ninternal_count=8576 5550 4505 3026 1654 3753\nis_linear=0\nshrinkage=0.05\n\n\nTree=7\nnum_leaves=7\nnum_cat=0\nsplit_feature=32 3 36 43 43 22\nsplit_gain=29.3646 16.3148 14.9901 15.2645 15.2716 8.68839\nthreshold=0.0011296244899782115 -0.015689894473238982 0.0067482664520989921 0.11439476553980372 0.1861605107159143 -0.061654823669970153\ndecision_type=2 2 2 2 2 2\nleft_child=1 -1 3 -2 -5 -3\nright_child=2 5 -4 4 -6 -7\nleaf_value=0.00012431839184054468 2.6270803075849856e-05 3.1914140793365911e-05 -8.6054777479113072e-05 -6.4445475922909464e-05 -1.8239005732795768e-05 -1.2666634618780752e-06\nleaf_weight=553 861 1781 540 432 1929 2480\nleaf_count=553 861 1781 540 432 1929 2480\ninternal_value=9.32836e-05 0.00267968 -0.00321637 -0.00192427 -0.00400254 0.00163107\ninternal_weight=8576 4814 3762 3222 2361 4261\ninternal_count=8576 4814 3762 3222 2361 4261\nis_linear=0\nshrinkage=0.05\n\n\nTree=8\nnum_leaves=7\nnum_cat=0\nsplit_feature=18 32 5 31 31 7\nsplit_gain=29.2279 14.7271 13.5039 9.72942 9.35448 8.53656\nthreshold=0.017639422851507415 0.006440138720696556 0.0028202191485919852 0.32160537482319668 0.15821566110397947 0.005925544820231444\ndecision_type=2 2 2 2 2 2\nleft_child=1 4 -2 -4 5 -1\nright_child=2 -3 3 -5 -6 -7\nleaf_value=-5.1992400392925442e-06 3.6091369323439233e-05 -6.3198682669258159e-05 1.7467111910743338e-05 -6.3059190974972023e-05 -1.9744964352834735e-05 4.6533599734701594e-05\nleaf_weight=501 3413 892 716 436 2188 430\nleaf_count=501 3413 892 716 436 2188 430\ninternal_value=3.49813e-05 -0.00307903 0.00277108 -0.00190972 -0.0014588 0.00273899\ninternal_weight=8576 4011 4565 1152 3119 931\ninternal_count=8576 4011 4565 1152 3119 931\nis_linear=0\nshrinkage=0.05\n\n\nTree=9\nnum_leaves=7\nnum_cat=0\nsplit_feature=32 3 36 33 40 33\nsplit_gain=26.626 15.0714 13.782 10.3769 12.6855 9.28345\nthreshold=0.0011296244899782115 -0.015689894473238982 0.0067482664520989921 0.14854215918045707 -0.0061362677313597557 0.35407448377581124\ndecision_type=2 2 2 2 2 2\nleft_child=1 -1 3 -2 -5 -6\nright_child=2 -3 -4 4 5 -7\nleaf_value=0.00011629790378234549 -4.9550981281333295e-05 1.1097125639502585e-05 -8.0608749336194546e-05 6.8121753220854768e-05 2.3697933728513457e-05 -2.9940219851976059e-05\nleaf_weight=553 585 4261 540 460 692 1485\nleaf_count=553 585 4261 540 460 692 1485\ninternal_value=-1.16604e-05 0.00245118 -0.00316321 -0.00192427 -0.000587789 -0.0021819\ninternal_weight=8576 4814 3762 3222 2637 2177\ninternal_count=8576 4814 3762 3222 2637 2177\nis_linear=0\nshrinkage=0.05\n\n\nTree=10\nnum_leaves=7\nnum_cat=0\nsplit_feature=18 32 3 0 19 39\nsplit_gain=25.9513 13.9605 13.1471 12.1288 11.959 10.1012\nthreshold=0.017639422851507415 0.006440138720696556 -0.015689894473238982 0.17757026480422458 0.0084373103008660699 0.32672684458398749\ndecision_type=2 2 2 2 2 2\nleft_child=1 -1 -2 4 -4 -3\nright_child=2 5 3 -5 -6 -7\nleaf_value=-7.4202834927447137e-06 0.00010927385583380638 -3.6546771855570431e-05 4.6612690958482454e-05 -3.9117462273835393e-05 3.0470827344796568e-06 -0.0001042072416162727\nleaf_weight=3119 592 587 1011 699 2263 305\nleaf_count=3119 592 587 1011 699 2263 305\ninternal_value=-6.99627e-05 -0.00300424 0.00250821 0.00147244 0.00274893 -0.00852018\ninternal_weight=8576 4011 4565 3973 3274 892\ninternal_count=8576 4011 4565 3973 3274 892\nis_linear=0\nshrinkage=0.05\n\n\nTree=11\nnum_leaves=7\nnum_cat=0\nsplit_feature=32 3 21 43 43 16\nsplit_gain=24.0516 12.9117 11.8302 12.7978 13.0798 12.2666\nthreshold=0.0011296244899782115 -0.015689894473238982 0.12169829766960229 0.12294197031039138 0.1861605107159143 2819.169700687798\ndecision_type=2 2 2 2 2 2\nleft_child=1 -1 3 -2 -5 -4\nright_child=2 -3 5 4 -6 -7\nleaf_value=0.00010501931580153789 2.9979413710692476e-05 1.0875116332773511e-05 -5.7916865340376482e-05 -6.7884564522535139e-05 -1.2371318468216319e-05 6.3851625545168127e-06\nleaf_weight=553 775 4261 787 349 1522 329\nleaf_count=553 775 4261 787 349 1522 329\ninternal_value=-3.49813e-05 0.00230577 -0.0030303 -0.00120937 -0.00344735 -0.00734767\ninternal_weight=8576 4814 3762 2646 1871 1116\ninternal_count=8576 4814 3762 2646 1871 1116\nis_linear=0\nshrinkage=0.05\n\n\nTree=12\nnum_leaves=7\nnum_cat=0\nsplit_feature=3 3 24 40 19 12\nsplit_gain=22.5241 14.1055 11.3685 10.7221 10.111 11.7789\nthreshold=-0.015689894473238982 0.010087256318135231 27.13720977075371 -0.0020619101283742189 0.0084373103008660699 -0.41412616495852428\ndecision_type=2 2 2 2 2 2\nleft_child=-1 2 -2 -3 -4 -6\nright_child=1 3 4 -5 5 -7\nleaf_value=9.8559197252039155e-05 -7.0304676650811904e-06 -6.5457993800604281e-06 6.8556232108914105e-05 -6.3613177678140662e-05 5.9563636610758031e-05 -6.9152012840950018e-06\nleaf_weight=612 4126 545 479 741 542 1531\nleaf_count=612 4126 545 479 741 542 1531\ninternal_value=-9.32836e-05 -0.000803616 0.000119796 -0.00559876 0.00274295 0.0012301\ninternal_weight=8576 7964 6678 1286 2552 2073\ninternal_count=8576 7964 6678 1286 2552 2073\nis_linear=0\nshrinkage=0.05\n\n\nTree=13\nnum_leaves=7\nnum_cat=0\nsplit_feature=5 32 1 18 12 7\nsplit_gain=23.0986 11.9711 11.2529 8.58667 6.17857 11.4454\nthreshold=-0.0042701597673697736 0.0075631100956984826 0.01212741874365897 0.019070356212183944 1.0081322313136349 -0.0086441867995236659\ndecision_type=2 2 2 2 2 2\nleft_child=3 -2 -3 -1 5 -5\nright_child=1 2 -4 4 -6 -7\nleaf_value=-6.4839396927665549e-06 -4.4194965096028424e-06 -7.5182690283101891e-05 -2.3215421407281087e-05 7.4853186585599547e-05 1.0947157266612441e-05 1.5373608640002181e-05\nleaf_weight=650 4567 546 532 1046 662 573\nleaf_count=650 4567 546 532 1046 662 573\ninternal_value=-6.99627e-05 -0.00193977 -0.00667904 0.00353122 0.00497589 0.0066399\ninternal_weight=8576 5645 1078 2931 2281 1619\ninternal_count=8576 5645 1078 2931 2281 1619\nis_linear=0\nshrinkage=0.05\n\n\nTree=14\nnum_leaves=7\nnum_cat=0\nsplit_feature=18 21 3 42 42 6\nsplit_gain=19.5288 12.3776 10.6093 10.3885 10.6211 9.63748\nthreshold=0.017639422851507415 0.12655610918758056 -0.015689894473238982 0.07507225433526013 0.23467383879781425 1.7086885637886489\ndecision_type=2 2 2 2 2 2\nleft_child=1 3 -2 -1 -5 -4\nright_child=2 -3 5 4 -6 -7\nleaf_value=2.3214660763985724e-05 9.145318638610774e-05 -4.9374827968102871e-05 1.6201730626594899e-05 -3.8861598359580714e-05 -1.0177097618056354e-06 -6.8878247368681433e-05\nleaf_weight=620 592 683 3635 1014 1694 338\nleaf_count=620 592 683 3635 1014 1694 338\ninternal_value=-3.49813e-05 -0.0025804 0.00220153 -0.00132212 -0.00265879 0.00127108\ninternal_weight=8576 4011 4565 3328 2708 3973\ninternal_count=8576 4011 4565 3328 2708 3973\nis_linear=0\nshrinkage=0.05\n\n\nTree=15\nnum_leaves=7\nnum_cat=0\nsplit_feature=1 36 33 40 3 8\nsplit_gain=17.2641 15.0397 10.2405 11.6919 9.09605 9.4081\nthreshold=0.0012105446450755288 0.0067482664520989921 0.14854215918045707 -0.0061362677313597557 -0.015689894473238982 0.99178163757051729\ndecision_type=2 2 2 2 2 2\nleft_child=4 2 -2 -4 -1 -6\nright_child=1 -3 3 -5 5 -7\nleaf_value=8.8497999658474275e-05 -4.8723048304008635e-05 -6.4554056935739915e-05 6.2249148460759792e-05 -9.5886234277402352e-06 1.5778521431850951e-05 -2.4754059486906795e-05\nleaf_weight=554 570 535 446 2126 3482 863\nleaf_count=554 570 535 446 2126 3482 863\ninternal_value=-3.49813e-05 -0.00262442 -0.0013049 3.88802e-05 0.00190855 0.00113924\ninternal_weight=8576 3677 3142 2572 4899 4345\ninternal_count=8576 3677 3142 2572 4899 4345\nis_linear=0\nshrinkage=0.05\n\n\nTree=16\nnum_leaves=7\nnum_cat=0\nsplit_feature=5 24 12 43 32 31\nsplit_gain=17.8809 11.922 13.484 12.4699 10.0294 9.44116\nthreshold=-0.0042701597673697736 27.13720977075371 0.32725254035432932 0.15643825301204822 0.0075631100956984826 0.30611836843508405\ndecision_type=2 2 2 2 2 2\nleft_child=1 3 -3 -1 5 -2\nright_child=4 2 -4 -5 -6 -7\nleaf_value=4.4862075731407262e-05 1.0720167713366448e-05 8.2100171517349955e-05 1.8924590561300549e-05 -1.3930078547540692e-05 -4.8512312291991826e-05 -2.1589247180683165e-05\nleaf_weight=610 2498 583 553 1185 1078 2069\nleaf_count=610 2498 583 553 1185 1078 2069\ninternal_value=-4.66418e-05 0.0031218 0.00713028 0.000584958 -0.00169176 -0.000667834\ninternal_weight=8576 2931 1136 1795 5645 4567\ninternal_count=8576 2931 1136 1795 5645 4567\nis_linear=0\nshrinkage=0.05\n\n\nTree=17\nnum_leaves=7\nnum_cat=0\nsplit_feature=32 36 43 43 25 18\nsplit_gain=15.728 13.6962 11.68 11.545 8.87956 8.39854\nthreshold=0.0011296244899782115 0.0067482664520989921 0.11439476553980372 0.1861605107159143 0.070834378247965804 0.041688226830177963\ndecision_type=2 2 2 2 2 2\nleft_child=5 2 4 -4 -2 -1\nright_child=1 -3 3 -5 -6 -7\nleaf_value=6.0743128664357454e-06 -1.9363606205715716e-07 -6.2315668210642311e-05 -6.0418368376930173e-05 -9.7220504460915783e-06 5.7363293841050985e-05 6.3735507775226568e-05\nleaf_weight=3738 545 540 432 1929 316 1076\nleaf_count=3738 545 540 432 1929 316 1076\ninternal_value=-2.33209e-05 -0.00244551 -0.00121043 -0.00302838 0.00377468 0.00186955\ninternal_weight=8576 3762 3222 2361 861 4814\ninternal_count=8576 3762 3222 2361 861 4814\nis_linear=0\nshrinkage=0.05\n\n\nTree=18\nnum_leaves=7\nnum_cat=0\nsplit_feature=5 24 12 8 22 23\nsplit_gain=15.2779 11.0613 12.7927 10.4911 10.3451 9.49639\nthreshold=-0.0042701597673697736 27.13720977075371 0.56674652292280858 -0.75824663683965543 -0.12702884218948798 -0.096815202405484288\ndecision_type=2 2 2 2 2 2\nleft_child=1 4 -3 -2 -1 -6\nright_child=3 2 -4 -5 5 -7\nleaf_value=3.2416282738061021e-05 3.4628901684591712e-05 7.7672868381399623e-05 6.7795362830290766e-06 -1.4041984311888349e-05 -5.8560872115742614e-05 9.3970177463487478e-06\nleaf_weight=947 475 652 484 5170 362 486\nleaf_count=947 475 652 484 5170 362 486\ninternal_value=-1.16604e-05 0.00291709 0.00677817 -0.00153233 0.000473538 -0.00353774\ninternal_weight=8576 2931 1136 5645 1795 848\ninternal_count=8576 2931 1136 5645 1795 848\nis_linear=0\nshrinkage=0.05\n\n\nTree=19\nnum_leaves=7\nnum_cat=0\nsplit_feature=18 22 29 10 12 4\nsplit_gain=14.8682 8.64096 8.40013 11.3331 8.03413 9.12434\nthreshold=0.017451780678529528 -0.061654823669970153 0.55028089887640463 -0.31274912847663383 1.0081322313136349 -0.53845462849368897\ndecision_type=2 2 2 2 2 2\nleft_child=-1 4 -3 -4 5 -2\nright_child=1 2 3 -5 -6 -7\nleaf_value=-1.2839279770422778e-05 -1.0315803936759136e-05 -2.0940711111281845e-05 7.3290070051963197e-05 -1.492352066720881e-05 -5.7564475358654388e-06 5.8068110893164531e-05\nleaf_weight=3977 360 1393 347 430 654 1415\nleaf_count=3977 360 1393 347 430 654 1415\ninternal_value=-1.16604e-05 0.00192433 -0.000368664 0.00379665 0.00397283 0.00571831\ninternal_weight=8576 4599 2170 777 2429 1775\ninternal_count=8576 4599 2170 777 2429 1775\nis_linear=0\nshrinkage=0.05\n\n\nTree=20\nnum_leaves=7\nnum_cat=0\nsplit_feature=1 36 5 39 48 47\nsplit_gain=14.6096 13.3203 10.8779 9.30964 9.12 10.7753\nthreshold=0.0020157737969316307 0.0067482664520989921 -0.013921480748993074 0.48369372562920959 0.0058864562721693868 0.097693531283138943\ndecision_type=2 2 2 2 2 2\nleft_child=2 -2 -1 4 5 -4\nright_child=1 -3 3 -5 -6 -7\nleaf_value=6.5354632012226555e-05 -7.5304942201538186e-06 -6.7767791608548423e-05 5.9346712241977172e-05 -3.185539264816056e-05 -2.5926468418289778e-05 1.0305587816195389e-05\nleaf_weight=891 2788 480 561 802 645 2409\nleaf_count=891 2788 480 561 802 645 2409\ninternal_value=-9.32836e-05 -0.00272338 0.001526 0.000509396 0.00159059 0.00276094\ninternal_weight=8576 3268 5308 4417 3615 2970\ninternal_count=8576 3268 5308 4417 3615 2970\nis_linear=0\nshrinkage=0.05\n\n\nTree=21\nnum_leaves=7\nnum_cat=0\nsplit_feature=1 5 38 8 36 31\nsplit_gain=14.0302 9.52307 7.12546 7.0019 9.1728 7.67185\nthreshold=-0.010041913030596093 0.016465942399343073 0.194537658463833 1.0164815483892873 -0.0073639460482099036 0.26944684528954194\ndecision_type=2 2 2 2 2 2\nleft_child=2 3 -1 -2 -5 -6\nright_child=1 -3 -4 4 5 -7\nleaf_value=9.388238287814018e-06 5.1184976731470573e-06 -4.7814496823804326e-05 0.00010518060170225906 3.2393315749489353e-05 -1.345631851157218e-05 -6.8182842188464426e-05\nleaf_weight=349 5698 819 434 311 520 445\nleaf_count=349 5698 819 434 311 520 445\ninternal_value=-5.83022e-05 -0.000699346 0.00632184 -0.000100373 -0.00344828 -0.00585492\ninternal_weight=8576 7793 783 6974 1276 965\ninternal_count=8576 7793 783 6974 1276 965\nis_linear=0\nshrinkage=0.05\n\n\nTree=22\nnum_leaves=7\nnum_cat=0\nsplit_feature=18 33 35 32 47 33\nsplit_gain=14.0803 10.7475 12.8372 11.0319 12.4106 10.795\nthreshold=0.017451780678529528 0.38583959899749382 0.34509420547458236 0.0051497373937550708 0.16463142218912882 0.14337101747173692\ndecision_type=2 2 2 2 2 2\nleft_child=1 5 3 4 -3 -1\nright_child=-2 2 -4 -5 -6 -7\nleaf_value=-2.1815563482140634e-05 1.2538615888636756e-05 -3.8509997064925517e-05 -7.5070683772268242e-05 -5.7913558411178753e-05 1.5958314606400517e-05 2.4784607519590866e-05\nleaf_weight=572 4599 557 315 542 901 1090\nleaf_count=572 4599 557 315 542 901 1090\ninternal_value=-4.66418e-05 -0.0022253 -0.00442765 -0.00295 -0.000685871 0.000842359\ninternal_weight=8576 3977 2315 2000 1458 1662\ninternal_count=8576 3977 2315 2000 1458 1662\nis_linear=0\nshrinkage=0.05\n\n\nTree=23\nnum_leaves=7\nnum_cat=0\nsplit_feature=32 43 43 31 18 31\nsplit_gain=13.0104 9.16362 12.7275 10.1866 9.71197 8.40117\nthreshold=0.0011296244899782115 0.11439476553980372 0.23769168684422923 0.21767001114827203 0.014083477566475404 0.036474501108647452\ndecision_type=2 2 2 2 2 2\nleft_child=-1 4 3 -3 -2 -4\nright_child=1 2 5 -5 -6 -7\nleaf_value=1.17647420577216e-05 -8.9543802817466504e-06 -2.6783266713099419e-05 5.3581571665765724e-05 -8.6726941306256421e-05 5.5351989922964014e-05 -2.2232070599793657e-05\nleaf_weight=4814 534 479 300 410 490 1549\nleaf_count=4814 534 479 300 410 490 1549\ninternal_value=2.33209e-05 -0.00217969 -0.00368882 -0.00860517 0.00185547 -0.00132504\ninternal_weight=8576 3762 2738 889 1024 1849\ninternal_count=8576 3762 2738 889 1024 1849\nis_linear=0\nshrinkage=0.05\n\n\nTree=24\nnum_leaves=7\nnum_cat=0\nsplit_feature=5 37 19 12 24 47\nsplit_gain=12.4406 7.6099 11.6913 11.619 15.2394 10.9577\nthreshold=-0.015799957787983484 0.58451548451548463 0.016155529482540534 -0.23936476795835729 26.855043814345809 0.30795574288724981\ndecision_type=2 2 2 2 2 2\nleft_child=-1 3 -3 4 -2 -6\nright_child=1 2 -4 -5 5 -7\nleaf_value=5.5531233315481939e-05 -9.4856149228976338e-06 2.7341262997328483e-05 -9.091465189513141e-06 -2.4919473184969279e-05 1.6216010306044414e-05 8.9195167870312583e-05\nleaf_weight=850 1466 982 1561 2977 431 309\nleaf_count=850 1466 982 1561 2977 431 309\ninternal_value=2.33209e-05 -0.000608335 0.00163193 -0.00170751 0.00104261 0.00689189\ninternal_weight=8576 7726 2543 5183 2206 740\ninternal_count=8576 7726 2543 5183 2206 740\nis_linear=0\nshrinkage=0.05\n\n\nTree=25\nnum_leaves=7\nnum_cat=0\nsplit_feature=7 31 35 21 30 31\nsplit_gain=10.5835 8.95236 11.8631 7.1828 9.21068 7.91426\nthreshold=-0.0088257095924173506 0.30374649859943981 0.13900966183574884 0.091451890769409419 0.065318976026005698 0.15821566110397947\ndecision_type=2 2 2 2 2 2\nleft_child=1 -1 -3 5 -5 -2\nright_child=3 2 -4 4 -6 -7\nleaf_value=3.6932154607266569e-05 2.185368398302298e-05 5.3609114892694291e-05 -3.3892318384802118e-05 1.4566137471695403e-05 -4.1071323201713202e-05 -8.4422176975998607e-06\nleaf_weight=1434 1542 304 677 357 1210 3052\nleaf_count=1434 1542 304 677 357 1210 3052\ninternal_value=-9.32836e-05 0.00271222 -0.0009684 -0.00119299 -0.00411615 -0.000195908\ninternal_weight=8576 2415 981 6161 1567 4594\ninternal_count=8576 2415 981 6161 1567 4594\nis_linear=0\nshrinkage=0.05\n\n\nTree=26\nnum_leaves=7\nnum_cat=0\nsplit_feature=18 33 35 32 47 33\nsplit_gain=11.2649 9.28455 11.4526 10.0661 10.2327 9.70067\nthreshold=0.017451780678529528 0.38583959899749382 0.34509420547458236 0.0053624868211157592 0.16463142218912882 0.14337101747173692\ndecision_type=2 2 2 2 2 2\nleft_child=1 5 3 4 -3 -1\nright_child=-2 2 -4 -5 -6 -7\nleaf_value=-1.9710333577890062e-05 1.1737806261875102e-05 -3.5311177623783975e-05 -7.2523790139547158e-05 -5.7657285856931489e-05 1.681098085875524e-05 2.5682695393243516e-05\nleaf_weight=572 4599 563 315 528 909 1090\nleaf_count=572 4599 563 315 528 909 1090\ninternal_value=0 -0.00194871 -0.00399568 -0.0026 -0.000475543 0.000902527\ninternal_weight=8576 3977 2315 2000 1472 1662\ninternal_count=8576 3977 2315 2000 1472 1662\nis_linear=0\nshrinkage=0.05\n\n\nTree=27\nnum_leaves=7\nnum_cat=0\nsplit_feature=1 40 1 37 49 43\nsplit_gain=10.533 6.86574 6.73734 6.89941 10.2612 8.3641\nthreshold=-0.011399879170718162 0.00051553036041279644 0.0020157737969316307 0.58451548451548463 16.500000000000004 0.53874749785530462\ndecision_type=2 2 2 2 2 2\nleft_child=1 -1 3 5 -5 -2\nright_child=2 -3 -4 4 -6 -7\nleaf_value=0.00010396060785674567 1.5474189861255473e-06 2.4296839996394357e-05 -1.1702848302444874e-05 4.4068415873479112e-06 7.0097293728659901e-05 -5.0855881810436465e-05\nleaf_weight=307 2689 306 3268 1113 470 423\nleaf_count=307 2689 306 3268 1113 470 423\ninternal_value=-3.49813e-05 0.00628059 -0.00052116 0.000692226 0.00337966 -0.000674807\ninternal_weight=8576 613 7963 4695 1583 3112\ninternal_count=8576 613 7963 4695 1583 3112\nis_linear=0\nshrinkage=0.05\n\n\nTree=28\nnum_leaves=7\nnum_cat=0\nsplit_feature=18 1 30 30 21 30\nsplit_gain=9.86805 8.77672 8.70573 9.06434 10.481 5.49594\nthreshold=0.072141450734003174 0.0020157737969316307 0.36381051898293287 0.065318976026005698 0.17257144657155124 0.18156843156843158\ndecision_type=2 2 2 2 2 2\nleft_child=1 -1 3 -3 5 -5\nright_child=-2 2 -4 4 -6 -7\nleaf_value=5.5265104370641399e-06 0.0001054750021911395 1.0290482629747778e-05 2.4362504924795383e-05 -3.6226095063985474e-05 -8.8733770553028847e-05 -4.5746591170231547e-06\nleaf_weight=4987 462 633 663 693 352 786\nleaf_count=4987 462 633 663 693 352 786\ninternal_value=3.49813e-05 -0.000369731 -0.00244643 -0.00381494 -0.00559803 -0.00375254\ninternal_weight=8576 8114 3127 2464 1831 1479\ninternal_count=8576 8114 3127 2464 1831 1479\nis_linear=0\nshrinkage=0.05\n\n\nTree=29\nnum_leaves=7\nnum_cat=0\nsplit_feature=5 31 8 29 31 44\nsplit_gain=8.6119 9.71017 6.12155 7.32422 11.2863 11.1461\nthreshold=-0.015799957787983484 0.15047169811320757 1.0164815483892873 0.27792632204396917 0.39715954875100729 -0.0024304619649876953\ndecision_type=2 2 2 2 2 2\nleft_child=1 -1 3 5 -5 -2\nright_child=2 -3 -4 4 -6 -7\nleaf_value=9.4755400707914221e-05 6.0323967255112355e-05 5.0010948166427829e-06 -2.7688326035732259e-05 9.0952743063821954e-07 -4.6223752760030376e-05 1.2999174014888248e-07\nleaf_weight=305 628 545 1585 3591 702 1220\nleaf_count=305 628 545 1585 3591 702 1220\ninternal_value=4.66418e-05 0.00482353 -0.000478902 0.000236118 -0.000896809 0.00286797\ninternal_weight=8576 850 7726 6141 4293 1848\ninternal_count=8576 850 7726 6141 4293 1848\nis_linear=0\nshrinkage=0.05\n\n\nTree=30\nnum_leaves=7\nnum_cat=0\nsplit_feature=18 32 43 35 43 13\nsplit_gain=8.73307 6.85287 7.71163 9.00182 7.79929 9.14498\nthreshold=0.072141450734003174 0.0011296244899782115 0.10542661000326906 0.16463142218912882 0.24230587121212124 0.032080448757850884\ndecision_type=2 2 2 2 2 2\nleft_child=1 -1 3 -3 5 -4\nright_child=-2 2 4 -5 -6 -7\nleaf_value=6.2329261671078737e-06 0.00010049235165292218 -2.5829715054704944e-05 -5.8638399869552377e-05 3.2109697860165184e-05 -8.3717390903704109e-06 -1.0135896187348408e-06\nleaf_weight=4503 462 355 612 585 1742 317\nleaf_count=4503 462 355 612 585 1742 317\ninternal_value=2.33209e-05 -0.000357407 -0.00198006 0.00191489 -0.0033508 -0.00705059\ninternal_weight=8576 8114 3611 940 2671 929\ninternal_count=8576 8114 3611 940 2671 929\nis_linear=0\nshrinkage=0.05\n\n\nTree=31\nnum_leaves=7\nnum_cat=0\nsplit_feature=18 19 19 12 4 28\nsplit_gain=7.89191 9.41589 8.8754 11.503 12.2098 9.55885\nthreshold=0.017639422851507415 0.050027819148710483 0.015969512669594666 1.9322879394386003 1.1344384172270143 -0.092034746232433087\ndecision_type=2 2 2 2 2 2\nleft_child=-1 2 3 4 5 -2\nright_child=1 -3 -4 -5 -6 -7\nleaf_value=-8.8012339068826503e-06 8.1034771061533873e-05 7.3812878306244117e-05 -1.8993271464345441e-05 -6.7933993121009544e-05 -2.99977939291735e-05 1.9958012292495646e-05\nleaf_weight=4011 486 508 1510 319 330 1412\nleaf_count=4011 486 508 1510 319 330 1412\ninternal_value=3.49813e-05 0.00145674 0.000653192 0.00245387 0.00372531 0.0052687\ninternal_weight=8576 4565 4057 2547 2228 1898\ninternal_count=8576 4565 4057 2547 2228 1898\nis_linear=0\nshrinkage=0.05\n\n\nTree=32\nnum_leaves=7\nnum_cat=0\nsplit_feature=3 8 8 43 7 25\nsplit_gain=7.17502 6.0611 7.49225 6.55211 6.8525 5.70647\nthreshold=-0.015689894473238982 1.0164815483892873 0.41131098699208807 0.48181216931216936 -0.00035894314049478288 -0.17599044916511344\ndecision_type=2 2 2 2 2 2\nleft_child=-1 2 3 5 -5 -2\nright_child=1 -3 -4 4 -6 -7\nleaf_value=6.1049633264824928e-05 2.4758117745623241e-05 -2.8238153924424167e-05 2.4667273242568931e-05 2.7265302985542077e-07 -4.664131987831019e-05 -5.1303596857827764e-06\nleaf_weight=612 1239 1654 1033 497 509 3032\nleaf_count=612 1239 1654 1033 497 509 3032\ninternal_value=1.16604e-05 -0.000389252 0.000316957 -0.000445329 -0.00407555 0.00040974\ninternal_weight=8576 7964 6310 5277 1006 4271\ninternal_count=8576 7964 6310 5277 1006 4271\nis_linear=0\nshrinkage=0.05\n\n\nTree=33\nnum_leaves=7\nnum_cat=0\nsplit_feature=1 8 2 42 3 31\nsplit_gain=8.50383 6.23251 9.00031 6.30631 8.30634 8.44588\nthreshold=-0.011399879170718162 -0.73709942792309369 -0.17906747566970924 0.51191151446398198 0.0052278470380331407 0.23570261437908499\ndecision_type=2 2 2 2 2 2\nleft_child=-1 2 -2 -3 5 -5\nright_child=1 3 -4 4 -6 -7\nleaf_value=6.5813571873520328e-05 -1.5264157415725676e-05 -8.4219807490721608e-06 5.1915466353347792e-05 7.0665247374177812e-05 -2.9852852814134735e-05 4.48118851772009e-06\nleaf_weight=613 373 6229 317 323 304 417\nleaf_count=613 373 6229 317 323 304 417\ninternal_value=-4.66418e-05 -0.000483486 0.00405797 -0.000914341 0.00268199 0.00554054\ninternal_weight=8576 7963 690 7273 1044 740\ninternal_count=8576 7963 690 7273 1044 740\nis_linear=0\nshrinkage=0.05\n\n\nTree=34\nnum_leaves=7\nnum_cat=0\nsplit_feature=1 8 10 32 1 38\nsplit_gain=8.39931 5.98702 6.59962 8.47645 6.63242 10.0936\nthreshold=-0.011399879170718162 -0.75824663683965543 -0.69122465811003886 0.0066660339827442341 0.012536497964642514 0.16568627450980394\ndecision_type=2 2 2 2 2 2\nleft_child=-1 -2 -3 -4 5 -5\nright_child=1 2 3 4 -6 -7\nleaf_value=6.2522893279844309e-05 2.4214592532401324e-05 -3.2191887959980742e-05 1.9701310593180415e-06 -8.3021940890527291e-05 7.4097409379480765e-06 -1.1120578160124966e-05\nleaf_weight=613 592 579 5456 315 530 491\nleaf_count=613 592 579 5456 315 530 491\ninternal_value=-1.16604e-05 -0.000445812 -0.000834351 -0.000397527 -0.00396707 -0.00682382\ninternal_weight=8576 7963 7371 6792 1336 806\ninternal_count=8576 7963 7371 6792 1336 806\nis_linear=0\nshrinkage=0.05\n\n\nTree=35\nnum_leaves=7\nnum_cat=0\nsplit_feature=18 32 31 44 27 44\nsplit_gain=7.69643 6.00879 9.25444 8.94603 9.59054 8.13853\nthreshold=0.069471009624455501 0.006440138720696556 0.15821566110397947 -0.0023721978746727708 -0.94300533103260531 -0.0016481255373215207\ndecision_type=2 2 2 2 2 2\nleft_child=1 2 3 -1 -5 -4\nright_child=-2 -3 5 4 -6 -7\nleaf_value=-9.5781247436893793e-06 8.8599311248274831e-05 -2.7775085848101859e-05 8.7057099724155108e-06 1.620812330901547e-06 5.402043918981478e-05 -1.5807890537790099e-05\nleaf_weight=639 528 1418 1772 566 816 2837\nleaf_count=639 528 1418 1772 566 816 2837\ninternal_value=2.33209e-05 -0.000360338 0.000271493 0.00309253 0.00535456 -0.000965502\ninternal_weight=8576 8048 6630 2021 1382 4609\ninternal_count=8576 8048 6630 2021 1382 4609\nis_linear=0\nshrinkage=0.05\n\n\nTree=36\nnum_leaves=7\nnum_cat=0\nsplit_feature=1 33 40 29 30 32\nsplit_gain=7.92043 5.39476 10.0027 6.30799 7.53356 5.65418\nthreshold=-0.011399879170718162 0.14854215918045707 -0.0063256369051253748 0.63673020527859248 0.22171717171717173 0.0075631100956984826\ndecision_type=2 2 2 2 2 2\nleft_child=-1 3 -3 4 -2 -4\nright_child=1 2 5 -5 -6 -7\nleaf_value=5.8373795939021355e-05 -8.7095203954005423e-05 2.5192196308514988e-05 -7.5003828891426258e-07 1.4885665394978869e-05 -5.2445051678233746e-06 -3.0723004150867154e-05\nleaf_weight=613 315 1115 4868 310 559 796\nleaf_count=613 315 1115 4868 310 559 796\ninternal_value=-1.16604e-05 -0.000433254 0.000110636 -0.0035473 -0.00572082 -0.000741525\ninternal_weight=8576 7963 6779 1184 874 5664\ninternal_count=8576 7963 6779 1184 874 5664\nis_linear=0\nshrinkage=0.05\n\n\nTree=37\nnum_leaves=7\nnum_cat=0\nsplit_feature=31 40 7 38 43 15\nsplit_gain=6.87315 11.2342 9.18051 8.44786 8.3366 10.6256\nthreshold=0.30374649859943981 -0.0061362677313597557 0.016609215692973914 0.1114066193853428 0.03468323977546111 949.89034454875002\ndecision_type=2 2 2 2 2 2\nleft_child=1 3 4 -1 -2 -6\nright_child=2 -3 -4 -5 5 -7\nleaf_value=8.753156038153741e-06 4.3700207968393949e-05 2.2652674387639984e-07 -8.9541639833620631e-05 8.0578496254898326e-05 4.1382125225631998e-06 -3.9193050997609485e-05\nleaf_weight=440 335 4281 456 486 1367 1211\nleaf_count=440 335 4281 456 486 1367 1211\ninternal_value=2.33209e-05 0.0011619 -0.00173642 0.00615551 -0.000703742 -0.00166796\ninternal_weight=8576 5207 3369 926 2913 2578\ninternal_count=8576 5207 3369 926 2913 2578\nis_linear=0\nshrinkage=0.05\n\n\nTree=38\nnum_leaves=7\nnum_cat=0\nsplit_feature=3 29 30 6 30 40\nsplit_gain=6.31001 9.67167 7.22505 6.53136 5.65307 5.66728\nthreshold=-0.0088149321256826268 0.71902412280701766 0.16702432045779689 -0.77591740336176551 0.67815921870375862 0.0023028210958574548\ndecision_type=2 2 2 2 2 2\nleft_child=1 2 -1 -2 5 -5\nright_child=3 -3 -4 4 -6 -7\nleaf_value=-3.6481984868709656e-05 5.1830691603065355e-05 6.6434308236806516e-05 3.266381827283331e-05 -8.7165232420297314e-07 4.1154606754911504e-05 -2.1250923629027696e-05\nleaf_weight=380 342 390 727 4112 309 2316\nleaf_count=380 342 390 727 4112 309 2316\ninternal_value=2.33209e-05 0.00297261 0.000587173 -0.000600367 -0.000942556 -0.00126011\ninternal_weight=8576 1497 1107 7079 6737 6428\ninternal_count=8576 1497 1107 7079 6737 6428\nis_linear=0\nshrinkage=0.05\n\n\nTree=39\nnum_leaves=7\nnum_cat=0\nsplit_feature=27 48 22 49 49 48\nsplit_gain=6.12312 6.71659 6.63498 8.00752 7.29223 6.02328\nthreshold=-3.772977718585186 -1.0000000180025095e-35 0.41209719440000897 1.0000000180025095e-35 1.5000000000000002 -0.0011475815712675282\ndecision_type=2 2 2 2 2 2\nleft_child=1 -1 3 -2 -5 -6\nright_child=2 -3 -4 4 5 -7\nleaf_value=-5.3913972721801283e-06 -4.9800749723175053e-05 5.9930200405438132e-05 -3.7290599093972013e-05 4.6697859232432346e-05 1.0125675885005424e-05 -8.2274129419312929e-06\nleaf_weight=396 307 420 339 308 2950 3856\nleaf_count=396 307 420 339 308 2950 3856\ninternal_value=4.66418e-05 0.00416667 -0.000386598 -7.4114e-05 0.000267079 -7.34646e-05\ninternal_weight=8576 816 7760 7421 7114 6806\ninternal_count=8576 816 7760 7421 7114 6806\nis_linear=0\nshrinkage=0.05\n\n\nTree=40\nnum_leaves=7\nnum_cat=0\nsplit_feature=1 27 37 37 48 0\nsplit_gain=7.03658 6.18262 5.76657 10.4115 8.77854 7.4668\nthreshold=-0.011399879170718162 8.8401440281808643 0.58451548451548463 0.6224318658280924 0.0056222404335028106 -0.13816115471074153\ndecision_type=2 2 2 2 2 2\nleft_child=-1 2 -2 -4 5 -5\nright_child=1 -3 3 4 -6 -7\nleaf_value=5.4457757558285929e-05 -5.6440744777883661e-06 -4.2424808781654251e-05 6.1095373360657478e-05 2.3253842292940974e-05 -3.7980359659428256e-05 -1.586025596485532e-05\nleaf_weight=613 5068 303 335 1140 443 674\nleaf_count=613 5068 303 335 1140 443 674\ninternal_value=-2.33209e-05 -0.000420696 -0.000143603 0.00177469 0.000553833 0.00209482\ninternal_weight=8576 7963 7660 2592 2257 1814\ninternal_count=8576 7963 7660 2592 2257 1814\nis_linear=0\nshrinkage=0.05\n\n\nTree=41\nnum_leaves=7\nnum_cat=0\nsplit_feature=3 0 23 44 12 31\nsplit_gain=6.48596 6.03585 9.16457 5.96738 10.9865 7.20277\nthreshold=-0.015689894473238982 0.14186823699243603 -0.1312867789933431 -0.0082016954843041768 0.0089677553260556504 0.15643825301204822\ndecision_type=2 2 2 2 2 2\nleft_child=-1 3 -3 4 -2 -5\nright_child=1 2 -4 5 -6 -7\nleaf_value=5.1233080852659714e-05 -5.786525128615079e-06 -8.4262443451819848e-05 -1.0457454977995048e-05 1.3242549160743514e-05 8.5852910202273663e-05 -7.367781218094513e-06\nleaf_weight=612 395 398 1105 2029 301 3736\nleaf_count=612 395 398 1105 2029 301 3736\ninternal_value=-5.83022e-05 -0.000439478 -0.00329341 0.000224423 0.0045977 -0.000303556\ninternal_weight=8576 7964 1503 6461 696 5765\ninternal_count=8576 7964 1503 6461 696 5765\nis_linear=0\nshrinkage=0.05\n\n\nTree=42\nnum_leaves=7\nnum_cat=0\nsplit_feature=1 35 35 43 45 43\nsplit_gain=7.00483 7.31565 7.98504 8.02533 6.86714 10.2083\nthreshold=-0.011399879170718162 0.37557339449541288 0.55698051948051963 0.091168831168831191 0.75625390869293319 0.1918500069185001\ndecision_type=2 2 2 2 2 2\nleft_child=-1 4 3 -3 -2 -6\nright_child=1 2 -4 -5 5 -7\nleaf_value=4.928585854398005e-05 -8.1423224884763038e-07 2.581608240945166e-05 9.3862957107557797e-06 -4.8703350326735141e-05 7.7531277339457023e-05 1.0547186767239119e-06\nleaf_weight=613 4756 305 944 1135 342 481\nleaf_count=613 4756 305 944 1135 342 481\ninternal_value=-1.16604e-05 -0.000408138 -0.00272651 -0.00506944 0.000582542 0.00479951\ninternal_weight=8576 7963 2384 1440 5579 823\ninternal_count=8576 7963 2384 1440 5579 823\nis_linear=0\nshrinkage=0.05\n\n\nTree=43\nnum_leaves=7\nnum_cat=0\nsplit_feature=1 27 40 44 4 39\nsplit_gain=6.11578 6.27161 4.9175 4.76567 12.5136 12.8372\nthreshold=-0.011399879170718162 8.8401440281808643 0.00051553036041279644 0.0030240577825737789 0.22963845645659134 0.25108695652173918\ndecision_type=2 2 2 2 2 2\nleft_child=2 3 -1 -2 5 -5\nright_child=1 -3 -4 4 -6 -7\nleaf_value=7.5440876353638104e-05 4.3366019714969125e-06 -4.3905949173066676e-05 6.4094784288682845e-06 2.3426279619765472e-05 -5.1575621591487937e-05 -2.9041166626621458e-05\nleaf_weight=307 5174 303 306 938 837 711\nleaf_count=307 5174 303 306 938 837 711\ninternal_value=0 -0.000370463 0.0048124 -9.13838e-05 -0.00189059 0.00063675\ninternal_weight=8576 7963 613 7660 2486 1649\ninternal_count=8576 7963 613 7660 2486 1649\nis_linear=0\nshrinkage=0.05\n\n\nTree=44\nnum_leaves=7\nnum_cat=0\nsplit_feature=18 33 33 35 46 18\nsplit_gain=6.38484 5.52266 6.88206 13.3668 10.719 11.2154\nthreshold=0.069471009624455501 0.14337101747173692 0.41223155929038285 0.37557339449541288 0.19752141982864138 0.026934119775069505\ndecision_type=2 2 2 2 2 2\nleft_child=1 -1 -3 4 -4 -6\nright_child=-2 2 3 -5 5 -7\nleaf_value=-1.7576538664072612e-05 7.8340458701639781e-05 1.5327512035840872e-05 1.6600839289592896e-05 -6.3289759308410306e-05 -3.0861726432186582e-05 2.6005818768542246e-05\nleaf_weight=1169 528 2499 1711 464 1572 633\nleaf_count=1169 528 2499 1711 464 1572 633\ninternal_value=-2.33209e-05 -0.000372763 0.000167175 -0.0010274 -7.66088e-05 -0.00238095\ninternal_weight=8576 8048 6879 4380 3916 2205\ninternal_count=8576 8048 6879 4380 3916 2205\nis_linear=0\nshrinkage=0.05\n\n\nTree=45\nnum_leaves=7\nnum_cat=0\nsplit_feature=1 35 33 34 36 15\nsplit_gain=5.7944 5.64936 9.89565 8.03658 5.98868 5.76561\nthreshold=-0.011399879170718162 0.37557339449541288 0.41223155929038285 0.21760654326302198 0.00061871292060739782 2379.25047917038\ndecision_type=2 2 2 2 2 2\nleft_child=-1 5 3 -3 -5 -2\nright_child=1 2 -4 4 -6 -7\nleaf_value=4.3815705826061382e-05 4.8846350890627943e-06 2.2750786301072871e-05 -6.5533336001456067e-05 -5.6828828982212525e-06 -6.3666283398470256e-05 -2.1745301093473683e-05\nleaf_weight=613 4870 926 450 684 324 709\nleaf_count=613 4870 926 450 684 324 709\ninternal_value=-3.49813e-05 -0.00039558 -0.00243289 -0.000879007 -0.00396825 0.000474996\ninternal_weight=8576 7963 2384 1934 1008 5579\ninternal_count=8576 7963 2384 1934 1008 5579\nis_linear=0\nshrinkage=0.05\n\n\nTree=46\nnum_leaves=7\nnum_cat=0\nsplit_feature=5 17 31 23 28 28\nsplit_gain=5.6648 6.62237 7.03176 10.6005 6.47935 9.30864\nthreshold=0.016465942399343073 4517.9099611168413 0.15266007532956691 0.016448737098522129 -0.10375993294425609 -0.019727840408722944\ndecision_type=2 2 2 2 2 2\nleft_child=1 4 -3 -4 -1 -6\nright_child=-2 2 3 -5 5 -7\nleaf_value=8.3041832637954309e-06 -3.0390899968053367e-05 7.5588110684288349e-05 -3.7637849461566815e-05 5.6443159172477189e-05 -5.0169350347782171e-05 -2.1361550278876626e-06\nleaf_weight=2355 854 470 496 462 490 3449\nleaf_count=2355 854 470 496 462 490 3449\ninternal_value=0 0.00042735 0.0035014 0.00104384 -0.000270099 -0.00151054\ninternal_weight=8576 7722 1428 958 6294 3939\ninternal_count=8576 7722 1428 958 6294 3939\nis_linear=0\nshrinkage=0.05\n\n\nTree=47\nnum_leaves=7\nnum_cat=0\nsplit_feature=1 43 33 31 8 3\nsplit_gain=5.01533 5.46285 11.4327 7.78321 8.83438 6.91257\nthreshold=-0.011399879170718162 0.069136223967224325 0.20722186076772939 0.044036845507433753 -0.75824663683965543 0.010087256318135231\ndecision_type=2 2 2 2 2 2\nleft_child=-1 2 -2 -3 -5 -6\nright_child=1 3 -4 4 5 -7\nleaf_value=4.1209711371568549e-05 -1.7102481044012404e-05 2.0412975030828615e-05 2.5416498138020245e-05 3.6756486533852538e-05 -6.5645924466929565e-06 -4.920637307527984e-05\nleaf_weight=613 304 853 1164 433 4424 785\nleaf_count=613 304 853 1164 433 4424 785\ninternal_value=-3.49813e-05 -0.000370463 0.0023842 -0.000993072 -0.00166608 -0.00223651\ninternal_weight=8576 7963 1468 6495 5642 5209\ninternal_count=8576 7963 1468 6495 5642 5209\nis_linear=0\nshrinkage=0.05\n\n\nTree=48\nnum_leaves=7\nnum_cat=0\nsplit_feature=5 24 24 4 26 45\nsplit_gain=5.12963 7.96765 7.22518 6.29895 10.165 11.1202\nthreshold=0.016465942399343073 30.267399860841497 46.760742389204374 0.46091886680155708 -0.27778815725713529 0.60053191489361712\ndecision_type=2 2 2 2 2 2\nleft_child=2 -2 3 -1 -5 -6\nright_child=1 -3 -4 4 5 -7\nleaf_value=4.6953531024530503e-06 -7.8119869535706384e-07 -9.5271521288616944e-05 5.6587731336210265e-05 -3.5242092131648751e-05 -1.6752418163797122e-05 5.1490557000468972e-05\nleaf_weight=5341 543 311 317 853 877 334\nleaf_count=5341 543 311 317 853 877 334\ninternal_value=-6.99627e-05 -0.00374707 0.0003367 2.02566e-05 -0.00232558 0.000619323\ninternal_weight=8576 854 7722 7405 2064 1211\ninternal_count=8576 854 7722 7405 2064 1211\nis_linear=0\nshrinkage=0.05\n\n\nend of trees\n\nfeature_importances:\nprice_pct_change_1h=20\nlower_wick_frac_0=18\ncur_pct_change_0=18\nlower_wick_frac_3=18\nprice_pct_change_2h=16\nrel_dist_to_bb_upper=16\nprice_pct_change_3h=14\nbody_frac_1=12\ntrade_value_pct_change_6h=11\nadx=11\ncur_pct_change_2=10\ntrade_value_pct_change_24h=9\nrsi_pct_change_2=9\nupper_wick_frac_0=8\nlower_wick_frac_1=8\nprice_pct_change_6h=7\ncur_pct_change_1=7\nrsi_pct_change_6=6\ntrade_value_pct_change_2h=5\nrel_dist_to_bb_lower=5\ncur_pct_change_3=5\nmacd_pct_change_24=4\nbody_frac_0=4\nbody_frac_2=4\nlower_wick_frac_4=4\ncur_pct_change_4=4\nhour=4\ntrade_value_z_score=3\ntrade_value_pct_change_3h=3\nrsi_pct_change_24=3\nrel_dist_to_signal=3\nupper_wick_frac_2=3\nlower_wick_frac_2=3\nupper_wick_frac_3=3\nbody_frac_4=3\ntrade_value_pct_change_12h=2\nprice_std_4=2\nmacd_pct_change_2=2\ntrade_value_pct_change_1h=1\nprice_pct_change_48h=1\nprice_std_12=1\nprice_std_24=1\nmacd_pct_change_6=1\nupper_wick_frac_1=1\nupper_wick_frac_4=1\n\nparameters:\n[boosting: gbdt]\n[objective: regression_l1]\n[metric: l1]\n[tree_learner: serial]\n[device_type: cpu]\n[data_sample_strategy: bagging]\n[data: ]\n[valid: ]\n[num_iterations: 1000]\n[learning_rate: 0.05]\n[num_leaves: 7]\n[num_threads: 0]\n[seed: 0]\n[deterministic: 0]\n[force_col_wise: 0]\n[force_row_wise: 0]\n[histogram_pool_size: -1]\n[max_depth: -1]\n[min_data_in_leaf: 300]\n[min_sum_hessian_in_leaf: 0.001]\n[bagging_fraction: 1]\n[pos_bagging_fraction: 1]\n[neg_bagging_fraction: 1]\n[bagging_freq: 0]\n[bagging_seed: 3]\n[bagging_by_query: 0]\n[feature_fraction: 0.6]\n[feature_fraction_bynode: 1]\n[feature_fraction_seed: 2]\n[extra_trees: 0]\n[extra_seed: 6]\n[early_stopping_round: 0]\n[early_stopping_min_delta: 0]\n[first_metric_only: 0]\n[max_delta_step: 0]\n[lambda_l1: 0]\n[lambda_l2: 0]\n[linear_lambda: 0]\n[min_gain_to_split: 0]\n[drop_rate: 0.1]\n[max_drop: 50]\n[skip_drop: 0.5]\n[xgboost_dart_mode: 0]\n[uniform_drop: 0]\n[drop_seed: 4]\n[top_rate: 0.2]\n[other_rate: 0.1]\n[min_data_per_group: 100]\n[max_cat_threshold: 32]\n[cat_l2: 10]\n[cat_smooth: 10]\n[max_cat_to_onehot: 4]\n[top_k: 20]\n[monotone_constraints: ]\n[monotone_constraints_method: basic]\n[monotone_penalty: 0]\n[feature_contri: ]\n[forcedsplits_filename: ]\n[refit_decay_rate: 0.9]\n[cegb_tradeoff: 1]\n[cegb_penalty_split: 0]\n[cegb_penalty_feature_lazy: ]\n[cegb_penalty_feature_coupled: ]\n[path_smooth: 0]\n[interaction_constraints: ]\n[verbosity: -1]\n[saved_feature_importance_type: 0]\n[use_quantized_grad: 0]\n[num_grad_quant_bins: 4]\n[quant_train_renew_leaf: 0]\n[stochastic_rounding: 1]\n[linear_tree: 0]\n[max_bin: 255]\n[max_bin_by_feature: ]\n[min_data_in_bin: 3]\n[bin_construct_sample_cnt: 200000]\n[data_random_seed: 1]\n[is_enable_sparse: 1]\n[enable_bundle: 1]\n[use_missing: 1]\n[zero_as_missing: 0]\n[feature_pre_filter: 1]\n[pre_partition: 0]\n[two_round: 0]\n[header: 0]\n[label_column: ]\n[weight_column: ]\n[group_column: ]\n[ignore_column: ]\n[categorical_feature: ]\n[forcedbins_filename: ]\n[precise_float_parser: 0]\n[parser_config_file: ]\n[objective_seed: 5]\n[num_class: 1]\n[is_unbalance: 0]\n[scale_pos_weight: 1]\n[sigmoid: 1]\n[boost_from_average: 1]\n[reg_sqrt: 0]\n[alpha: 0.9]\n[fair_c: 1]\n[poisson_max_delta_step: 0.7]\n[tweedie_variance_power: 1.5]\n[lambdarank_truncation_level: 30]\n[lambdarank_norm: 1]\n[label_gain: ]\n[lambdarank_position_bias_regularization: 0]\n[eval_at: ]\n[multi_error_top_k: 1]\n[auc_mu_weights: ]\n[num_machines: 1]\n[local_listen_port: 12400]\n[time_out: 120]\n[machine_list_filename: ]\n[machines: ]\n[gpu_platform_id: -1]\n[gpu_device_id: -1]\n[gpu_use_dp: 0]\n[num_gpu: 1]\n\nend of parameters\n\npandas_categorical:[]\n", "hyperparams": {"learning_rate": 0.05, "num_leaves": 7, "feature_fraction": 0.6, "min_data_in_leaf": 300}}