{"model_str": "tree\nversion=v4\nnum_class=1\nnum_tree_per_iteration=1\nlabel_index=0\nmax_feature_idx=49\nobjective=regression_l1\nfeature_names=trade_value_z_score price_pct_change_1h trade_value_pct_change_1h price_pct_change_2h trade_value_pct_change_2h price_pct_change_3h trade_value_pct_change_3h price_pct_change_6h trade_value_pct_change_6h price_pct_change_12h trade_value_pct_change_12h price_pct_change_24h trade_value_pct_change_24h price_pct_change_48h trade_value_pct_change_48h price_std_4 price_std_12 price_std_24 rel_dist_to_bb_upper rel_dist_to_bb_lower rsi rsi_pct_change_2 rsi_pct_change_6 rsi_pct_change_24 adx macd_pct_change_2 macd_pct_change_6 macd_pct_change_24 rel_dist_to_signal body_frac_0 upper_wick_frac_0 lower_wick_frac_0 cur_pct_change_0 body_frac_1 upper_wick_frac_1 lower_wick_frac_1 cur_pct_change_1 body_frac_2 upper_wick_frac_2 lower_wick_frac_2 cur_pct_change_2 body_frac_3 upper_wick_frac_3 lower_wick_frac_3 cur_pct_change_3 body_frac_4 upper_wick_frac_4 lower_wick_frac_4 cur_pct_change_4 hour\nfeature_infos=[-0.3215169432973512:32.696364835565625] [-0.24736932896325692:0.23401329360531742] [-0.97190990004594446:31.996215426409321] [-0.24995702252019947:0.2915425166170067] [-0.97695619925480193:67.484529064465207] [-0.24762890153474737:0.28810451524180603] [-0.98276659652081921:57.856334603082495] [-0.25175784599554107:0.30758652303460909] [-0.98414200637644411:22749.619163789808] [-0.25227077977720647:0.33967453586981433] [-0.98494394127813378:62705.679571007902] [-0.26527050610820246:0.48732251521298187] [-0.9863022892691321:12757.438159562256] [-0.28523959426372858:0.86340533672172803] [-0.99021740010083981:15751.794788153742] [0:72.072278535743578] [0.1240112409444524:48.933593684798161] [0.1558055272413601:67.292870474272675] [-0.084569770491469146:0.47793640107469876] [-0.175971460488446:0.3725285781248277] [10.778723983633952:84.983824517734959] [-0.75403654255587793:3.4702895223666168] [-0.7563155572293262:3.616306967446584] [-0.76240402412127239:3.6182186913550014] [5.0842717528120422:77.196635192360347] [-108.67575576006494:6942.1936264854876] [-487.30136567065983:32668.896982472277] [-1304.0095632692678:47464.011123216806] [-6028.6782628092551:992.41408358785657] [0:1] [0:1] [0:1] [-0.24749913763366671:0.23401329360531736] [0:1] [0:1] [0:1] [-0.24749913763366671:0.23401329360531736] [0:1] [0:1] [0:1] [-0.24749913763366671:0.23401329360531736] [0:1] [0:1] [0:1] [-0.24749913763366671:0.23401329360531736] [0:1] [0:1] [0:1] [-0.24749913763366671:0.23401329360531736] [0:23]\ntree_sizes=1523 1528 1540 1539 1523 1527 1519 1527 1527 1530 1531\n\nTree=0\nnum_leaves=15\nnum_cat=0\nsplit_feature=1 30 7 31 48 7 34 49 10 27 5 1 36 43\nsplit_gain=56.8137 48.5508 29.3165 22.5161 14.9369 12.9138 10.142 9.85914 13.0336 9.61702 10.543 10.0365 7.985 7.77123\nthreshold=-1.0000000180025095e-35 0.030303030303028607 -1.0000000180025095e-35 0.33333333333332915 -0.0005947134694200577 -0.025975659324011854 0.20000000000001236 6.5000000000000009 0.2496150914607688 -2.0090116678031293 0.0062857163381930823 0.0029229086839328571 0.00095739610258661087 0.36428182560566524\ndecision_type=2 2 2 2 2 2 2 2 2 2 2 2 2 2\nleft_child=3 6 -3 5 -5 -1 -2 -7 12 -4 11 -11 -9 -12\nright_child=1 2 9 4 -6 7 -8 8 -10 10 13 -13 -14 -15\nleaf_value=0.00032763112321845258 8.1064938422059646e-05 0.00011856025303131902 2.4534356634831055e-05 0.00012970307361683808 8.1064938422059646e-05 0.00017306136069237255 8.1064938422059646e-05 0.00014652425525127911 0.00014581954674213192 8.1064938422059646e-05 1.7745952209224922e-05 0.00014306122538982892 8.1064938422059646e-05 8.1064938422059646e-05\nleaf_weight=317 307 1469 422 631 806 542 314 421 690 468 684 405 387 319\nleaf_count=317 307 1469 422 631 806 542 314 421 690 468 684 405 387 319\ninternal_value=8.53315e-05 -0.00378887 -0.00165345 0.00456609 -0.000367 0.00757366 -0.0167424 0.00611474 0.00402392 -0.00518012 -0.00364601 0.0003717 -0.000285956 -0.00714298\ninternal_weight=8182 4388 3767 3794 1437 2357 621 2040 1498 2298 1876 873 808 1003\ninternal_count=8182 4388 3767 3794 1437 2357 621 2040 1498 2298 1876 873 808 1003\nis_linear=0\nshrinkage=1\n\n\nTree=1\nnum_leaves=15\nnum_cat=0\nsplit_feature=1 30 7 31 48 7 34 49 10 27 5 1 36 43\nsplit_gain=56.8137 48.5508 29.3165 22.5161 14.9369 12.9138 10.142 9.85914 13.0336 9.61702 10.543 10.0365 7.985 7.77123\nthreshold=-1.0000000180025095e-35 0.030303030303028607 -1.0000000180025095e-35 0.33333333333332915 -0.0005947134694200577 -0.025975659324011854 0.20000000000001236 6.5000000000000009 0.2496150914607688 -2.0090116678031293 0.0062857163381930823 0.0029229086839328571 0.00095739610258661087 0.36428182560566524\ndecision_type=2 2 2 2 2 2 2 2 2 2 2 2 2 2\nleft_child=3 6 -3 5 -5 -1 -2 -7 12 -4 11 -11 -9 -12\nright_child=1 2 9 4 -6 7 -8 8 -10 10 13 -13 -14 -15\nleaf_value=0.00023018462863547029 -4.0532469211029821e-06 3.1567301957693419e-05 -5.7757299618970147e-05 4.2152981513936539e-05 -4.0532469211029821e-06 8.3343354235694276e-05 -4.0532469211029821e-06 5.8133104066655501e-05 5.7463630982965694e-05 -4.0532469211029821e-06 -6.4206283823295963e-05 5.4843225698277826e-05 -4.0532469211029821e-06 -4.0532469211029821e-06\nleaf_weight=317 307 1469 422 631 806 542 314 421 690 468 684 405 387 319\nleaf_count=317 307 1469 422 631 806 542 314 421 690 468 684 405 387 319\ninternal_value=0 -0.0038742 -0.00173878 0.00448076 -0.000452331 0.00748833 -0.0168277 0.00602941 0.00393858 -0.00526545 -0.00373134 0.000286369 -0.000371287 -0.00722832\ninternal_weight=8182 4388 3767 3794 1437 2357 621 2040 1498 2298 1876 873 808 1003\ninternal_count=8182 4388 3767 3794 1437 2357 621 2040 1498 2298 1876 873 808 1003\nis_linear=0\nshrinkage=0.05\n\n\nTree=2\nnum_leaves=15\nnum_cat=0\nsplit_feature=32 30 31 7 45 48 7 36 14 6 27 3 23 10\nsplit_gain=41.5041 58.7516 20.8564 19.0435 12.9008 12.3577 11.3766 10.5357 9.6629 10.1259 9.27337 13.8599 7.92677 8.04251\nthreshold=-0.0005947134694200577 0.030303030303028607 0.33333333333332915 -0.001991545969164565 0.28918128654970826 -0.00053290704556217307 -0.024082849425428095 -0.0072564565218154941 0.6445350807344864 0.4100986385945618 -0.18643115978816441 0.00095170835203883819 0.28592695079021985 -0.48589711648585232\ndecision_type=2 2 2 2 2 2 2 2 2 2 2 2 2 2\nleft_child=2 -2 6 4 -3 -4 -1 -5 9 -8 11 -6 13 -9\nright_child=1 3 5 7 10 -7 8 12 -10 -11 -12 -13 -14 -15\nleaf_value=0.00019854128580300314 -3.8505845750478333e-06 8.3036081179670878e-05 4.2591143092067803e-05 5.7505372153173085e-05 7.5389468822322671e-05 -3.8505845750478333e-06 5.4854033920491931e-05 -5.4312822119754859e-05 8.2686379317237885e-05 -1.0164158886254881e-05 -3.0639341292044264e-05 -7.5063777494506218e-06 1.6611471492069546e-06 -1.6115104752316255e-05\nleaf_weight=340 598 433 572 305 349 744 987 415 547 417 330 302 743 1100\nleaf_count=340 598 433 572 305 349 744 987 415 547 417 330 302 743 1100\ninternal_value=0.000549988 -0.00261202 0.00456058 -0.000414886 0.00424328 -0.000455927 0.00744216 -0.00298478 0.0059713 0.00377493 0.00107034 0.00453149 -0.00416298 -0.00623762\ninternal_weight=8182 4575 3607 3977 1414 1316 2291 2563 1951 1404 981 651 2258 1515\ninternal_count=8182 4575 3607 3977 1414 1316 2291 2563 1951 1404 981 651 2258 1515\nis_linear=0\nshrinkage=0.05\n\n\nTree=3\nnum_leaves=15\nnum_cat=0\nsplit_feature=1 30 31 7 48 7 34 23 14 6 39 5 27 45\nsplit_gain=42.3899 56.1745 21.7149 17.8705 14.4796 11.7874 10.142 9.30262 9.0419 12.4976 8.70838 7.90357 8.09874 7.40072\nthreshold=-1.0000000180025095e-35 0.030303030303028607 0.33333333333332915 -1.0000000180025095e-35 -0.0005947134694200577 -0.025975659324011854 0.20000000000001236 -0.082119599252721262 0.6445350807344864 0.4100986385945618 0.062499999999998064 0.0027551128845976218 0.49245043172525743 0.40000000000000774\ndecision_type=2 2 2 2 2 2 2 2 2 2 2 2 2 2\nleft_child=2 6 5 13 -4 -1 -2 -5 9 -7 -9 -12 -13 -3\nright_child=1 3 4 7 -6 8 -8 10 -10 -11 11 12 -14 -15\nleaf_value=0.00020874833291354661 -6.5932862710724305e-06 5.7023150241457194e-05 3.9000891642808713e-05 -5.7759932188764657e-05 -3.6580553462954415e-06 5.2641239635431696e-05 -3.6580553462954415e-06 -4.1732804006733206e-05 7.7074947445089506e-05 -9.6559509419421372e-06 4.052376461813765e-05 -4.0942552442265879e-05 2.0516163279989997e-05 1.031452755605642e-05\nleaf_weight=317 307 687 631 398 806 1043 314 338 570 427 472 790 300 782\nleaf_count=317 307 687 631 398 806 1043 314 338 570 427 472 790 300 782\ninternal_value=0.000452212 -0.00289426 0.00432261 -0.000597292 -0.000521921 0.0072762 -0.0168277 -0.00335074 0.00588235 0.00380952 -0.00189474 -0.000320102 -0.00266055 0.00371001\ninternal_weight=8182 4388 3794 3767 1437 2357 621 2298 2040 1470 1900 1562 1090 1469\ninternal_count=8182 4388 3794 3767 1437 2357 621 2298 2040 1470 1900 1562 1090 1469\nis_linear=0\nshrinkage=0.05\n\n\nTree=4\nnum_leaves=15\nnum_cat=0\nsplit_feature=21 30 32 7 31 47 23 10 10 18 39 6 26 46\nsplit_gain=38.165 29.7941 20.7145 20.4047 19.6484 14.3421 13.5978 11.8778 9.25704 9.2223 8.04222 8.03459 10.837 9.13656\nthreshold=-0.0020872342729875144 0.036057900667415273 0.0050984978750245524 -0.001991545969164565 0.20000000000000626 0.37194394752533921 0.28592695079021985 0.12162335066491727 -0.37924208365631124 0.039094987353053785 0.1920442571127485 0.43548147191195846 0.42596290085128824 0.30769230769230743\ndecision_type=2 2 2 2 2 2 2 2 2 2 2 2 2 2\nleft_child=4 2 -2 5 7 9 8 -1 -5 -3 -8 12 13 -6\nright_child=1 3 -4 6 11 -7 10 -9 -10 -11 -12 -13 -14 -15\nleaf_value=4.2124484508453864e-05 -3.3283910327418199e-06 -1.0979553009788107e-05 -7.2532555934490123e-05 -6.2892083028732483e-05 6.0863027381633395e-05 7.713491969639563e-05 -4.9257218373027173e-05 0.00010917791195951851 -2.1597863798019719e-05 6.655787815703207e-05 3.5872881471509572e-05 -3.4751525789806693e-06 -1.4509339320507027e-05 2.8403786963053793e-06\nleaf_weight=905 326 458 311 516 681 405 330 674 1115 303 459 845 414 440\nleaf_count=905 326 458 311 516 681 405 330 674 1115 303 459 845 414 440\ninternal_value=0.000476656 -0.00282974 -0.0127943 -0.00105968 0.00400354 0.00437393 -0.00367769 0.00832806 -0.00628449 0.000328515 0.00171103 0.00113445 0.0032899 0.005843\ninternal_weight=8182 4223 637 3586 3959 1166 2420 1579 1631 761 789 2380 1535 1121\ninternal_count=8182 4223 637 3586 3959 1166 2420 1579 1631 761 789 2380 1535 1121\nis_linear=0\nshrinkage=0.05\n\n\nTree=5\nnum_leaves=15\nnum_cat=0\nsplit_feature=1 29 5 6 41 6 48 49 35 14 30 41 15 39\nsplit_gain=29.5363 21.0372 16.4707 12.1993 10.9604 9.8172 9.8012 9.09798 9.99867 8.97388 9.10197 10.9022 8.71578 8.34297\nthreshold=-0.0096231494379263576 1.0000000180025095e-35 0.0071863738056505708 0.36885207885642429 0.33333333333333426 0.45038954439020923 0.0061749578450561631 11.500000000000002 0.26453684922244364 -0.74266758753425177 0.3999999999999983 0.17777777777777717 0.38622100769306861 0.36363636363636548\ndecision_type=2 2 2 2 2 2 2 2 2 2 2 2 2 2\nleft_child=5 -2 3 6 -5 -1 9 8 -4 -3 11 -11 -13 -14\nright_child=1 2 7 4 -6 -7 -8 -9 -10 10 -12 12 13 -15\nleaf_value=0.00017474767675243789 -3.9911243784379168e-06 -5.9050779391989182e-06 -1.5050395272762899e-05 -1.9263086628998962e-05 1.5561679730693185e-05 4.022259453832271e-05 -4.4426997403504651e-06 1.5147521774383693e-07 -0.00010110558342402124 7.0922807702897671e-05 6.8015778430974253e-05 3.8336089004458019e-05 2.6352091970253469e-05 -4.2311247747056542e-05\nleaf_weight=429 519 367 611 619 830 455 669 936 429 317 628 347 696 330\nleaf_count=429 519 367 611 619 830 455 669 936 429 317 628 347 696 330\ninternal_value=0.00120997 0.000164429 0.000907213 0.00248803 -0.00134576 0.00984163 0.00414431 -0.00293522 -0.00615385 0.00549348 0.00664366 0.00473373 0.00280408 0.000487329\ninternal_weight=8182 7298 6779 4803 1449 884 3354 1976 1040 2685 2318 1690 1373 1026\ninternal_count=8182 7298 6779 4803 1449 884 3354 1976 1040 2685 2318 1690 1373 1026\nis_linear=0\nshrinkage=0.05\n\n\nTree=6\nnum_leaves=15\nnum_cat=0\nsplit_feature=1 29 29 31 47 0 33 22 24 39 6 4 34 29\nsplit_gain=28.1505 18.1608 15.7952 13.1306 12.7731 10.7223 10.885 10.5921 10.1651 9.26262 9.21306 7.78881 10.4557 7.53581\nthreshold=-0.0096231494379263576 1.0000000180025095e-35 0.77777777777777291 0.13636363636364093 0.36842105263157821 -0.26350282069600378 0.49999999999999384 0.098610332233638812 29.770351625722856 0.33333333333334653 -0.24410912273161586 0.20506606084562531 0.41666666666666247 0.33333333333334186\ndecision_type=2 2 2 2 2 2 2 2 2 2 2 2 2 2\nleft_child=8 -2 3 5 7 -3 -7 11 -1 -9 -6 12 -5 -12\nright_child=1 2 -4 4 10 6 -8 9 -10 -11 13 -13 -14 -15\nleaf_value=4.8497896393287092e-05 -3.7915681595160214e-06 6.3953004433058266e-05 -2.2647966490897231e-05 2.9066300309549473e-07 5.4552932950149652e-05 -4.5137070898071639e-05 6.4190637634186588e-05 -1.5723129623251418e-05 0.00015474000963795645 -8.3582598529798505e-05 6.4877851508236828e-05 -1.3276730850868185e-05 5.7491109036338669e-05 -1.1251012191597273e-05\nleaf_weight=480 519 621 697 1139 558 420 364 643 404 304 486 720 321 506\nleaf_count=480 519 621 697 1139 558 420 364 643 404 304 486 720 321 506\ninternal_value=0.00107553 5.48095e-05 0.000744948 0.00156199 0.000288647 0.00580071 0.00191327 -0.00155101 0.00950226 -0.00596621 0.004 0.000366972 0.00246575 0.00110887\ninternal_weight=8182 7298 6779 6082 4677 1405 784 3127 884 947 1550 2180 1460 992\ninternal_count=8182 7298 6779 6082 4677 1405 784 3127 884 947 1550 2180 1460 992\nis_linear=0\nshrinkage=0.05\n\n\nTree=7\nnum_leaves=15\nnum_cat=0\nsplit_feature=5 29 31 1 29 6 31 7 37 38 26 47 14 8\nsplit_gain=27.4351 17.9663 16.5213 12.486 10.8541 10.6865 8.60265 9.56436 8.38714 8.27549 9.14073 7.99421 9.21927 8.99694\nthreshold=-0.011511487545878827 1.0000000180025095e-35 0.20000000000000626 0.00067114849723537439 0.75000000000001921 0.49538029315850945 0.13636363636364093 0.0045467466018915834 0.46031984007996091 0.21763419965994688 -0.38884579616160653 0.3866666666666656 -0.5665686378496263 -0.14099771212138193\ndecision_type=2 2 2 2 2 2 2 2 2 2 2 2 2 2\nleft_child=2 -2 -1 8 6 -4 7 -5 -3 10 -10 12 -8 -13\nright_child=1 3 5 4 -6 -7 11 -9 9 -11 -12 13 -14 -15\nleaf_value=0.00015320866178667684 -3.6040235977347554e-06 1.4230613276403563e-06 8.9591757502343813e-05 7.1185080358268126e-05 -7.5738928574201254e-05 -1.2337892908578762e-05 -4.409357972660144e-05 -5.5298378992183595e-06 -1.1936086362399098e-05 5.4843801738455068e-05 4.5784556765163583e-05 -2.1937740566358844e-05 -1.4422310337155672e-05 4.9750815015182245e-05\nleaf_weight=572 480 1655 405 347 531 388 321 461 316 438 554 310 1082 322\nleaf_count=572 480 1655 405 347 531 388 321 461 316 438 554 310 1082 322\ninternal_value=0.00103887 -0.000256711 0.00750916 0.00044974 -0.00163011 0.00283733 -0.000404502 0.0039604 0.00281809 0.0058104 0.00298851 -0.00213759 -0.00424091 0.00253165\ninternal_weight=8182 6817 1365 6337 3374 793 2843 808 2963 1308 870 2035 1403 632\ninternal_count=8182 6817 1365 6337 3374 793 2843 808 2963 1308 870 2035 1403 632\nis_linear=0\nshrinkage=0.05\n\n\nTree=8\nnum_leaves=15\nnum_cat=0\nsplit_feature=5 29 29 31 31 18 47 6 24 37 15 14 47 45\nsplit_gain=25.2058 17.5171 14.7613 15.2204 13.8155 12.3261 11.2915 10.1525 9.63763 8.52001 8.27161 9.0822 8.94723 7.85982\nthreshold=-0.011511487545878827 1.0000000180025095e-35 0.75000000000001921 0.13636363636364093 0.20000000000000107 0.0072470656214155601 0.39433811802232904 0.49538029315850945 14.559951577514365 0.55753467843632876 0.5737304826487325 -0.41103128296210917 0.22727272727272788 0.086956521739125436\ndecision_type=2 2 2 2 2 2 2 2 2 2 2 2 2 2\nleft_child=4 -2 3 5 -1 -3 8 -6 -5 -4 12 -12 -10 -8\nright_child=1 2 9 6 7 -7 13 -9 10 -11 11 -13 -14 -15\nleaf_value=0.000145548228697343 -3.4238224178480177e-06 -7.8644298316499292e-06 -7.9076625084318721e-06 -4.6133816043990418e-05 8.4212695324881669e-05 6.7676319174731628e-05 -5.6550509364257172e-06 -1.1249014421200399e-05 3.1048886931089524e-05 -7.590991388808124e-05 -4.2145948471750701e-05 -4.9299720749094783e-06 -1.1005659790794818e-05 3.341359409479485e-05\nleaf_weight=568 480 382 532 305 408 922 306 389 550 302 522 1238 307 971\nleaf_count=568 480 382 532 305 408 922 306 389 550 302 522 1238 307 971\ninternal_value=0.000867758 -0.000374065 0.000323497 0.00126295 0.0070696 0.0059816 -0.000202429 0.00282309 -0.0019165 -0.0058753 -0.000936186 -0.00289773 0.00309218 0.00371966\ninternal_weight=8182 6817 6337 5503 1365 1304 4199 797 2922 834 2617 1760 857 1277\ninternal_count=8182 6817 6337 5503 1365 1304 4199 797 2922 834 2617 1760 857 1277\nis_linear=0\nshrinkage=0.05\n\n\nTree=9\nnum_leaves=15\nnum_cat=0\nsplit_feature=32 5 6 38 7 44 31 34 31 3 38 23 26 25\nsplit_gain=25.4027 20.7765 14.5443 14.0587 13.1631 12.3423 10.4476 13.3363 10.2979 8.96089 12.6848 8.73758 8.57887 11.451\nthreshold=-0.0037341632713389136 -1.0000000180025095e-35 0.43548147191195846 0.02580752580752799 -0.001991545969164565 -0.0034175577161856294 0.24999999999998448 0.10416666666666706 0.14285714285713466 -0.01067330994692106 0.15999999999999881 -0.077126442687631677 -1.0842219727277209 -0.24961057985885662\ndecision_type=2 2 2 2 2 2 2 2 2 2 2 2 2 2\nleft_child=2 5 9 -3 -5 -2 -7 -8 -4 -1 -11 -6 -13 -14\nright_child=1 3 8 4 11 6 7 -9 -10 10 -12 12 13 -15\nleaf_value=0.00016062933440168649 6.721615349482193e-05 -2.099586488796894e-05 7.4841067588123409e-05 2.8276497792137234e-05 -6.9086687280256017e-05 3.0804006597972221e-05 -4.744036536534517e-05 3.8414316470872811e-06 -8.2876548635987461e-06 0.00011806157906185484 9.3278341529676014e-06 2.403242647615097e-05 -3.8005341773163094e-05 -6.4787695408511484e-06\nleaf_weight=404 556 530 313 706 432 651 307 734 623 321 596 351 409 1249\nleaf_count=404 556 530 313 706 432 651 307 734 623 321 596 351 409 1249\ninternal_value=0.0010022 -0.0007173 0.00551617 -0.00303236 -0.00176358 0.0030694 0.000945626 -0.00216138 0.000747863 0.00889478 0.0061614 -0.00350266 -0.00211548 -0.00361882\ninternal_weight=8182 5925 2257 3677 3147 2248 1692 1041 936 1321 917 2441 2009 1658\ninternal_count=8182 5925 2257 3677 3147 2248 1692 1041 936 1321 917 2441 2009 1658\nis_linear=0\nshrinkage=0.05\n\n\nTree=10\nnum_leaves=15\nnum_cat=0\nsplit_feature=5 29 31 7 1 15 14 15 30 28 47 6 45 27\nsplit_gain=21.7583 15.3138 13.5429 10.8453 11.3971 10.5908 9.80739 11.5129 11.293 12.8208 12.2401 9.28995 8.8177 10.8323\nthreshold=-0.011511487545878827 1.0000000180025095e-35 0.20000000000000107 0.0041377887506249831 -0.0033637001361508929 2.1272047025587306 -0.75943430998081995 0.38622100769306861 0.46440092165898877 0.42807792849607479 0.37194394752533921 0.49538029315850945 0.50000000000000966 0.10733244295758972\ndecision_type=2 2 2 2 2 2 2 2 2 2 2 2 2 2\nleft_child=2 -2 -1 5 -5 6 -3 -8 9 10 -9 -4 -6 -14\nright_child=1 3 11 4 12 -7 7 8 -10 -11 -12 -13 13 -15\nleaf_value=0.00013359710930600565 -3.8352694430347543e-06 -1.5482769150815069e-05 7.8528848092857014e-05 3.4804918493508431e-05 -3.221772543608571e-06 9.2594749202156804e-05 3.1568162848012683e-05 -1.2023166027781384e-05 5.2665213190519151e-05 -3.7886776409445243e-05 4.0613942227501709e-05 -9.9636356506813975e-06 -7.4128952727312494e-05 4.0640396764117087e-06\nleaf_weight=568 480 339 408 556 1346 414 692 845 344 337 487 389 677 300\nleaf_count=568 480 339 408 556 1346 414 692 845 344 337 487 389 677 300\ninternal_value=0.00101442 -0.000139357 0.00677656 0.000512861 -0.00175408 0.00240023 0.00137976 0.00238447 0.000471932 -0.00122828 0.000975976 0.00257215 -0.00329316 -0.0069089\ninternal_weight=8182 6817 1365 6337 2879 3458 3044 2705 2013 1669 1332 797 2323 977\ninternal_count=8182 6817 1365 6337 2879 3458 3044 2705 2013 1669 1332 797 2323 977\nis_linear=0\nshrinkage=0.05\n\n\nend of trees\n\nfeature_importances:\nlower_wick_frac_0=13\nprice_pct_change_6h=12\ntrade_value_pct_change_3h=10\nprice_pct_change_1h=9\nbody_frac_0=9\nprice_pct_change_3h=8\nupper_wick_frac_0=7\ntrade_value_pct_change_48h=6\nlower_wick_frac_4=6\ntrade_value_pct_change_12h=5\nmacd_pct_change_24=5\nupper_wick_frac_1=5\ncur_pct_change_4=5\nprice_std_4=4\nrsi_pct_change_24=4\nlower_wick_frac_2=4\nbody_frac_4=4\nmacd_pct_change_6=3\ncur_pct_change_0=3\ncur_pct_change_1=3\nupper_wick_frac_2=3\nhour=3\nprice_pct_change_2h=2\nrel_dist_to_bb_upper=2\nadx=2\nbody_frac_2=2\nbody_frac_3=2\nlower_wick_frac_3=2\ntrade_value_z_score=1\ntrade_value_pct_change_2h=1\ntrade_value_pct_change_6h=1\nrsi_pct_change_2=1\nrsi_pct_change_6=1\nmacd_pct_change_2=1\nrel_dist_to_signal=1\nbody_frac_1=1\nlower_wick_frac_1=1\ncur_pct_change_3=1\nupper_wick_frac_4=1\n\nparameters:\n[boosting: gbdt]\n[objective: regression_l1]\n[metric: l1]\n[tree_learner: serial]\n[device_type: cpu]\n[data_sample_strategy: bagging]\n[data: ]\n[valid: ]\n[num_iterations: 1000]\n[learning_rate: 0.05]\n[num_leaves: 15]\n[num_threads: 0]\n[seed: 0]\n[deterministic: 0]\n[force_col_wise: 0]\n[force_row_wise: 0]\n[histogram_pool_size: -1]\n[max_depth: -1]\n[min_data_in_leaf: 300]\n[min_sum_hessian_in_leaf: 0.001]\n[bagging_fraction: 1]\n[pos_bagging_fraction: 1]\n[neg_bagging_fraction: 1]\n[bagging_freq: 0]\n[bagging_seed: 3]\n[bagging_by_query: 0]\n[feature_fraction: 1]\n[feature_fraction_bynode: 1]\n[feature_fraction_seed: 2]\n[extra_trees: 0]\n[extra_seed: 6]\n[early_stopping_round: 0]\n[early_stopping_min_delta: 0]\n[first_metric_only: 0]\n[max_delta_step: 0]\n[lambda_l1: 0]\n[lambda_l2: 0]\n[linear_lambda: 0]\n[min_gain_to_split: 0]\n[drop_rate: 0.1]\n[max_drop: 50]\n[skip_drop: 0.5]\n[xgboost_dart_mode: 0]\n[uniform_drop: 0]\n[drop_seed: 4]\n[top_rate: 0.2]\n[other_rate: 0.1]\n[min_data_per_group: 100]\n[max_cat_threshold: 32]\n[cat_l2: 10]\n[cat_smooth: 10]\n[max_cat_to_onehot: 4]\n[top_k: 20]\n[monotone_constraints: ]\n[monotone_constraints_method: basic]\n[monotone_penalty: 0]\n[feature_contri: ]\n[forcedsplits_filename: ]\n[refit_decay_rate: 0.9]\n[cegb_tradeoff: 1]\n[cegb_penalty_split: 0]\n[cegb_penalty_feature_lazy: ]\n[cegb_penalty_feature_coupled: ]\n[path_smooth: 0]\n[interaction_constraints: ]\n[verbosity: -1]\n[saved_feature_importance_type: 0]\n[use_quantized_grad: 0]\n[num_grad_quant_bins: 4]\n[quant_train_renew_leaf: 0]\n[stochastic_rounding: 1]\n[linear_tree: 0]\n[max_bin: 255]\n[max_bin_by_feature: ]\n[min_data_in_bin: 3]\n[bin_construct_sample_cnt: 200000]\n[data_random_seed: 1]\n[is_enable_sparse: 1]\n[enable_bundle: 1]\n[use_missing: 1]\n[zero_as_missing: 0]\n[feature_pre_filter: 1]\n[pre_partition: 0]\n[two_round: 0]\n[header: 0]\n[label_column: ]\n[weight_column: ]\n[group_column: ]\n[ignore_column: ]\n[categorical_feature: ]\n[forcedbins_filename: ]\n[precise_float_parser: 0]\n[parser_config_file: ]\n[objective_seed: 5]\n[num_class: 1]\n[is_unbalance: 0]\n[scale_pos_weight: 1]\n[sigmoid: 1]\n[boost_from_average: 1]\n[reg_sqrt: 0]\n[alpha: 0.9]\n[fair_c: 1]\n[poisson_max_delta_step: 0.7]\n[tweedie_variance_power: 1.5]\n[lambdarank_truncation_level: 30]\n[lambdarank_norm: 1]\n[label_gain: ]\n[lambdarank_position_bias_regularization: 0]\n[eval_at: ]\n[multi_error_top_k: 1]\n[auc_mu_weights: ]\n[num_machines: 1]\n[local_listen_port: 12400]\n[time_out: 120]\n[machine_list_filename: ]\n[machines: ]\n[gpu_platform_id: -1]\n[gpu_device_id: -1]\n[gpu_use_dp: 0]\n[num_gpu: 1]\n\nend of parameters\n\npandas_categorical:[]\n", "hyperparams": {"learning_rate": 0.05, "num_leaves": 15, "feature_fraction": 1.0, "min_data_in_leaf": 300}}